//Numpy array shape [256]
//Min -25.642807006836
//Max 26.323404312134
//Number of zeros 1

#ifndef B4_H_
#define B4_H_

#ifndef __SYNTHESIS__
dense_1_bias_t b4[256];
#else
dense_1_bias_t b4[256] = {-0.818652, 6.444897, -0.007571, -10.037380, -0.057162, -9.462599, 16.638754, -6.610019, -0.036696, -1.592176, -0.438073, -0.094431, 0.698309, -0.934217, -0.069426, 6.625829, -0.083629, 0.003949, -0.113323, -5.491425, 8.072624, 14.396471, 4.889874, -0.090649, 1.673430, 2.382297, -0.056858, 7.328511, 6.186604, -0.017116, -1.789148, -11.846649, -0.137137, -7.029184, -0.446490, -1.412747, 7.204704, -8.375641, 7.020272, -0.060097, 2.190546, -0.113781, -9.643630, -0.063141, -0.088855, -0.186292, 1.253331, -1.968720, 1.455227, 0.064946, -1.703214, 10.050214, -25.642807, -1.686360, -0.030514, 0.667336, -0.855304, 10.308299, -0.099492, -0.063444, 26.277258, 25.647335, 6.177422, -6.968863, -0.655229, -4.323862, -0.044011, 1.448097, -6.753098, 1.577021, 0.676689, 2.144092, -0.073346, -0.039721, 3.407441, -0.138843, 0.468402, -0.023633, 1.145652, -0.088729, -3.028376, 0.146628, 8.234305, 3.700670, -21.168419, 3.675779, -5.470339, 0.144699, 0.333965, -6.220745, 3.051988, -3.367649, -0.075284, 0.832712, 1.993533, -0.061415, -0.037894, -0.064848, 1.802173, 13.573048, -0.059996, -0.073766, -0.213903, 2.745704, 6.041093, 0.071750, 2.618605, 17.167570, 23.880085, 5.770478, 6.823843, 2.926350, -8.874467, 3.879904, 2.753376, -0.396069, 0.826188, -1.110510, -2.235996, -0.059602, 8.733876, -0.265049, -1.476273, -0.092272, 2.328866, 0.052468, 0.392541, 8.501465, -4.863880, -16.901346, -0.069191, -0.191446, -0.434801, 8.793586, 0.794161, 0.430529, -1.205795, 8.173503, -13.915867, -0.645759, -0.234223, 2.431863, 0.128943, -6.958511, 0.072196, -3.948639, -2.018353, 9.204164, 0.909474, -0.115707, -6.179111, 0.924957, 0.011687, 6.959274, -0.795140, -10.591411, -0.111448, 11.318193, -13.125691, 6.285307, 0.000000, -0.091255, 0.042181, 2.676518, 7.833866, -0.061548, -25.436872, -0.051800, 4.367822, 21.741405, -2.891511, 4.868681, -4.241879, -0.076684, 7.212505, -0.180073, -3.341512, 0.865025, -0.044053, 1.375628, 5.126935, 8.573193, -7.072220, -0.729010, -2.111752, -0.043590, 25.940302, 5.974679, -15.425821, 3.296329, -4.776320, 0.340750, 1.296601, -0.354722, -0.046759, -0.869452, -1.738288, -3.785835, -0.069589, 0.833117, 9.232378, 6.440005, -0.088458, -13.476659, -1.442560, 8.898035, 1.636395, -2.268210, 0.983817, -1.094991, 2.036664, -0.898585, 0.476772, -0.037240, 4.915541, -0.419918, -0.184532, 0.142702, 0.942907, 5.577196, 2.994864, 0.047317, -0.061164, -4.034399, -0.013564, 0.137223, -0.632219, 1.194253, 3.986596, 5.277032, -8.560251, -20.497046, 2.493968, 7.126663, -1.444975, 6.170847, -1.090510, 0.130489, 26.323404, 6.980852, -0.090205, -3.022624, -0.074534, 23.293152, 26.259731, 11.190387, 10.786444, -0.669509, 3.944600, 5.280708, -0.038161, 1.791398, -0.060072, -3.933588, -2.513498, 10.571562};

#endif

#endif
