//Numpy array shape [256, 4]
//Min -0.259746074677
//Max 0.301130533218
//Number of zeros 0

#ifndef W6_H_
#define W6_H_

#ifndef __SYNTHESIS__
dense_2_weight_t w6[1024];
#else
dense_2_weight_t w6[1024] = {0.00185252144001, 0.00106000970118, 0.02768879756331, -0.00447932910174, 0.00299512222409, -0.00135714199860, 0.06049780920148, 0.00134326063562, -0.01592917926610, -0.08947994560003, 0.14870543777943, 0.10647673904896, 0.02177763916552, -0.00414369162172, 0.00217831623740, 0.01707873120904, 0.02625722810626, -0.08872572332621, -0.05304343998432, -0.12590631842613, -0.04623576253653, 0.03563205152750, 0.03116717562079, 0.01957613416016, 0.00590911414474, -0.00564121361822, -0.01267359964550, -0.04750626534224, -0.03156312182546, 0.02606768906116, 0.03498367965221, -0.02535848505795, 0.01190431322902, -0.05340129509568, 0.06988782435656, 0.01318787876517, -0.00310257310048, 0.00238188169897, 0.05028063431382, -0.01741976477206, -0.00875215325505, -0.03061728365719, -0.02541007474065, -0.01559100765735, -0.11613997817039, 0.04175430908799, -0.05408141762018, -0.03861118480563, 0.00119334738702, -0.00173276348505, 0.07713116705418, -0.00402006087825, -0.00004432527203, -0.00208566011861, 0.03450326994061, 0.00153599667829, -0.04980811476707, 0.10424628853798, -0.04085983335972, -0.08609440922737, -0.00068199180532, -0.00001191658521, -0.06192014366388, 0.00035965204006, -0.02701581642032, -0.06325630098581, 0.05678904801607, 0.02608160302043, 0.04978700727224, 0.03218774870038, -0.00016609660815, -0.03288730233908, -0.00057666329667, -0.08065195381641, -0.07220017910004, 0.11146532744169, -0.03324150294065, -0.01726560294628, 0.02779592759907, 0.03979232534766, -0.00523942103609, -0.02246263809502, 0.00481925578788, 0.00608331151307, 0.03155221417546, 0.00264734146185, 0.02470253221691, -0.01398350112140, -0.00719940336421, 0.03951375558972, -0.02441900409758, -0.00029625013121, 0.02219943702221, -0.01386992540210, -0.04079512134194, 0.04777714982629, -0.05296715721488, 0.03485861420631, 0.07396598160267, 0.00061882380396, 0.00647156732157, 0.00282273045741, 0.02562350966036, -0.05950421094894, -0.07623225450516, -0.09874955564737, -0.11225844919682, -0.08849993348122, 0.00464292056859, -0.00307513400912, 0.09342444688082, -0.01591870561242, -0.01907937042415, 0.00213008746505, 0.04584027454257, -0.09781651198864, 0.11117986589670, 0.12479162961245, -0.02033271268010, -0.00768083659932, 0.00017806487449, -0.00073975906707, 0.03405560553074, 0.00186636298895, -0.03426465019584, -0.03167896717787, 0.00991383753717, 0.04356441274285, 0.00428628129885, -0.02899455651641, -0.00730733107775, -0.05411388725042, -0.04155486077070, 0.02164681442082, 0.02758048661053, 0.03166344761848, 0.00025972060394, -0.00509810820222, 0.06729657202959, -0.00093180220574, -0.00118744606152, 0.01520464103669, -0.01488846167922, 0.00802966952324, -0.01912965625525, 0.02637144923210, 0.02964389882982, -0.00747678475454, 0.01925840973854, -0.06919863820076, 0.02285367622972, -0.03130645304918, -0.00281254574656, 0.00058562995400, 0.06809808313847, 0.00709812948480, -0.07900328934193, 0.11718358099461, 0.05134580284357, 0.01689391024411, -0.00766155403107, -0.00041050530854, -0.09109789133072, -0.00545793026686, 0.01915930211544, 0.03891073539853, -0.05427411943674, -0.06175103038549, 0.01682947203517, -0.02702945098281, -0.03327596932650, 0.01754745095968, 0.01180173270404, -0.00296153430827, -0.00516395224258, 0.01581243425608, -0.09643913805485, 0.02217904664576, -0.06035201251507, -0.09275365620852, 0.00501964753494, 0.00245079305023, 0.07200431078672, -0.00584218697622, 0.00567317986861, 0.00027920922730, 0.05744614079595, -0.00161749345716, 0.00071498617763, 0.00208299467340, 0.05973665416241, 0.00017277692677, -0.00290913577192, 0.00260005216114, -0.04498283192515, -0.00850423332304, 0.01030230522156, -0.01035696081817, 0.06180142238736, -0.00096577149816, 0.00078720826423, -0.00080984592205, 0.02727438323200, 0.00044862163486, 0.01013561431319, -0.00513491034508, -0.00251824362203, 0.00923573970795, -0.12847574055195, -0.01070343609899, 0.01446156296879, -0.00482543185353, 0.00194727105554, -0.00045396658243, -0.05857331305742, 0.00214902986772, 0.09891024976969, 0.06809876859188, 0.06686656177044, 0.09344297647476, -0.00258615333587, -0.00250869151205, 0.04690209403634, 0.00554732605815, -0.00055037438869, -0.00106874294579, 0.04351464658976, -0.00296639068983, -0.03229568153620, -0.03691547736526, 0.02496700733900, 0.06461013108492, -0.12438074499369, 0.01195667032152, 0.01863858848810, -0.08409507572651, -0.06170058622956, -0.00791300460696, 0.06323793530464, -0.09976592659950, 0.03130139037967, 0.08329570293427, -0.01259171124548, -0.01022047735751, 0.30113053321838, 0.01100178062916, -0.03551987558603, 0.02893982455134, -0.00292960926890, -0.00388328032568, 0.04835009574890, 0.00781327113509, 0.00205806316808, -0.00003995764928, -0.13076174259186, -0.00033492955845, 0.00002597302228, 0.00112071970943, -0.06407909840345, -0.00066019309452, 0.00285738660023, -0.00076675089076, 0.04425010457635, -0.00272195087746, -0.03805001080036, -0.03767460584641, -0.07835216075182, -0.10229088366032, 0.08849831670523, -0.00173368398100, -0.00706937536597, 0.02287792414427, 0.01059026457369, 0.02434959076345, -0.02215181663632, 0.00870741158724, -0.00130264065228, 0.00676553836092, -0.14352275431156, -0.03160155937076, -0.00243975827470, -0.00501175178215, 0.06162879988551, -0.00940841343254, -0.02575154788792, 0.04843674600124, -0.08454648405313, 0.06051642820239, -0.08194845169783, 0.04553105309606, -0.12613058090210, 0.01605899818242, -0.08407933264971, 0.03649454936385, -0.07070494443178, -0.06956845521927, -0.00433870311826, -0.00666265841573, -0.07265967130661, 0.00107800553087, -0.02652730233967, 0.01770014502108, -0.02801686711609, -0.02476144023240, -0.01287312712520, -0.00909996312112, -0.00714119430631, -0.01300449669361, 0.00076922070002, -0.06405544281006, -0.04956885054708, -0.08856985718012, 0.00515526859090, -0.00254143518396, -0.06568779051304, 0.00738458847627, -0.08339106291533, 0.11417055130005, 0.00062274013180, 0.06030853837729, 0.01504880934954, 0.00902577489614, 0.07686566561460, -0.01435013115406, -0.00356073351577, -0.00170368026011, 0.06585568189621, -0.00422413600609, -0.00067785946885, 0.00065640878165, -0.08037167787552, 0.00156292121392, -0.01132232043892, -0.01644007116556, 0.10075204819441, 0.03449994325638, -0.10955386608839, -0.00185294379480, 0.01681650802493, -0.01175911910832, -0.00337739614770, -0.01877714507282, 0.00893010012805, 0.00927702151239, 0.00326232914813, 0.04310425370932, -0.00626779673621, 0.00645015528426, 0.06723500043154, 0.10907888412476, -0.00653083436191, -0.08390683680773, 0.00164532475173, -0.00146578100976, 0.05598236620426, -0.00097705970984, -0.04076368734241, -0.00389890978113, -0.08087976276875, 0.00426678266376, 0.00000036893471, 0.00462280679494, 0.03570925444365, -0.00556417740881, -0.00074488751125, 0.00217144959606, -0.03018225356936, 0.00081032252638, 0.00445831613615, 0.11499099433422, 0.02085702680051, 0.09291242063046, 0.00420409301296, 0.02980780228972, 0.00102062383667, -0.01932316645980, -0.03455147892237, -0.02451918460429, -0.03910556808114, 0.00789683870971, 0.07538680732250, -0.00582628138363, 0.00141373754013, 0.03329892829061, -0.00495507474989, 0.02127932943404, -0.11744885891676, 0.10383214056492, -0.04647465422750, -0.08298754692078, -0.06065978482366, 0.05008946359158, 0.00391041487455, 0.00400339532644, -0.09692808240652, 0.00375332823023, 0.00126720336266, 0.00181767414324, -0.08870544284582, 0.01490276493132, 0.01912901550531, 0.09049457311630, -0.16196940839291, -0.07371329516172, 0.05172169953585, -0.08624865859747, -0.05935788899660, 0.05268329381943, -0.00591516401619, -0.00136764883064, -0.06713851541281, 0.00311242672615, 0.01380597986281, -0.01338178385049, 0.12980733811855, -0.00208248128183, -0.03971043229103, 0.01449759304523, 0.02679901383817, -0.02685879729688, 0.11927637457848, 0.08403069525957, -0.06841879338026, -0.01382985897362, 0.00312944664620, 0.00474960124120, -0.07664882391691, 0.00569843547419, 0.01707112602890, -0.00230295490474, -0.01028604339808, -0.06007485464215, 0.13055396080017, 0.00415260018781, -0.00548354722559, 0.02290042676032, 0.00220954348333, 0.00255441502668, -0.07521341741085, 0.00325950817205, 0.01093687117100, -0.01454794965684, 0.09291734546423, -0.01585094816983, -0.00205607037060, -0.00164419482462, -0.07689949125051, 0.01832062937319, -0.04367705807090, -0.05274255201221, 0.02907582558692, 0.02252752706409, 0.00220542773604, -0.00272582215257, -0.10792718082666, 0.00094026204897, 0.01993251219392, 0.00311797717586, 0.07814135402441, 0.04641874879599, -0.00300726341084, 0.00286288233474, -0.07614831626415, 0.00766507489607, 0.00082980829757, 0.00067536649294, 0.04072421789169, -0.00353132607415, 0.00014585163444, -0.00226668734103, 0.05212392657995, -0.00551504082978, -0.00023700883321, -0.00196102913469, 0.04798071831465, 0.00351184327155, 0.03658847510815, 0.07823073118925, 0.08799327909946, -0.07350303977728, 0.00067105487688, 0.00071776757250, -0.08613444119692, 0.01156509667635, -0.00043188448763, -0.00334373279475, 0.03576119244099, 0.00367654161528, -0.00009462494927, -0.00313208089210, 0.03314108401537, 0.00894187949598, -0.04205521568656, 0.03153225034475, 0.00108264107257, 0.01582610793412, 0.01107611972839, 0.00112296070438, 0.04464050754905, -0.02087967097759, -0.00127218686976, -0.00268357107416, 0.03460091724992, -0.00599296577275, 0.08597703278065, -0.04904111102223, 0.00891901645809, 0.01575946994126, 0.00929582025856, -0.03017409890890, -0.01260866224766, 0.00534855667502, -0.00909196492285, 0.00159649783745, 0.10414428263903, 0.28124636411667, 0.00164631637745, 0.00155848322902, 0.03352434188128, -0.02483664453030, 0.03500417619944, 0.03698767349124, 0.04600306972861, -0.03665937855840, -0.00068909226684, -0.00442354986444, 0.01648364961147, -0.04271957278252, -0.02031467668712, 0.00198411406018, 0.02593975514174, -0.01713781803846, 0.07897143065929, 0.02302571758628, -0.03500971198082, -0.03136883303523, 0.01376727968454, 0.00414883345366, 0.02856764197350, 0.05021595582366, -0.00110085436609, -0.00324185821228, -0.07422650605440, -0.00472250767052, 0.00132370530628, -0.00279697147198, 0.03678455948830, -0.00321061001159, 0.05190333351493, -0.00570880295709, 0.00204878370278, 0.05944100767374, 0.01082262024283, 0.05480027943850, -0.03692979738116, -0.04922944307327, -0.00951483100653, -0.01730936206877, -0.15884441137314, 0.04228292033076, -0.00870691519231, -0.00595920020714, 0.06357163190842, 0.01138594094664, 0.00099375331774, -0.00088851770852, 0.05942484736443, 0.00835492368788, 0.08945444226265, -0.00986448395997, -0.15257410705090, -0.01114859525114, -0.04484780132771, 0.02646396309137, -0.01744811609387, 0.02705140784383, 0.05275172740221, 0.00051142083248, 0.05875785648823, -0.02328375913203, -0.00131578824949, -0.00072002148954, 0.05298051983118, 0.00349917844869, -0.04384908825159, 0.00696105696261, 0.01869040168822, 0.03990968689322, 0.00624659610912, -0.00293426983990, -0.04427621886134, -0.01281416416168, -0.00662022922188, -0.00216222344898, 0.02924109436572, -0.00581257557496, 0.00507976068184, 0.10353390127420, 0.03114123456180, -0.11121108382940, -0.00029038055800, -0.00054651586106, 0.03786416724324, 0.00205881032161, 0.02022665180266, 0.01294508669525, -0.03817043825984, -0.03319029510021, 0.04760475456715, 0.05048061534762, -0.09609732776880, -0.08267380297184, 0.07330079376698, 0.03352300450206, 0.04943594709039, 0.00624772394076, 0.00196222332306, -0.00100148329511, 0.02768385037780, -0.00448112050071, -0.07611379027367, -0.02435456030071, -0.00363198481500, -0.00173117429949, -0.01674165204167, -0.03783182799816, -0.06085240095854, -0.01114645693451, 0.02845555730164, -0.00565217016265, 0.00759425666183, 0.07389426976442, -0.02778381668031, 0.01764557696879, -0.00024531435338, -0.00077588116983, 0.00574282044545, -0.00248541845940, -0.05252885073423, 0.00118852488231, -0.05303457379341, 0.04226453602314, -0.11980199813843, -0.13424097001553, 0.10043030232191, -0.02232241071761, -0.06539690494537, 0.09093983471394, 0.00528800161555, -0.01653800532222, -0.03433776274323, -0.00682296277955, 0.04689263552427, -0.03591457381845, 0.02324949018657, -0.04667985066772, -0.00164557190146, -0.00351250427775, 0.06347034126520, -0.00774757424369, 0.08910661190748, -0.11048983782530, -0.06673551350832, -0.08313824236393, -0.25974607467651, -0.00683501269668, 0.04430221766233, -0.02922050468624, -0.05692243576050, 0.09863132983446, -0.06180594488978, -0.01694194972515, 0.00041220465209, -0.00309264450334, 0.05566842108965, 0.00599687173963, 0.02714640274644, -0.00743070011958, -0.00304218707606, 0.02868772856891, 0.00051853666082, 0.00379106891342, -0.02505473792553, -0.01686186529696, -0.00017797909095, 0.00069487397559, -0.04261345043778, 0.00178075535223, 0.00118876853958, 0.00127404404338, 0.05356264859438, -0.00082125241170, 0.10258628427982, -0.07461627572775, -0.10119461268187, -0.08513775467873, 0.00605260813609, -0.00533143710345, 0.03018766641617, -0.00677827699110, -0.00159397698008, -0.00263337045908, 0.04103367030621, -0.00625517312437, -0.00269683403894, 0.00135566340759, -0.03695772960782, 0.00428209500387, -0.00193438038696, 0.00369510753080, 0.06237381696701, 0.02210636436939, 0.01936639845371, -0.01886483281851, 0.03260613232851, -0.01266524754465, -0.00026162294671, -0.00716092158109, 0.02215236611664, 0.04922589659691, 0.00056105019758, -0.00006765250873, 0.05172538757324, -0.00712134828791, 0.00372564815916, 0.00318506825715, -0.07481600344181, -0.00367394019850, 0.01628796756268, 0.02396196685731, 0.02993325702846, -0.00985643174499, -0.02304874174297, -0.03072159737349, -0.01925696991384, 0.02614333294332, -0.02710656262934, 0.00297178747132, 0.03663734346628, 0.04217102751136, 0.06232707574964, 0.10405536741018, -0.06201094761491, -0.07403971999884, 0.16018255054951, -0.01209088321775, -0.02035547234118, 0.00260440679267, -0.03662753105164, -0.03229050338268, -0.00562209589407, -0.00543243577704, -0.01028291694820, -0.01747244223952, -0.00630022166297, 0.00605473527685, -0.00020116085943, -0.00370929879136, 0.05623860284686, 0.00519591150805, -0.03921040147543, -0.01949010603130, -0.03550229221582, -0.03122987970710, -0.00083603535313, -0.00196902570315, 0.05512553453445, 0.00067339855013, 0.00161599728744, -0.00164444313850, 0.04815619438887, -0.00026899925433, -0.00644282577559, 0.01111160591245, -0.05915902927518, 0.00502626597881, 0.02017006091774, -0.02989041805267, -0.01322745531797, 0.03463936969638, 0.00327338511124, -0.00190832593944, -0.04448370262980, 0.00061979610473, -0.00825578346848, 0.02705431357026, 0.07249718904495, 0.00535627128556, 0.00427519669756, -0.00080599548528, 0.03000591509044, 0.00223687291145, 0.01372270751745, 0.03721677884459, 0.03053095564246, -0.01092039793730, 0.00166307564359, -0.01032215636224, -0.17756369709969, 0.00341141037643, 0.01958018727601, 0.02437423914671, -0.01410236023366, -0.01668976061046, 0.00007341189485, -0.00027819970273, 0.08203125000000, -0.00416572671384, 0.00464445771649, -0.05972898006439, -0.03807560727000, 0.10056867450476, -0.00195542490110, 0.01008448097855, -0.01096272189170, -0.02522254176438, -0.00041549903108, -0.00002827895514, 0.04674389585853, 0.00419566780329, -0.00026160239941, 0.00059889414115, 0.05533465370536, -0.00842592399567, 0.00914833601564, 0.00037486196379, -0.06066186726093, 0.00647125905380, 0.00030672230059, -0.00441133929417, 0.04715140536427, -0.00026292196708, -0.00500316172838, -0.00070328474976, 0.03561307489872, 0.01047900412232, 0.01307591609657, -0.06062033027411, 0.01710784994066, 0.00824271515012, -0.00237295054831, -0.00219919462688, -0.04735824838281, 0.00862233247608, -0.00050176633522, -0.00013714178931, 0.03869409859180, 0.00162200140767, 0.00005976802277, -0.00166133197490, 0.05159009993076, 0.00407678261399, -0.00230324454606, -0.00173870823346, 0.06801919639111, 0.01875427551568, 0.00154398847371, 0.00201638205908, 0.04918993264437, -0.01128455996513, 0.01149401627481, 0.02670188434422, 0.09001824259758, -0.00645499397069, 0.00292079057544, -0.01656469888985, 0.07473712414503, 0.00198247958906, -0.00777867343277, 0.00512846931815, 0.05255897343159, -0.00545243080705, -0.00169862853363, 0.00464289123192, -0.07162810117006, -0.01066072750837, -0.00877581629902, -0.06104620173573, 0.03734350576997, 0.03163260594010, -0.00230751256458, -0.00077471690020, 0.05492196604609, -0.00884035322815, -0.00272285821848, -0.00082483299775, -0.04052675142884, -0.00050762365572, 0.07775948196650, 0.08743429929018, -0.04319876804948, -0.04449099302292, -0.01248425059021, -0.00119472190272, -0.05613233149052, 0.00548849627376, 0.02696470171213, -0.02690084837377, -0.01852301694453, 0.02314586006105, 0.00185041059740, -0.00050993775949, 0.03599075600505, 0.00138233427424, 0.07740323990583, -0.02876083366573, 0.00078695558477, 0.05302191153169, 0.01997160539031, -0.00224090926349, 0.00216419110075, -0.02697115950286, 0.03261361271143, 0.00111695472151, 0.15650233626366, -0.02555483765900, 0.08049228042364, -0.08189232647419, -0.07139981538057, 0.06028511747718, 0.01447540614754, 0.05398713797331, 0.02914047800004, -0.03240140900016, -0.02851058170199, 0.00724399043247, 0.00935983099043, 0.00673573790118, -0.00381706375629, -0.00075354345609, -0.05772884190083, -0.00122326484416, 0.00256494712085, 0.00787102896720, -0.08466976135969, 0.00892431102693, 0.00618787948042, 0.00387937738560, 0.04744407162070, -0.03473027423024, 0.07884287089109, -0.09875822067261, 0.00768883898854, 0.01873947121203, 0.00109311973210, -0.00153789622709, -0.02331343479455, 0.00718075595796, 0.00390677154064, -0.00006702537939, 0.05700458586216, 0.00394521187991, 0.21308372914791, -0.02739764377475, -0.02818056009710, 0.02074414677918, 0.00236792722717, 0.00064795883372, -0.08302364498377, -0.00098991976120, -0.06687592715025, 0.08737037330866, 0.04346667230129, -0.03306111693382, 0.00230868789367, -0.00289064180106, 0.06611260771751, 0.00020636718546, 0.00517913931981, 0.00890473742038, 0.02664040215313, -0.03954511135817, 0.03787937760353, 0.00686389394104, -0.01802776195109, -0.02944445982575, 0.12218163907528, 0.00593209825456, -0.01381068862975, -0.03091792389750, -0.01797518879175, -0.00190841080621, 0.08698856830597, -0.00899976864457, -0.00494479620829, -0.00582048762590, -0.06231288239360, 0.02597527392209, 0.02091001346707, -0.10657162964344, -0.05361560359597, 0.02400000765920, 0.00061206368264, -0.00207537948154, -0.07072690129280, 0.00326978950761, -0.00826365873218, 0.00472853519022, -0.11201229691505, -0.01315471064299, 0.02665513381362, -0.00146421045065, -0.07874262332916, 0.06379082798958, -0.00364218396135, -0.00413731066510, -0.09706071019173, 0.00315110734664, -0.06290161609650, 0.05332432687283, -0.02097007818520, -0.04049031808972, -0.05234703049064, 0.01080345083028, 0.00351207493804, 0.00742335803807, -0.01869508996606, -0.06887918710709, 0.00543406745419, 0.00219795503654, 0.05395463854074, 0.05984716862440, -0.01688130572438, 0.02590198069811};

#endif

#endif
