//Numpy array shape [64]
//Min -4.110342979431
//Max 4.765469074249
//Number of zeros 2

#ifndef B2_H_
#define B2_H_

#ifndef __SYNTHESIS__
dense_bias_t b2[64];
#else
dense_bias_t b2[64] = {4.5888772011, -0.0190577041, -3.5190625191, -0.0135361869, -3.8047115803, -3.7102246284, -0.5496347547, 1.5546163321, 0.0000000000, -3.6357789040, 4.7654690742, -0.0581832267, 2.5020349026, -0.0118856775, -0.0064435881, -0.0107849110, -0.0319568329, 3.6692299843, -0.1309217215, -0.1204806417, -0.0178269185, 2.3567616940, 3.8868904114, -3.7781391144, 4.0416555405, 3.5143725872, 3.3796088696, 3.5087201595, -0.0442614816, -0.0110068843, -0.0828635544, -3.7583997250, -0.0740789324, -3.4046859741, -0.0833661854, -0.0246815849, 3.7724397182, -0.0482709892, -0.0412503667, -0.0272342432, 4.1365728378, 0.0016996490, 2.5646057129, 3.4065887928, 2.6618897915, -0.1903753132, 0.0000000000, 3.7946763039, -0.0153738642, -3.8355369568, -1.3973873854, -4.1103429794, 1.3865171671, -0.0144340871, -3.9016389847, -0.1521587670, 0.0050703301, 3.1132864952, 2.7315278053, -3.7638833523, -0.0118578756, 3.4287061691, -0.0269669481, -0.0866461620};

#endif

#endif
