//Numpy array shape [64]
//Min -0.469728112221
//Max 1.498595476151
//Number of zeros 4

#ifndef B2_H_
#define B2_H_

#ifndef __SYNTHESIS__
model_default_t b2[64];
#else
model_default_t b2[64] = {0.9064555168, 1.3647466898, 0.6397607923, -0.0463498347, -0.4418209791, 1.1894683838, 0.8795945048, -0.0163049567, -0.0140238898, 0.0124580367, 0.6212605834, 0.4483274519, -0.0118081560, 1.2339168787, -0.0147648798, -0.1607406586, 0.8622438908, -0.0678125024, -0.0053399247, -0.0199882239, -0.0678188726, 1.4911957979, 1.0516959429, 0.5499624610, -0.0039855903, -0.0129078748, -0.1479571164, 1.1072118282, 1.0813782215, 1.1188739538, -0.4697281122, -0.2319328189, 1.0323011875, 1.0738894939, 0.5295938849, 0.7049990296, 0.0000000000, -0.0162667073, 0.1677384824, 0.0000000000, -0.0274969768, -0.0347718149, 0.6013683081, 0.0000000000, 1.0647982359, 0.6376626492, -0.0571962111, 0.8875594139, -0.0178692136, 1.0621945858, 0.0000000000, 0.2791762352, 1.0050828457, 0.5642542839, 0.0132347541, 1.1841939688, -0.3797595501, -0.0103150466, 0.8450750709, -0.0281889401, 0.4781031609, 1.4985954762, 0.7595496774, -0.0869516656};

#endif

#endif
