//Numpy array shape [128]
//Min -4.040670394897
//Max 4.195573806763
//Number of zeros 0

#ifndef B4_H_
#define B4_H_

#ifndef __SYNTHESIS__
model_default_t b4[128];
#else
model_default_t b4[128] = {-2.5183351040, 0.0085771317, 1.6762340069, 3.5901412964, 3.3598105907, -2.7288959026, 3.0457000732, 1.5489636660, 3.5891366005, 3.5207746029, 0.6915538907, 3.0747206211, -0.3261842132, -2.9285738468, 1.8233883381, 0.0989630073, 2.9230918884, -0.8053786755, 0.2805680335, -3.3898816109, 3.6403832436, 3.0014674664, 0.5338878632, 1.3484714031, -0.5417573452, -0.2743715346, 3.7407124043, -2.6958675385, 1.6343201399, -0.1590926498, -0.4273820519, -0.0970476642, 3.2277767658, 3.5529670715, -2.2788298130, 3.4090282917, 3.4776072502, 2.5358424187, 1.5341058969, 3.3151981831, -0.1889377236, 0.1204469129, -1.9358838797, -2.2001531124, -0.3619282246, -0.0317202583, 3.2970056534, -0.0082323849, -0.0583216809, -2.9307935238, -4.0406703949, 3.2955634594, -2.2849998474, -2.6192369461, -0.0607020259, -0.3507177830, -2.0698301792, -0.1405414641, 0.0335395411, 0.9809853435, 2.5462234020, 3.6893119812, 3.0420899391, -0.0621543378, -3.4446804523, -2.1561911106, 0.1489697248, -1.6703090668, -1.6661034822, -1.2924377918, 2.6601214409, 3.0256979465, -1.9659914970, 1.6387348175, 2.3929500580, -2.8365919590, 3.3097434044, 2.6940152645, -4.0359005928, -0.2865518332, -0.0989690050, -3.2876219749, -2.5296506882, -0.2976206839, -2.4627735615, 2.4461846352, -0.0734223649, 2.6261138916, 0.1642997712, 3.6727316380, -1.1499766111, 1.2808115482, 3.5265443325, -1.0689165592, 2.1324760914, -0.1359160841, -3.3685119152, 2.6760826111, -2.7423348427, 2.0290188789, -0.4569892585, 1.4165906906, 3.6165821552, 1.2634056807, 2.8542587757, 1.7211920023, 3.8128192425, 3.2181127071, -2.8268415928, -0.1232553348, -0.0340941288, -0.1155342758, -1.2545758486, 0.0700289235, 2.9563300610, 0.3775607646, -3.0020470619, 1.4186042547, 4.1955738068, 0.1379553080, -3.3543677330, 1.5829005241, -0.0819089487, -0.0732517391, 3.0220663548, 0.0638821945, -0.1026729494, 0.6669960618};

#endif

#endif
