//Numpy array shape [100, 64]
//Min -0.327028334141
//Max 0.304475843906
//Number of zeros 0

#ifndef W2_H_
#define W2_H_

#ifndef __SYNTHESIS__
model_default_t w2[6400];
#else
model_default_t w2[6400] = {-0.0566231757402420, 0.0243359319865704, -0.1128432229161263, -0.0125521318987012, 0.1438575237989426, -0.1001252308487892, -0.0896167233586311, 0.0653289556503296, -0.1237994432449341, 0.1113783866167068, -0.0005121926660649, 0.1173804551362991, 0.1415937691926956, -0.0780593901872635, 0.1599870920181274, -0.1715182811021805, 0.1985086202621460, -0.0681823715567589, -0.0184832625091076, 0.0380334965884686, -0.0647536814212799, 0.1137436926364899, 0.1904172301292419, -0.0040199933573604, -0.1792445033788681, 0.0992633998394012, -0.1457932442426682, -0.1519873589277267, -0.1090898811817169, -0.0518341660499573, 0.1074012592434883, -0.1287640035152435, -0.0018605389632285, 0.1418616473674774, -0.0342343598604202, 0.1608241647481918, -0.0078718848526478, -0.1211421713232994, -0.1110915914177895, 0.0962917655706406, 0.0870707556605339, 0.0643796399235725, 0.2336407154798508, 0.0971057042479515, -0.0145723624154925, -0.1640242338180542, 0.0508416444063187, 0.0439560040831566, 0.0039132009260356, 0.1657275706529617, 0.0085523743182421, 0.0652842149138451, 0.1171545758843422, -0.1012471541762352, -0.1445478796958923, 0.0178622324019670, -0.0378071293234825, -0.0476561039686203, 0.0601804293692112, 0.0089961728081107, 0.0992338508367538, 0.0292990207672119, -0.0294297393411398, -0.1911697089672089, -0.1190325766801834, 0.1126437410712242, 0.1453855633735657, 0.1024781018495560, 0.0615268535912037, -0.0053577441722155, -0.1415995508432388, 0.0761890411376953, -0.1517571210861206, 0.1702380776405334, 0.0660188421607018, -0.0491046495735645, 0.0423571653664112, 0.0857593566179276, 0.1464659869670868, 0.0137659693136811, -0.0136193996295333, -0.0374096855521202, 0.1088115647435188, 0.1602237969636917, -0.1469897329807281, -0.1141389235854149, -0.1202729865908623, -0.1427410095930099, -0.1153114289045334, 0.1450432687997818, 0.2297496348619461, 0.0906856954097748, -0.1741660386323929, -0.0934034660458565, 0.0567282401025295, -0.1337155103683472, 0.0124382097274065, 0.1242162883281708, -0.0626121386885643, 0.0370305180549622, 0.0204937066882849, 0.0980896502733231, 0.0395089946687222, 0.0217819698154926, 0.1616803407669067, -0.0215716175734997, 0.0755043774843216, -0.0016173308249563, -0.0691788420081139, -0.1688201874494553, -0.1115974858403206, 0.0718940719962120, -0.1024230718612671, -0.0121325012296438, -0.0199600681662560, 0.0431045256555080, 0.1329408586025238, -0.1310964226722717, 0.1166901290416718, 0.1359082609415054, 0.0695588290691376, -0.0338286347687244, 0.1098473072052002, -0.2171624153852463, 0.1527187824249268, -0.0513436757028103, 0.0181408524513245, 0.0224697496742010, 0.0033487086184323, -0.0905285552144051, -0.0814005285501480, 0.1726703345775604, 0.1046222522854805, -0.0986255481839180, -0.0915636196732521, 0.2208802551031113, 0.0979163497686386, 0.0766122415661812, -0.0069141485728323, -0.0341041050851345, -0.1284107118844986, -0.0578927472233772, -0.1419708877801895, 0.0057048983871937, 0.1882546395063400, 0.1637716293334961, -0.1892818212509155, 0.1561771929264069, 0.0864327475428581, -0.0524505861103535, 0.0230897106230259, -0.0081417728215456, 0.0247180536389351, 0.0371010378003120, 0.0230420418083668, -0.0780255943536758, 0.0546028576791286, -0.1384225338697433, -0.1891017258167267, 0.0556293800473213, 0.0508627481758595, 0.1142101138830185, -0.1180054023861885, 0.1470611989498138, -0.0136799877509475, 0.0974135249853134, -0.0517935007810593, 0.1394967436790466, 0.1027636453509331, -0.0246993023902178, 0.1834059655666351, 0.2305709272623062, -0.1307710111141205, -0.1016723662614822, 0.0369653254747391, 0.1768661290407181, 0.0399944223463535, 0.0526814684271812, 0.0006437210249715, -0.1507424414157867, -0.0432382933795452, -0.0564999617636204, 0.0446306355297565, -0.1367216259241104, -0.1578419208526611, 0.0510883070528507, -0.1188480257987976, 0.1545571535825729, -0.0716543495655060, 0.0833141803741455, 0.0256709828972816, -0.1407366842031479, -0.1456513255834579, -0.0210593640804291, 0.0213212277740240, 0.1571485102176666, 0.0226061660796404, -0.0006719727534801, -0.0471281670033932, 0.0986311659216881, -0.1420796960592270, 0.1369200944900513, -0.0940312519669533, -0.0586997978389263, -0.0302528478205204, -0.0543809793889523, -0.1611336022615433, -0.0817359983921051, 0.0910410657525063, 0.2008136957883835, -0.0733060389757156, 0.0898096859455109, -0.1751610636711121, -0.0650092661380768, -0.0337583869695663, 0.1441467553377151, 0.1793280988931656, -0.0392175540328026, -0.0251785814762115, 0.2046893686056137, -0.1180427744984627, -0.1826535612344742, -0.0376705043017864, -0.0041676396504045, 0.0686681568622589, 0.1212267503142357, -0.0498850941658020, -0.1966558396816254, 0.0569297336041927, -0.1342941075563431, 0.0248359702527523, -0.1788143515586853, 0.0703856647014618, 0.0384333916008472, 0.2583326995372772, 0.1692285537719727, -0.0340713299810886, 0.0340748094022274, -0.0067967623472214, 0.1468822062015533, -0.1758992522954941, 0.0800936669111252, -0.0799598023295403, -0.2079934775829315, 0.0084522292017937, -0.2071678042411804, -0.0071299131959677, -0.1095887050032616, -0.0127020152285695, 0.1942079365253448, 0.0324850641191006, 0.0484591424465179, 0.0952773019671440, 0.0052741565741599, -0.1633041799068451, -0.0353188291192055, -0.0839232206344604, 0.1230881139636040, 0.0004814424028154, -0.1126540377736092, 0.0862649083137512, -0.0327274203300476, 0.0516271814703941, 0.1561201810836792, 0.0778961628675461, -0.0956298336386681, 0.0521445684134960, -0.0406312718987465, -0.1149458810687065, 0.0585789158940315, 0.0546265915036201, 0.1572854369878769, -0.1718945950269699, 0.0694231688976288, -0.1871644854545593, 0.1454159617424011, -0.0358857400715351, -0.1184480413794518, 0.1066221892833710, 0.0233481228351593, -0.0552663803100586, -0.1851704120635986, -0.0418133549392223, 0.1088050827383995, 0.0726157873868942, 0.1224983781576157, -0.0592936091125011, 0.0748719722032547, -0.2002359628677368, -0.1467371582984924, 0.0964671075344086, 0.0611367374658585, -0.1876612454652786, -0.0871951356530190, -0.1060841307044029, -0.0231874678283930, -0.1973516196012497, 0.1123639866709709, -0.1259317845106125, -0.3149066269397736, -0.0443075150251389, 0.0930214971303940, 0.1451557427644730, 0.0694672390818596, 0.1338336616754532, -0.0968920886516571, -0.1039114743471146, 0.0035580403637141, 0.0836234912276268, 0.1086637824773788, -0.1240949481725693, -0.1973884105682373, -0.0571796409785748, -0.1861085295677185, -0.2261780947446823, 0.0050972038879991, 0.0460544675588608, -0.0186814349144697, -0.0969371572136879, -0.0231220126152039, -0.0471107363700867, -0.1895626187324524, 0.1184676736593246, 0.0657200887799263, 0.0698059871792793, 0.1247932165861130, -0.0647255629301071, -0.1186374500393867, -0.0200379341840744, 0.1218622475862503, -0.0572722218930721, 0.1496860086917877, -0.0569724068045616, -0.0069401152431965, -0.1782942116260529, 0.0218784715980291, 0.0759053230285645, 0.1120754852890968, 0.1026386693120003, -0.1638946384191513, 0.0143639445304871, 0.1247044354677200, -0.0189772564917803, 0.1156455576419830, -0.0907221660017967, 0.1586424112319946, 0.0427225939929485, -0.0256642587482929, 0.1343296021223068, -0.0446572899818420, -0.1345581710338593, -0.1008829921483994, -0.0533221587538719, 0.0295794606208801, -0.0556679703295231, -0.0577181614935398, 0.1203682944178581, -0.1258699297904968, -0.0063956915400922, -0.1459310650825500, 0.0787206739187241, -0.1379311233758926, 0.0945039615035057, -0.1169209033250809, -0.1151223182678223, -0.0510260798037052, -0.0505043715238571, 0.0204772297292948, 0.1615076959133148, -0.1117138341069221, -0.0010024270741269, 0.1697807013988495, -0.0183912720531225, -0.0408615283668041, -0.1024939492344856, 0.0020453180186450, 0.0638976991176605, -0.1312682181596756, 0.0705697014927864, -0.0204802155494690, -0.1536604613065720, 0.0341317318379879, -0.1767825931310654, -0.0112138194963336, -0.0614969879388809, -0.1070387586951256, 0.1609549671411514, -0.1083392947912216, 0.1563286334276199, 0.0491554439067841, 0.0599552802741528, -0.0754199922084808, -0.1756304949522018, 0.1286830753087997, -0.1325033605098724, -0.0758779868483543, -0.0364688336849213, 0.1431850492954254, -0.1920721232891083, -0.0040831007063389, 0.1149081140756607, 0.0627945140004158, 0.1568397879600525, 0.1332930475473404, -0.1417472660541534, -0.0392600186169147, -0.0191635936498642, -0.1799278855323792, -0.1800964474678040, 0.0946851298213005, -0.0323306359350681, -0.1431641578674316, 0.1765198558568954, 0.1528412252664566, -0.0581064075231552, -0.0775257349014282, 0.0891293585300446, -0.1378206014633179, 0.1143803223967552, 0.1367252171039581, 0.0775636062026024, -0.0950900241732597, -0.0579234585165977, -0.0496701709926128, -0.0696879103779793, -0.0678953528404236, 0.0453320592641830, -0.0862393230199814, -0.1101510003209114, 0.1648807823657990, -0.1458738148212433, -0.1219257339835167, -0.0255150198936462, -0.1173710003495216, -0.0208974964916706, 0.0569898337125778, -0.0161847919225693, 0.0344191975891590, -0.0548725537955761, -0.0428097806870937, 0.0322516299784184, 0.2033693492412567, -0.0042751324363053, -0.0981021374464035, -0.0563982874155045, 0.1338120251893997, 0.1421503126621246, 0.1637911349534988, 0.1666163951158524, 0.0192064493894577, 0.1181444972753525, 0.1173731088638306, -0.0905500203371048, 0.0195845030248165, -0.0991928502917290, -0.0020448016002774, 0.1018615216016769, 0.0872934013605118, 0.1614582985639572, 0.0977213382720947, -0.1538956612348557, -0.1352855712175369, 0.0669438913464546, -0.0260732229799032, -0.1320470571517944, -0.1327447593212128, -0.1936325579881668, 0.1286296546459198, -0.0311177130788565, -0.0169238671660423, 0.1727946698665619, 0.0112670576199889, -0.1381694227457047, -0.1094534769654274, 0.0820876359939575, 0.0434362441301346, 0.1870413720607758, 0.0268978923559189, 0.0964845865964890, -0.0858311876654625, -0.2743206322193146, 0.1115079969167709, -0.1128102913498878, -0.0627820864319801, -0.0455395020544529, -0.1847869753837585, 0.1722548753023148, 0.0611471533775330, 0.0367657691240311, -0.1050583422183990, -0.1416573226451874, 0.0233971513807774, 0.0754177868366241, -0.0004251676145941, -0.0811827629804611, 0.0060132509097457, 0.0807988941669464, 0.0998297333717346, 0.0782927721738815, 0.0361346825957298, 0.0351251550018787, 0.1005459949374199, 0.0761966407299042, -0.0880490913987160, -0.0402451418340206, 0.0495480336248875, 0.0996052324771881, -0.1125278770923615, -0.2037400007247925, 0.1540488600730896, -0.1932615488767624, 0.1170025169849396, -0.1064054518938065, 0.0959359183907509, -0.0826402455568314, 0.0030210106633604, 0.0533505156636238, 0.0583563223481178, -0.0690933018922806, -0.0341230779886246, 0.1640969663858414, 0.0326026827096939, -0.0114672379568219, 0.1638012975454330, 0.0375213027000427, -0.0626257061958313, 0.0681304186582565, -0.1627410203218460, 0.0698417052626610, 0.0246016029268503, -0.0048326291143894, 0.1242148429155350, 0.1164521425962448, -0.0863709598779678, 0.1434371024370193, -0.1243115141987801, 0.1876959055662155, -0.1358222216367722, -0.0542208030819893, 0.0869408547878265, 0.0386707112193108, 0.0008838031790219, -0.0852151438593864, -0.0132158854976296, 0.0467084050178528, 0.0472052954137325, -0.0736823976039886, 0.1470565646886826, -0.0825870409607887, -0.0611227303743362, -0.0639505237340927, -0.1513862460851669, -0.1141940057277679, -0.0279026981443167, -0.0012294957414269, 0.2119031548500061, 0.1429032087326050, 0.0889714509248734, -0.1698510795831680, 0.0472153089940548, 0.1393448412418365, -0.2033088952302933, 0.1824807673692703, -0.0303344838321209, 0.0566654615104198, -0.0301928333938122, 0.1202589273452759, -0.0208677239716053, -0.1042586788535118, 0.1840793788433075, -0.1509732306003571, 0.0280688516795635, 0.0388139486312866, -0.0894891247153282, 0.0223887097090483, 0.0910014584660530, -0.0972673818469048, 0.1390901654958725, 0.1802417039871216, -0.0553526617586613, 0.0621792487800121, 0.0730105713009834, -0.1899210065603256, 0.0682130381464958, -0.1218257397413254, 0.0274360608309507, -0.0298071466386318, 0.1024826318025589, 0.1558482497930527, -0.1524019688367844, -0.0177864767611027, 0.0327444598078728, 0.1891691088676453, -0.0801708102226257, 0.1490116417407990, -0.1110173016786575, 0.1249367520213127, 0.0675828382372856, 0.1598723232746124, 0.0379035361111164, 0.0550610832870007, 0.1508511155843735, 0.0211039334535599, -0.1021818369626999, -0.0746584460139275, -0.0442727655172348, 0.0729582458734512, -0.1386612802743912, -0.1332740634679794, -0.1102709844708443, -0.0456680059432983, -0.0661292225122452, -0.1154910773038864, 0.1021226420998573, 0.0721572786569595, -0.1143809929490089, -0.0134677728638053, 0.1458635628223419, 0.0159844383597374, 0.1324054598808289, -0.2156645357608795, -0.0692557990550995, 0.1295809000730515, 0.0057984227314591, -0.1297486722469330, -0.1415402293205261, 0.0997749567031860, -0.0265752319246531, -0.1006757393479347, -0.1966089606285095, -0.0035113859921694, -0.1859133988618851, 0.1267049759626389, 0.1282920986413956, 0.0868156403303146, -0.1082117855548859, -0.0218220129609108, -0.0037914239801466, 0.1021795794367790, -0.1004583314061165, -0.1400769352912903, 0.0390396676957607, 0.1039447337388992, 0.0667662918567657, -0.0446684397757053, -0.0267380215227604, -0.0174406562000513, 0.0501966997981071, 0.0189544409513474, -0.1677260249853134, -0.0807530060410500, -0.1408147960901260, 0.0245737731456757, 0.0041412007994950, -0.0505397282540798, -0.1338811218738556, -0.1045286878943443, -0.1603083461523056, 0.1123301759362221, 0.0197406802326441, 0.1626803427934647, 0.0559629127383232, 0.0197246037423611, 0.0244182143360376, -0.1300473064184189, -0.1522452980279922, 0.0027845124714077, 0.1954254508018494, 0.1397345066070557, -0.1246330216526985, -0.0005150781944394, 0.1409811824560165, -0.1427969336509705, -0.0396713465452194, 0.0836711972951889, -0.1021299138665199, 0.1151954084634781, -0.1011329889297485, -0.0028788563795388, -0.1930122226476669, 0.0989438891410828, -0.1072562411427498, -0.1035155206918716, -0.1990561038255692, 0.0908901393413544, -0.0370006933808327, -0.1567870378494263, 0.0977515056729317, -0.0387400910258293, -0.0217018742114305, 0.1759070754051208, 0.1416791379451752, -0.1299397796392441, -0.0756897926330566, 0.1256505548954010, 0.1006082221865654, 0.0337613932788372, 0.1742576956748962, 0.1467167288064957, -0.1232750713825226, -0.0149822095409036, -0.1548819988965988, -0.0897182226181030, -0.1314499974250793, -0.1020583286881447, -0.1828391551971436, 0.0910452604293823, 0.0239759832620621, -0.1151482537388802, 0.0197634715586901, -0.0907263308763504, 0.0499665774405003, 0.1022265106439590, -0.0762501433491707, -0.1355919688940048, 0.0415841415524483, 0.1870232522487640, -0.0693022534251213, -0.1487998515367508, 0.0571749843657017, -0.0838329046964645, 0.1839514523744583, -0.0014792875153944, -0.1361319869756699, -0.0607708469033241, -0.0420845784246922, 0.1926630437374115, 0.1747090518474579, -0.0253727771341801, 0.0794579833745956, -0.2005517780780792, -0.0183758642524481, 0.1518234461545944, 0.1051109954714775, 0.0252552293241024, 0.0891214236617088, -0.1974615901708603, -0.0609329976141453, 0.0839564725756645, 0.0601001307368279, -0.0774614885449409, -0.1823728978633881, -0.0201644673943520, 0.1302278339862823, 0.0372195914387703, 0.0749195739626884, -0.1019069477915764, 0.0302399527281523, 0.1472290009260178, 0.1131037622690201, 0.0452244877815247, 0.1263323724269867, -0.0980111882090569, -0.0043287859298289, -0.1087496355175972, 0.0619923993945122, -0.1213987991213799, 0.0775192305445671, -0.0061244475655258, -0.0482042059302330, 0.0240055732429028, -0.1233634129166603, -0.1100650504231453, -0.0041096480563283, -0.2013134807348251, 0.1759513020515442, -0.1489802598953247, 0.0702990517020226, -0.1239383593201637, -0.0412382967770100, 0.0750807598233223, 0.0655894204974174, -0.0812208056449890, 0.1831952482461929, -0.2887366712093353, -0.0095578916370869, -0.1785500496625900, 0.1815838962793350, 0.0621223151683807, 0.0416905097663403, -0.0857022851705551, -0.0707001164555550, 0.1340205371379852, 0.1546685248613358, -0.1072838157415390, -0.1457212269306183, -0.0714320987462997, 0.1568254381418228, 0.0313209407031536, 0.0160388536751270, 0.1217910721898079, 0.0866652503609657, 0.0312353279441595, 0.1810775846242905, -0.0637139007449150, 0.0238208957016468, -0.1538761407136917, -0.0028629426378757, -0.1550793647766113, 0.0151883596554399, -0.0623463578522205, -0.1278736591339111, -0.1812355220317841, -0.1362278610467911, 0.1727533489465714, 0.1715663671493530, -0.2157443910837173, -0.1587029248476028, 0.1129083931446075, 0.1191653683781624, 0.0505473427474499, -0.1585616171360016, -0.1297983676195145, -0.0867873802781105, 0.1570206135511398, 0.0829133018851280, -0.0428282730281353, 0.0814131647348404, 0.0721041932702065, 0.1648627221584320, -0.0603134781122208, -0.1655186712741852, -0.0486444830894470, -0.0807604566216469, -0.1117823719978333, -0.1335203200578690, -0.0358979403972626, 0.0150201180949807, 0.0676442459225655, -0.0625953525304794, -0.1071665287017822, 0.1273321658372879, 0.1607010662555695, -0.0000668612410664, -0.1307047009468079, -0.0781247913837433, -0.0662241131067276, 0.1514185369014740, 0.0040773381479084, -0.0784166827797890, -0.1332465261220932, 0.0971030518412590, 0.0035412511788309, -0.1951510012149811, 0.2443443685770035, -0.1270366162061691, 0.1173794046044350, 0.0922892764210701, -0.1911883056163788, 0.1494700908660889, -0.1017881482839584, 0.1107960641384125, 0.1439744830131531, -0.0014590830542147, 0.1302738636732101, 0.0786248967051506, 0.1924656480550766, 0.0863165706396103, -0.0079194717109203, -0.1292627900838852, -0.1647780686616898, 0.0474971532821655, -0.2155841439962387, -0.0084340339526534, -0.1936678737401962, 0.0392443016171455, -0.0377033539116383, -0.1015179678797722, -0.0217897035181522, 0.0832095891237259, -0.1000319570302963, -0.1199430674314499, -0.0248868521302938, 0.1245149150490761, -0.1019273698329926, -0.1286288350820541, 0.0269288849085569, -0.0831569209694862, -0.1730967909097672, 0.1829740703105927, -0.1278859674930573, -0.0488204769790173, -0.2169802933931351, 0.1161613166332245, 0.0157545637339354, 0.0730021968483925, 0.0176340397447348, -0.0297520067542791, -0.0642813518643379, -0.0179550033062696, -0.0916896536946297, -0.1172819063067436, -0.0604881942272186, -0.0397761501371861, -0.1691821068525314, -0.0952340811491013, -0.0457964166998863, 0.0401106625795364, -0.1408901661634445, -0.1023211255669594, 0.0495612397789955, 0.1553198099136353, -0.0821944773197174, -0.1549698412418365, -0.0117413252592087, -0.1305245608091354, -0.0021762775722891, 0.1070645377039909, 0.1042384877800941, -0.0938473939895630, 0.0098491273820400, -0.1623394936323166, 0.0852814689278603, -0.1837669909000397, -0.1823661029338837, -0.0689862295985222, 0.1373151987791061, -0.1372869908809662, 0.1773108541965485, -0.1698856055736542, 0.0060731377452612, 0.1116162613034248, 0.0893660858273506, -0.0102046867832541, -0.1487618833780289, -0.0552731901407242, -0.0843243449926376, 0.1890592575073242, -0.1840246170759201, -0.0168531928211451, 0.0221599005162716, 0.1475148350000381, 0.0175470616668463, 0.0468399748206139, -0.0685466751456261, 0.1310871541500092, 0.0474499650299549, 0.1122942566871643, -0.0119373528286815, 0.0080789430066943, -0.2243429273366928, 0.0257172808051109, 0.0089747756719589, 0.1225479468703270, 0.0522366203367710, 0.1222353056073189, -0.1563923805952072, 0.0644143000245094, -0.0080074053257704, -0.0693997442722321, 0.0388339012861252, 0.1223500594496727, -0.1858689039945602, 0.1917834728956223, -0.0744232237339020, -0.1211245581507683, 0.1056535616517067, -0.0694105476140976, -0.1571770161390305, -0.0313399843871593, 0.0995110496878624, -0.0625636279582977, -0.0610856004059315, -0.1708111315965652, 0.0279304590076208, 0.0360146649181843, 0.0755734145641327, -0.1253813356161118, -0.1549333184957504, -0.0000966890584095, -0.0029774066060781, 0.0176184978336096, -0.0300849284976721, 0.0231122076511383, 0.0728903189301491, -0.0084126442670822, 0.0367404520511627, -0.1802432537078857, 0.0924532935023308, -0.1402335613965988, -0.1756932586431503, 0.0466288737952709, 0.0467724651098251, -0.0052005411125720, 0.1013927832245827, -0.0887478590011597, -0.1842402070760727, 0.0404168553650379, -0.0245910380035639, -0.1673692911863327, -0.1584544181823730, -0.0430488698184490, 0.0644844099879265, 0.1439306885004044, -0.0352510698139668, 0.0834591239690781, 0.1353413760662079, -0.0360314361751080, 0.1233511716127396, -0.1578313112258911, 0.0428900830447674, 0.1485894471406937, 0.1581790298223495, 0.1527630686759949, 0.1533637940883636, 0.1161426380276680, 0.1624008268117905, -0.0296790022403002, 0.0364597588777542, 0.0431268028914928, -0.1010108888149261, -0.1921078413724899, -0.1173262521624565, 0.0787614360451698, 0.1351005733013153, 0.0598779469728470, 0.1263582557439804, -0.1001534163951874, 0.0725602880120277, 0.0648688077926636, 0.0828127786517143, 0.1252364516258240, 0.1368651241064072, -0.0857303515076637, 0.0951597541570663, 0.0104136448353529, 0.1816940307617188, 0.0747850909829140, 0.0425754375755787, 0.0747926831245422, -0.1078477799892426, -0.0171714648604393, 0.0368214845657349, -0.1961009353399277, 0.0140967573970556, 0.0287404023110867, -0.1010062396526337, -0.0937995389103889, -0.0341271609067917, 0.0161533076316118, -0.0469239652156830, -0.1231923028826714, -0.1158261671662331, 0.0291320327669382, -0.0446752682328224, -0.1937539279460907, 0.0973884314298630, -0.0611245855689049, -0.1387421637773514, -0.0729469433426857, 0.1028348654508591, 0.1157366260886192, -0.0222585052251816, -0.0207166988402605, -0.1085588335990906, 0.1243168860673904, -0.0406987518072128, -0.1303987503051758, -0.0402610041201115, 0.0554706007242203, 0.0687159299850464, 0.1028301641345024, -0.1198769956827164, -0.1523893624544144, -0.1122177094221115, -0.0459180958569050, 0.1118012145161629, -0.0759563744068146, -0.2222397476434708, -0.1218681260943413, 0.0429799556732178, 0.0785490274429321, -0.1198907643556595, 0.1829339265823364, -0.0817793235182762, -0.0641844719648361, -0.1361622810363770, -0.0245384853333235, 0.0724909231066704, -0.0706681087613106, 0.0412510819733143, 0.1611002385616302, 0.0948574319481850, 0.0101369004696608, -0.1684936732053757, 0.0848418623209000, 0.0325462445616722, 0.0085966316983104, 0.1412999182939529, 0.0239117443561554, -0.0852680951356888, 0.1283025145530701, 0.0920660346746445, 0.1175623461604118, -0.0896755233407021, -0.0127954827621579, -0.0707652047276497, -0.1544950157403946, 0.0794655382633209, 0.0927611589431763, -0.0792181342840195, 0.0992824435234070, -0.0894708782434464, 0.0382027551531792, -0.1672651469707489, 0.0859813392162323, 0.1477973163127899, -0.0452906265854836, 0.0078276637941599, 0.2179162800312042, -0.1138174533843994, 0.1611929237842560, 0.1448600441217422, -0.0562843084335327, -0.1954165548086166, 0.1929946094751358, -0.1714320778846741, 0.0367944836616516, -0.0130677940323949, 0.1135840788483620, 0.1205398812890053, 0.0692005679011345, -0.1405759155750275, -0.1748585104942322, 0.0651363357901573, -0.0469226278364658, 0.1551434695720673, 0.1325025856494904, 0.0439430251717567, -0.0204783193767071, 0.1042042672634125, 0.0888913571834564, -0.1821790337562561, 0.1222000569105148, -0.1680916249752045, 0.0990856438875198, -0.1929970383644104, 0.1410733014345169, -0.0195350460708141, -0.0096159372478724, -0.0167225692421198, 0.0189355220645666, -0.0802746340632439, -0.0811645761132240, 0.0160153098404408, -0.1664433777332306, 0.1500591933727264, 0.0648844018578529, -0.0369803383946419, -0.0972249209880829, 0.0343873314559460, 0.0166533552110195, -0.0821773409843445, 0.1582992225885391, -0.1090019717812538, 0.0408347956836224, -0.0632000267505646, 0.1197326406836510, 0.0687923356890678, 0.0417227372527122, -0.1359298974275589, 0.0738371908664703, 0.1008035466074944, 0.1697394698858261, -0.0720548927783966, -0.2025158405303955, 0.0584264956414700, -0.1277223527431488, -0.0801302716135979, -0.0465290173888206, -0.0695352777838707, -0.0687209814786911, -0.1830578446388245, -0.0749631226062775, -0.0739390701055527, -0.1409597992897034, 0.0303657948970795, -0.0958509817719460, 0.1260251849889755, -0.0698896571993828, 0.1454752981662750, -0.0513352304697037, -0.1918836086988449, -0.0209467019885778, -0.1305047720670700, -0.1115273907780647, -0.1275111883878708, 0.1453363597393036, 0.0520669743418694, 0.0295547749847174, -0.0149214081466198, -0.1926486492156982, -0.0019340971484780, -0.1078906953334808, -0.0558789484202862, 0.0422006919980049, -0.0002802932285704, -0.1660892963409424, 0.0342024564743042, -0.1249685958027840, -0.0139449061825871, 0.0111048035323620, 0.0064787813462317, 0.2186347842216492, 0.1589011847972870, -0.0124659771099687, -0.0201585218310356, 0.0062567857094109, -0.0135965747758746, 0.1101604923605919, -0.0803807601332664, 0.0858125016093254, -0.1155055984854698, 0.0583989210426807, -0.0270134601742029, -0.2134628742933273, 0.0469047427177429, 0.0437332130968571, -0.0811729654669762, -0.1888094097375870, 0.1357101351022720, 0.1407338380813599, 0.0112679740414023, -0.0644338205456734, -0.1089375466108322, 0.0476694591343403, 0.0182865057140589, -0.0352084673941135, -0.1008109897375107, -0.0904056504368782, -0.1787234693765640, -0.1390750408172607, 0.0411127842962742, -0.0138755515217781, 0.0525642409920692, -0.0979404598474503, -0.0603893473744392, -0.1306283473968506, -0.0540678687393665, 0.0762001797556877, -0.0836588293313980, -0.0752264186739922, 0.1632566452026367, 0.0601222440600395, -0.1355884075164795, -0.1895669996738434, -0.1494990587234497, 0.0830231457948685, 0.0897666588425636, -0.1356501132249832, -0.0322683416306973, 0.0043592150323093, 0.2092856466770172, -0.0428225919604301, -0.0835829675197601, 0.0893080830574036, -0.0260491054505110, -0.1121049970388412, -0.1991124898195267, -0.0427840352058411, 0.0985104441642761, 0.0580919012427330, -0.1844378113746643, -0.1344021260738373, 0.0979429483413696, -0.0267727095633745, -0.1216173097491264, -0.1601499468088150, 0.0105424998328090, -0.0053657176904380, -0.0081822518259287, -0.1104263290762901, 0.0110795199871063, -0.1519879847764969, -0.0911383628845215, 0.0316574312746525, -0.1270773857831955, 0.1559633463621140, -0.0750490650534630, 0.1093838363885880, -0.1243074461817741, 0.0442469902336597, 0.1635042279958725, 0.0104673188179731, 0.1517298370599747, -0.1487689912319183, 0.0374065153300762, 0.0368267260491848, 0.0241044014692307, 0.0180267896503210, -0.0106023158878088, -0.0935501977801323, 0.0917080789804459, 0.0376638658344746, -0.0905778482556343, -0.1808236688375473, -0.0981127545237541, 0.2000699192285538, 0.0911350175738335, -0.0483120344579220, -0.1826553642749786, -0.0398948267102242, 0.1788688898086548, -0.1758231222629547, -0.1963555067777634, -0.1617727428674698, 0.1974636763334274, -0.0268717054277658, -0.1963623613119125, 0.0416135787963867, -0.1310517936944962, 0.0959258228540421, -0.1026331037282944, 0.1489697992801666, -0.0954319015145302, 0.0905405133962631, -0.1350225955247879, -0.0016039959155023, -0.0956246256828308, -0.0249735638499260, 0.1193705350160599, -0.0166245978325605, -0.1457935869693756, -0.1606568396091461, -0.2116915285587311, -0.0146253788843751, -0.0241395086050034, 0.1376295387744904, -0.1013290211558342, -0.2241136282682419, -0.0629088655114174, -0.1701870262622833, -0.0810004025697708, 0.0504261739552021, 0.1379669457674026, 0.1386556923389435, -0.0384341627359390, 0.2088927328586578, -0.0085263978689909, -0.0949561148881912, 0.0359121188521385, 0.0289113633334637, 0.0888628363609314, 0.1405593156814575, 0.1731063276529312, 0.0330645553767681, -0.0627097114920616, -0.1226772367954254, -0.0756078213453293, -0.0161245930939913, 0.0602313615381718, 0.0288612414151430, -0.0522987544536591, -0.1423554122447968, -0.1205212399363518, 0.0173265766352415, 0.0691143199801445, -0.0004159276140854, 0.0592022836208344, 0.0180760528892279, -0.1492635309696198, 0.0507784709334373, -0.1776028126478195, -0.1266809999942780, -0.1208619251847267, 0.0415021628141403, -0.1420531868934631, 0.1451348066329956, 0.1560582220554352, -0.0969549790024757, -0.1598832607269287, 0.0996873378753662, 0.0472437404096127, -0.0138206304982305, 0.1492883712053299, -0.0380460210144520, -0.1724256426095963, 0.1551570296287537, 0.1062533035874367, 0.1637502759695053, -0.0269754286855459, 0.0455241650342941, 0.0584612004458904, -0.0467974059283733, -0.0921190977096558, -0.1657102108001709, 0.0195686127990484, 0.0725650489330292, -0.2002266496419907, -0.1310390830039978, -0.1727824509143829, 0.1872456520795822, 0.0986334532499313, 0.0634281933307648, -0.0509775653481483, -0.0637067630887032, 0.1737051457166672, -0.1786634922027588, -0.0752587988972664, 0.0472613833844662, -0.1506702005863190, 0.0813788995146751, -0.0130214197561145, -0.1369645297527313, 0.1035296544432640, -0.1237792149186134, 0.0714909583330154, -0.0348866730928421, -0.1676003783941269, 0.0254194587469101, -0.0171003472059965, 0.0468818731606007, 0.1638114303350449, 0.1242436319589615, -0.0710161700844765, 0.1530827730894089, -0.0208606123924255, 0.1820394545793533, 0.0670389160513878, -0.1956400573253632, 0.1971849501132965, -0.1321947574615479, -0.0938596725463867, -0.1609814614057541, -0.0641669332981110, 0.1294513046741486, -0.1268703788518906, 0.0338372662663460, 0.1547378450632095, -0.0228237584233284, 0.1133712232112885, -0.1405448019504547, -0.1242793351411819, -0.0125853735953569, 0.0095023792237043, 0.1014443561434746, 0.1143247559666634, 0.0017225301126018, -0.1480975449085236, 0.1199819222092628, -0.0537703447043896, 0.0872891098260880, -0.0501772649586201, -0.1431844234466553, 0.1183370649814606, -0.1032117307186127, -0.0762068405747414, -0.0463627427816391, 0.1686638444662094, -0.1505033820867538, -0.0376692898571491, -0.2643627226352692, -0.1093686297535896, 0.0909192487597466, -0.0350738912820816, 0.0840360224246979, -0.0969982817769051, -0.0999783352017403, -0.0522579289972782, 0.1865170598030090, 0.0119069386273623, -0.1966129094362259, 0.1499810516834259, -0.1019983962178230, 0.1705450415611267, 0.1666783541440964, -0.0665321797132492, 0.0140171991661191, 0.0018786987056956, 0.1542495191097260, 0.1265651434659958, 0.1412556022405624, -0.0277701336890459, -0.0754084065556526, 0.0029509193263948, -0.0057797553017735, -0.0693618655204773, -0.0117816450074315, 0.1426093727350235, -0.1149750873446465, 0.1752620190382004, 0.0383836105465889, -0.0653254613280296, 0.0430478304624557, 0.1815408319234848, -0.1577816307544708, 0.1487616896629333, 0.0369951538741589, -0.0554844625294209, -0.0547764748334885, -0.0883317366242409, -0.1182637736201286, 0.0847309082746506, -0.0452068969607353, -0.1496247053146362, -0.0809947177767754, -0.0869043692946434, 0.0954494252800941, -0.1265014559030533, -0.0235916636884212, 0.0402958169579506, -0.1134388521313667, 0.1094422563910484, 0.1414863318204880, -0.1121864095330238, 0.0887003764510155, -0.1984180957078934, -0.1127609983086586, 0.0377466306090355, -0.0976225212216377, -0.0439008027315140, -0.0490986034274101, -0.0546659640967846, -0.1199543476104736, 0.0512325465679169, 0.1653006225824356, 0.1316829174757004, 0.0248531941324472, -0.1029272973537445, -0.0065068462863564, 0.0569654107093811, 0.1109678447246552, 0.0991648137569427, -0.1845569908618927, -0.1265297383069992, -0.1163305118680000, -0.1764451563358307, 0.0238191392272711, -0.1453214138746262, 0.1775038242340088, 0.1115990653634071, -0.0815877392888069, 0.1046647429466248, -0.1153205633163452, 0.1134308874607086, -0.1519483178853989, -0.0673386454582214, 0.0418698266148567, 0.0621637031435966, -0.0109870946034789, -0.0863300114870071, -0.1014170646667480, 0.1520635038614273, 0.0890184864401817, 0.0080448836088181, 0.1073002293705940, 0.0430397912859917, -0.0791544169187546, -0.0314408242702484, -0.1316501498222351, -0.1628216356039047, 0.0337233543395996, -0.0980914905667305, -0.2484099268913269, 0.0030693598091602, -0.1425748020410538, -0.1538651138544083, -0.0972764790058136, -0.0495826750993729, 0.1090868115425110, 0.1258128285408020, -0.0177813190966845, 0.1124091222882271, 0.0476220175623894, -0.1050659716129303, 0.0225458126515150, 0.0501121804118156, 0.2213691771030426, -0.0371667221188545, -0.0105065302923322, -0.1947935968637466, -0.1006827205419540, 0.1238598898053169, -0.1783026903867722, 0.0560333654284477, -0.1113274842500687, -0.1317351311445236, -0.2060360610485077, -0.0474294498562813, -0.0239048954099417, 0.1384809315204620, -0.1283071935176849, -0.0319052040576935, 0.0643946379423141, 0.1603546589612961, 0.0700968876481056, 0.1458498984575272, 0.0193048957735300, -0.0846220776438713, 0.1189454197883606, -0.0994978025555611, 0.1453674137592316, -0.1436624079942703, -0.2088546454906464, 0.0214676540344954, -0.0828201696276665, 0.1630419790744781, -0.0092944577336311, -0.2119230926036835, 0.1174315586686134, -0.1136346608400345, 0.0037303217686713, -0.1595220863819122, 0.0042214533314109, -0.1763069182634354, 0.0964513048529625, -0.3270283341407776, -0.1191769465804100, 0.0850894898176193, 0.0402310825884342, 0.1864837557077408, -0.0280722472816706, -0.1437183171510696, -0.1430803835391998, -0.0950333029031754, -0.1734772622585297, -0.1228327378630638, 0.0303534530103207, -0.1299502551555634, -0.0394550152122974, -0.1915757805109024, 0.0234983861446381, 0.0138393631204963, 0.0709587931632996, -0.1590519547462463, 0.1385627090930939, -0.0430832467973232, 0.1204884573817253, -0.1235411912202835, -0.1994833201169968, 0.0757248252630234, 0.0126757426187396, -0.0282124560326338, 0.1926811337471008, 0.1225254908204079, 0.1495373696088791, 0.0001383323688060, 0.1255303174257278, -0.1305131018161774, 0.0803912654519081, -0.0298584122210741, 0.1524637490510941, 0.0008954746881500, -0.0079014161601663, 0.0007428230019286, -0.0456481948494911, -0.1433564424514771, -0.1624376624822617, 0.0708184018731117, 0.0979766249656677, 0.1093378067016602, 0.1391576528549194, 0.1149486228823662, 0.0631200149655342, -0.0733394026756287, -0.1883735209703445, 0.1022166535258293, -0.1922527998685837, -0.1019012704491615, -0.0019801626913249, -0.1395647674798965, -0.0432631261646748, -0.1120958998799324, -0.1366021484136581, 0.2106385082006454, -0.1542983949184418, 0.1072157844901085, -0.1680595725774765, 0.0212924368679523, -0.0514718145132065, -0.1011234223842621, -0.0833965539932251, 0.0612653940916061, -0.1049946025013924, 0.0044564087875187, -0.0526279136538506, 0.0514072254300117, -0.0810863673686981, 0.0768295153975487, -0.1306332200765610, 0.0470283851027489, 0.0305206291377544, -0.0545348674058914, -0.1962369233369827, 0.1077978089451790, -0.1669920831918716, 0.1012102141976357, 0.1341432482004166, 0.0864652991294861, -0.0990628674626350, -0.0168831087648869, -0.0190732255578041, -0.0346275120973587, 0.0403943806886673, -0.0796699896454811, 0.1151770651340485, -0.1956929862499237, -0.1487339586019516, -0.0593687444925308, -0.1366595178842545, -0.1772085130214691, -0.0745251178741455, -0.0728810653090477, -0.1105465367436409, 0.1534396409988403, -0.0003167279355694, -0.0661989003419876, -0.0701876282691956, 0.1312383860349655, 0.1639364212751389, -0.0996119529008865, -0.0786092653870583, -0.0639418140053749, -0.0488594509661198, -0.1564335376024246, -0.1780664324760437, -0.1916430890560150, -0.0277617350220680, -0.0897379070520401, -0.0011093221837655, 0.0070392373017967, -0.1653309166431427, -0.0262277629226446, 0.1146285086870193, -0.0160923171788454, 0.1538709551095963, -0.0504717752337456, -0.1662990450859070, -0.0953854247927666, 0.1598749756813049, 0.0863952636718750, -0.1112886071205139, -0.1005720943212509, 0.1718047559261322, -0.0778251141309738, -0.0239985939115286, -0.0402460992336273, 0.1487925946712494, 0.0666626468300819, -0.2001203447580338, 0.0559933967888355, 0.0516430065035820, 0.0165825653821230, -0.1639207005500793, -0.1056487560272217, 0.1273978203535080, 0.0675406083464622, -0.0051188222132623, 0.0013600818347186, 0.0616606958210468, 0.0623510293662548, -0.1367229521274567, 0.0324275828897953, 0.1046764627099037, 0.0757876485586166, 0.0233752559870481, 0.0209329053759575, -0.1980720907449722, 0.0186266358941793, -0.1236274465918541, -0.2261574268341064, 0.0350192748010159, 0.0060528297908604, 0.0943849533796310, 0.2044634819030762, 0.1437338441610336, 0.0216531213372946, -0.1432093977928162, -0.0570032224059105, 0.1318726539611816, 0.0220735762268305, -0.0560101084411144, 0.0850639045238495, 0.0205051116645336, 0.1555061787366867, 0.1307643353939056, 0.0334961451590061, 0.1554110497236252, 0.0631829202175140, 0.1485985219478607, -0.0978897362947464, 0.0303847268223763, 0.1872632205486298, -0.0418747849762440, -0.1338237375020981, 0.0151404328644276, 0.0397362858057022, 0.1804361343383789, 0.0063070268370211, 0.0246317535638809, -0.2034124732017517, 0.0571601800620556, -0.1702166497707367, -0.1992979794740677, 0.1635091751813889, 0.1098589524626732, 0.0819946154952049, 0.1033741161227226, 0.2359314709901810, -0.0728547796607018, -0.1823300421237946, -0.1268855333328247, -0.1193671151995659, -0.1909757256507874, 0.0046182945370674, -0.0744061842560768, 0.0686993971467018, 0.1598149836063385, -0.0359292142093182, -0.1143142729997635, 0.0152717391029000, -0.0197630319744349, -0.1792350560426712, 0.0026063828263432, -0.0697713196277618, 0.0516908802092075, 0.0730209276080132, 0.0767178907990456, -0.1683734655380249, 0.1701915860176086, -0.0583819337189198, -0.0705722942948341, 0.0941257849335670, 0.1423832774162292, -0.1067133620381355, -0.1348065286874771, 0.0826475098729134, 0.0232300404459238, 0.0769441872835159, -0.0405222401022911, -0.2069308310747147, 0.0685282573103905, 0.0796847939491272, -0.0509831421077251, -0.0699222236871719, 0.1358315497636795, -0.0610100366175175, -0.1398929804563522, -0.1176463589072227, -0.0248303245753050, 0.0709540769457817, 0.0026370515115559, -0.0030790844466537, 0.1977673023939133, 0.1650544255971909, -0.0776977092027664, -0.1111609861254692, 0.0620651990175247, -0.1165646389126778, 0.1372788250446320, 0.1683891713619232, -0.0136175435036421, 0.1206221058964729, -0.0200252030044794, -0.1773905158042908, -0.1955552101135254, 0.0731307491660118, 0.1794353276491165, -0.0445127449929714, -0.0016292348736897, 0.0197766106575727, 0.0084728021174669, 0.0344218499958515, 0.1698551625013351, -0.1112445592880249, 0.1821456253528595, -0.1733381450176239, 0.0979343578219414, -0.2128867805004120, -0.2110409736633301, -0.1888363510370255, -0.1590768545866013, 0.1258299946784973, 0.0991516783833504, -0.1663917154073715, 0.0127862608060241, -0.0297026354819536, -0.0763604715466499, -0.1545161902904510, -0.1076251789927483, -0.0520772449672222, 0.1498231440782547, 0.2150619029998779, 0.1266190111637115, -0.0710918307304382, -0.1709240376949310, -0.1264896392822266, -0.0178252384066582, 0.0006860448047519, 0.1665869504213333, -0.0994398370385170, -0.1130626872181892, 0.0513046346604824, 0.0734441578388214, -0.1452038139104843, -0.0004258723056410, -0.1292306929826736, -0.1008962392807007, 0.1010216102004051, 0.0511596761643887, -0.1633241325616837, -0.0958858281373978, -0.0681412965059280, -0.1272602677345276, -0.0222428143024445, -0.1090683192014694, -0.0190007835626602, -0.1616040468215942, -0.1078804135322571, 0.1287754774093628, 0.0344268158078194, -0.0889327973127365, -0.0489346720278263, -0.0598764903843403, 0.0860868841409683, -0.1150852143764496, -0.0877495333552361, -0.1275753378868103, -0.1071000546216965, 0.0015564688947052, 0.1194812357425690, -0.1753347367048264, 0.0757679194211960, -0.0564998723566532, 0.0747474730014801, -0.0539611801505089, -0.0040837302803993, 0.1286396831274033, -0.1863186061382294, 0.1093341931700706, 0.0463307462632656, 0.1266171783208847, -0.1880052536725998, 0.1262410879135132, -0.0855991765856743, -0.1263487637042999, -0.2134227901697159, -0.0643462240695953, 0.0089083034545183, -0.0227986909449100, -0.0676993206143379, 0.0378094725310802, -0.0911037623882294, -0.1599230319261551, -0.1644775867462158, -0.0800705179572105, 0.1305745542049408, 0.0353698283433914, 0.0226632654666901, -0.1173813268542290, 0.0446515418589115, 0.1616470217704773, -0.1035510078072548, -0.0959616079926491, -0.1120774447917938, 0.1684910953044891, -0.1073704361915588, 0.0063574062660336, -0.0764555111527443, 0.1497720181941986, -0.0828956514596939, -0.0028544063679874, -0.0203774124383926, -0.0542392954230309, -0.2414699792861938, 0.2367444485425949, -0.1697302311658859, -0.0381095670163631, -0.0282939374446869, -0.0409412682056427, 0.0277986079454422, 0.1352492421865463, 0.1246839761734009, 0.1122165769338608, -0.0963748916983604, 0.0692833587527275, -0.0762614011764526, -0.0053040320053697, 0.1423020064830780, 0.1196630373597145, 0.0803719907999039, 0.1340361684560776, -0.0816852077841759, -0.1932052969932556, 0.1314604282379150, -0.0704576671123505, 0.1054876595735550, -0.1118848174810410, 0.0168860182166100, 0.1049891039729118, 0.0763426795601845, -0.0092705208808184, -0.1511860340833664, -0.1534795910120010, -0.1771391630172729, 0.0805055126547813, 0.0271484795957804, -0.0226106140762568, -0.1709878295660019, 0.0389387793838978, -0.0813322439789772, 0.1546546816825867, -0.0794719383120537, 0.1108780428767204, -0.1807983964681625, 0.0318545661866665, -0.1984490305185318, -0.0690096095204353, 0.0521576590836048, -0.0760966688394547, -0.0098998537287116, 0.1153594106435776, 0.1470385640859604, -0.0762130841612816, 0.0266503710299730, -0.0793000608682632, -0.1791549474000931, 0.0066161616705358, -0.0431531146168709, -0.0414378456771374, 0.0442898683249950, 0.0007770719239488, -0.0737988650798798, -0.1627306193113327, -0.0476671718060970, 0.0988940969109535, -0.1256756633520126, 0.0832227990031242, -0.0556147471070290, 0.1482421457767487, 0.0722730308771133, 0.0788538604974747, -0.0458212271332741, 0.1717599779367447, -0.0308778379112482, 0.0046092560514808, -0.1317387074232101, -0.1720345318317413, -0.1329897195100784, 0.0839464664459229, -0.1294353455305099, -0.0303918849676847, 0.1611463427543640, 0.1780934929847717, -0.0384665951132774, 0.0011992717627436, -0.1135197058320045, 0.0681947022676468, -0.0406658947467804, 0.1195130646228790, -0.1030128300189972, 0.1440535038709641, -0.1570844948291779, -0.0063320132903755, -0.0555286854505539, -0.1753172278404236, -0.0031813979148865, 0.0623165294528008, -0.0630225464701653, -0.0670194178819656, 0.0337791517376900, 0.1149411424994469, -0.1557811349630356, -0.1529713869094849, -0.0549297928810120, -0.0855792686343193, -0.1991931945085526, 0.1168236210942268, -0.0170842222869396, -0.0788092985749245, 0.0321354903280735, 0.1076954081654549, 0.1505444049835205, 0.0119284791871905, -0.1798282265663147, 0.1340108066797256, 0.1016391515731812, -0.1404130160808563, -0.1058600395917892, 0.0963363796472549, 0.1455222815275192, 0.2002320438623428, 0.0863989889621735, -0.0930177420377731, -0.0074290535412729, -0.1142250150442123, -0.0118474308401346, -0.0837055668234825, -0.1984435319900513, 0.0309414789080620, 0.0979347005486488, -0.1713717728853226, -0.0727939754724503, 0.1700857430696487, 0.1011735945940018, 0.1063174381852150, -0.0943492725491524, 0.0843394547700882, -0.1167914196848869, -0.1398122459650040, 0.0974606201052666, 0.0583669170737267, -0.1153872087597847, -0.1153726354241371, 0.0123943854123354, -0.0722353830933571, -0.0966932922601700, -0.0028175516054034, 0.0227207802236080, 0.0273453164845705, 0.1154778525233269, -0.0045690955594182, -0.1584952771663666, -0.1000888794660568, -0.1360201984643936, -0.1517221778631210, -0.0088126081973314, 0.0408666878938675, -0.2092838287353516, 0.1977319121360779, -0.0127082914113998, 0.1587017923593521, -0.0079394588246942, -0.1297832280397415, 0.1304614841938019, -0.0446223467588425, 0.1310438364744186, 0.0949247851967812, 0.0207634698599577, -0.1277306228876114, 0.0096413586288691, 0.1662570983171463, 0.1135651916265488, 0.1354687064886093, -0.0332858785986900, 0.1107134073972702, -0.1176472455263138, 0.1540108621120453, -0.0358337499201298, -0.0217445511370897, 0.1357603967189789, -0.1589947491884232, 0.1421643197536469, -0.1554929018020630, -0.0188249014317989, 0.0047691464424133, -0.1014480665326118, -0.0709713995456696, 0.0466205589473248, 0.0359763167798519, -0.0716404244303703, 0.0145885124802589, 0.1110459789633751, 0.1629358083009720, 0.2024051696062088, 0.1007440835237503, -0.0610004216432571, 0.0564675480127335, 0.0515639930963516, 0.1430764794349670, 0.1362563967704773, 0.0447819642722607, 0.0469594113528728, 0.0970779508352280, 0.0878986120223999, -0.0146391596645117, 0.0381511636078358, -0.1248865127563477, 0.0091086607426405, -0.1325857937335968, 0.0728479996323586, 0.0758564397692680, 0.0134208528324962, 0.0208551455289125, -0.0559057742357254, 0.0432849042117596, 0.0931359827518463, 0.0031482891645283, 0.0810311213135719, 0.1380041092634201, -0.0230780038982630, 0.0707974508404732, -0.1420017629861832, -0.1070262193679810, -0.1230009347200394, 0.1672785580158234, 0.1596705168485641, -0.0810034647583961, 0.1106781661510468, 0.0912620574235916, 0.0650010481476784, 0.0300871059298515, 0.0291584040969610, 0.1903919428586960, 0.0236533656716347, 0.0029201395809650, -0.1870680302381516, 0.0444576703011990, -0.0718825310468674, -0.1734985560178757, -0.1256731152534485, -0.0864217132329941, 0.0212479028850794, 0.0590936765074730, 0.1026066541671753, 0.1207993477582932, 0.1244372949004173, -0.0773228481411934, -0.1820844560861588, -0.0391462929546833, -0.1126320064067841, 0.1437165290117264, 0.0994096398353577, 0.0735895484685898, 0.0793090164661407, -0.1030813530087471, -0.1375839561223984, -0.1010994687676430, -0.1968430131673813, 0.0256390087306499, -0.0930466800928116, 0.1895700097084045, -0.0259129256010056, 0.1577794104814529, 0.1360409408807755, 0.0587129816412926, 0.0759492516517639, -0.0118877924978733, 0.1367270350456238, -0.0929911062121391, 0.1662721186876297, -0.2012250572443008, 0.1261274516582489, 0.1433812975883484, -0.0265490878373384, 0.1745222359895706, 0.0191294513642788, -0.0675490573048592, -0.1322394758462906, 0.0527053214609623, -0.0441045537590981, 0.1569414138793945, -0.0412092059850693, 0.1668625026941299, 0.1016753464937210, -0.0845400393009186, 0.0053587635047734, 0.1775657385587692, 0.1616150885820389, -0.1781119108200073, 0.0387761630117893, -0.0054544298909605, -0.1593843251466751, 0.0610104762017727, -0.0115585802122951, -0.1915174722671509, -0.0964439436793327, -0.0592194832861423, 0.0856401845812798, -0.0819457024335861, 0.1432152390480042, -0.0633197128772736, 0.0120673663914204, 0.0294759906828403, -0.0629345998167992, -0.0232943631708622, -0.1051703169941902, 0.0472390577197075, -0.1975723952054977, 0.1340393573045731, -0.1635699272155762, -0.0089345425367355, 0.1025336086750031, -0.1423551589250565, 0.0913719683885574, -0.0875717699527740, -0.1824721097946167, 0.1651123911142349, -0.1908907294273376, -0.0108417980372906, -0.2275439798831940, -0.0647886022925377, 0.0236859451979399, -0.0091261779889464, 0.1196141019463539, -0.1255529969930649, -0.1730417460203171, -0.2167923897504807, -0.0213660467416048, -0.1298167705535889, 0.1383108794689178, 0.0302634425461292, 0.0657629668712616, -0.1996794939041138, -0.0729704722762108, -0.0743211731314659, -0.0316866599023342, -0.0687223225831985, -0.1095391884446144, 0.1425898522138596, 0.1517649292945862, 0.0027402001433074, 0.1619797497987747, -0.0154008390381932, 0.1961444467306137, -0.0492634847760201, 0.1449740231037140, 0.0401885360479355, 0.1212576106190681, 0.0973683372139931, -0.1110755950212479, 0.1908175349235535, -0.0659106224775314, 0.0136203588917851, 0.2077480554580688, 0.1257670372724533, -0.2017864435911179, 0.1130417659878731, -0.0449740104377270, 0.0991960242390633, 0.0749346241354942, 0.0546467565000057, -0.1262893080711365, -0.0653311088681221, -0.0391201302409172, 0.1098045408725739, -0.0616331472992897, 0.0291806049644947, -0.0931244194507599, -0.0250243935734034, -0.0845576822757721, 0.0648553669452667, 0.0795100629329681, 0.1462180763483047, -0.2077397257089615, -0.0665643289685249, -0.0875097438693047, -0.0737481415271759, 0.0484973303973675, -0.1344757229089737, -0.1320497542619705, 0.0860120952129364, 0.1056317761540413, -0.0793957784771919, 0.0491314791142941, 0.0198769122362137, 0.1454356610774994, -0.1092343628406525, 0.0357799679040909, 0.1222575530409813, 0.1395675688982010, 0.1896519660949707, -0.1848644614219666, -0.0451164245605469, 0.0100556109100580, -0.0901383757591248, 0.0596812330186367, -0.1960118412971497, 0.1277174800634384, 0.0138323605060577, 0.1509504914283752, -0.0715522766113281, 0.1582997590303421, 0.0246904641389847, -0.0573694929480553, 0.0522936880588531, -0.1543320566415787, -0.0074737719260156, -0.0976023077964783, -0.1167279183864594, 0.0351496413350105, -0.0421107560396194, 0.0117891840636730, 0.1197663545608521, -0.1724884361028671, 0.0106093659996986, -0.0503994375467300, 0.0296090766787529, 0.1350323110818863, 0.1283603608608246, 0.0646508485078812, 0.1088471859693527, 0.0292778108268976, -0.1968781203031540, 0.1001256555318832, 0.1319106072187424, -0.0416269637644291, -0.1023898944258690, -0.0307861734181643, 0.1243163272738457, 0.1013949215412140, 0.1536489129066467, -0.0136608295142651, 0.0881483778357506, 0.0484587326645851, -0.1465213596820831, -0.1817386150360107, 0.1290501207113266, 0.1530712842941284, 0.1226538866758347, 0.0353943370282650, -0.1141255423426628, 0.0321584492921829, 0.0446923412382603, -0.0069314860738814, 0.1222515553236008, 0.1007163226604462, 0.1086655557155609, -0.0878168940544128, -0.0731468796730042, -0.1354020684957504, 0.0996906533837318, 0.1634271293878555, 0.0669141188263893, 0.0791996270418167, -0.0043953051790595, -0.0107937827706337, -0.1656064391136169, 0.1614773124456406, -0.0052643818780780, -0.1547133475542068, 0.0314057841897011, 0.0134046068415046, -0.1568046808242798, 0.0578708313405514, 0.0019802437163889, -0.1585665047168732, 0.0412818975746632, -0.1502802520990372, 0.0740565508604050, -0.1283911168575287, -0.1985416859388351, 0.0080298194661736, 0.0850874483585358, 0.0820471793413162, -0.1496351212263107, 0.0305314976722002, 0.0597048662602901, 0.0763504579663277, -0.0947436168789864, 0.0370731800794601, 0.0615951605141163, -0.0199020151048899, 0.1500052064657211, 0.0394458472728729, -0.0418225340545177, -0.1974886208772659, 0.1125522404909134, -0.1434153765439987, 0.1402893066406250, 0.0721189901232719, -0.0821066871285439, -0.1653075218200684, 0.1232268959283829, 0.1143412441015244, 0.1114974170923233, 0.0823237895965576, 0.1488084048032761, 0.0823080167174339, -0.0618477836251259, -0.1583570092916489, 0.0224648062139750, -0.1260942965745926, -0.0284049101173878, 0.1103033721446991, 0.0377501957118511, 0.1775532662868500, 0.1558105498552322, -0.0622619800269604, -0.2112390846014023, -0.0148157505318522, -0.1359106004238129, -0.0412958525121212, -0.1020383685827255, -0.0787986591458321, 0.0212175156921148, 0.0933100208640099, 0.0637604370713234, 0.1255418807268143, 0.1716932803392410, -0.0174343120306730, 0.0150250960141420, -0.1553333699703217, -0.1395644843578339, 0.1691907495260239, -0.0846589282155037, 0.0225335136055946, -0.0740171819925308, -0.0244657639414072, 0.0157839469611645, 0.0067724934779108, 0.1022184938192368, -0.0700552910566330, 0.1379034966230392, -0.1427285373210907, 0.1460935473442078, -0.1522425413131714, -0.0788463503122330, 0.2124712318181992, -0.1493567675352097, 0.1628853380680084, -0.1594015806913376, -0.0476265102624893, -0.0454573109745979, -0.0722716972231865, 0.1030467227101326, -0.0310889109969139, -0.1171209514141083, 0.0646144375205040, -0.0656871795654297, -0.0437086150050163, -0.1955749243497849, -0.1740102022886276, 0.0339388586580753, -0.1217201128602028, 0.0433425009250641, -0.1202245652675629, -0.0423794910311699, -0.0336373113095760, -0.1337317079305649, -0.0396563820540905, 0.1142283827066422, 0.1320957243442535, 0.0540725402534008, -0.0612390860915184, -0.0961360186338425, -0.0070968028157949, 0.1861079931259155, 0.1545661240816116, -0.0919307917356491, -0.0791696086525917, 0.0429263338446617, 0.1916946768760681, -0.1627428978681564, -0.0266231223940849, 0.0518202856183052, -0.0164352096617222, 0.0878442227840424, -0.1072154268622398, 0.0252549368888140, -0.1925597488880157, -0.0919009819626808, 0.0128183364868164, -0.2034209370613098, -0.1001641228795052, 0.0065413946285844, -0.0080245370045304, 0.1651040762662888, 0.0570797100663185, -0.0481263808906078, -0.0346543006598949, 0.1206173896789551, 0.1440029293298721, 0.0052504045888782, -0.1150802299380302, -0.0083414707332850, -0.0282128918915987, -0.0774427950382233, -0.1901295483112335, 0.0971598550677299, 0.1540573984384537, 0.0195160731673241, -0.1523681581020355, 0.0565339885652065, -0.0131580531597137, -0.0900347530841827, 0.0856257528066635, 0.1269997656345367, 0.0296413451433182, -0.0291756894439459, 0.0141051411628723, -0.1545715481042862, -0.0807548612356186, 0.0142359249293804, -0.1376027017831802, 0.1586979478597641, 0.0159326549619436, -0.1198663786053658, -0.1657860726118088, 0.1292739361524582, -0.1718613654375076, 0.2003816217184067, 0.0496032983064651, 0.0373394414782524, 0.0345865115523338, -0.0426069274544716, 0.0115758115425706, 0.0976286530494690, -0.1559988707304001, -0.0964216738939285, -0.0758318677544594, -0.0635516121983528, 0.0006308753509074, 0.1807168573141098, 0.0794841125607491, -0.0829262882471085, -0.0754318833351135, -0.0807140916585922, -0.0936773642897606, -0.0468276813626289, -0.0430843681097031, -0.0139504950493574, 0.1128734126687050, -0.1148510649800301, 0.1462608575820923, -0.0740718990564346, -0.1520685404539108, -0.0572384670376778, -0.0120614953339100, 0.0969656333327293, -0.0014129558112472, -0.0571339093148708, 0.1098085269331932, 0.0055215433239937, 0.0326504074037075, -0.1113286316394806, -0.0026848074048758, 0.0501807779073715, 0.1343037039041519, 0.0167825799435377, 0.0295382011681795, -0.1203447878360748, -0.1355605423450470, -0.0216880179941654, 0.1109970733523369, -0.1616270244121552, 0.1480176746845245, 0.0442893765866756, -0.1217091381549835, 0.0667235106229782, 0.0296393688768148, 0.0909505710005760, -0.1278366744518280, 0.1054174229502678, -0.0629482343792915, -0.2040500938892365, 0.0288328025490046, -0.1640154123306274, 0.1376255154609680, -0.0183404125273228, -0.2254260629415512, 0.0516569130122662, 0.0840467140078545, -0.0150649137794971, -0.1595738232135773, 0.0950399413704872, -0.0464196614921093, -0.0241501275449991, -0.0055308067239821, 0.1330820918083191, -0.0382676646113396, 0.0117628620937467, -0.1039581224322319, -0.0820107460021973, -0.1337070465087891, -0.0458607748150826, 0.0033952640369534, 0.1511491984128952, 0.0920099839568138, -0.0617855377495289, 0.1066777259111404, 0.0896732285618782, -0.1153532862663269, 0.1584884226322174, -0.0789587795734406, -0.0347757749259472, 0.1235770061612129, 0.0321780741214752, 0.1414861828088760, -0.1665466278791428, -0.1110974922776222, 0.1494074016809464, -0.0319955758750439, 0.1843560338020325, 0.1194616034626961, -0.0188600160181522, 0.1387140452861786, -0.1789736896753311, 0.0464260429143906, 0.1003014892339706, 0.0084626302123070, -0.0714981183409691, 0.1200321167707443, -0.0489827767014503, -0.0360719859600067, 0.0896229073405266, -0.1635681986808777, -0.0135716889053583, -0.0501335896551609, 0.1586377918720245, -0.1093817427754402, -0.0172726586461067, 0.0505218915641308, 0.0578582808375359, 0.0684993043541908, 0.1335917562246323, 0.0661188513040543, 0.1374354064464569, -0.0812977179884911, -0.0569115802645683, -0.1234084665775299, -0.1352233737707138, 0.1422054767608643, -0.1051441207528114, -0.1632361859083176, -0.1574943214654922, -0.0703088417649269, 0.0298640504479408, 0.0053530749864876, 0.1372586339712143, 0.0265036784112453, -0.0168953184038401, 0.0487902276217937, -0.1339398473501205, -0.2348036020994186, -0.0307745989412069, -0.1273378878831863, -0.1035212874412537, -0.0705952420830727, -0.1739095747470856, 0.1383444070816040, 0.1217683255672455, 0.0407191365957260, 0.0756097435951233, 0.1599196344614029, -0.1989812105894089, 0.0850300490856171, 0.0226273927837610, 0.0153284436091781, 0.0089485589414835, -0.0407804623246193, -0.1438636183738708, 0.0733141005039215, 0.1539459675550461, 0.0881139785051346, 0.0759566947817802, -0.0584441795945168, 0.1176107674837112, -0.0271830335259438, 0.1296747922897339, -0.0442162863910198, -0.0874562636017799, -0.1817269772291183, 0.1408596038818359, -0.1696423143148422, 0.1635242700576782, -0.0014518791576847, 0.1016024202108383, -0.1501333564519882, 0.1432175636291504, -0.1773461550474167, 0.0568884536623955, -0.0317404679954052, -0.1206166893243790, -0.0545752458274364, -0.1267678737640381, 0.1224753484129906, 0.0726122036576271, 0.1952237486839294, 0.1214351058006287, 0.0673703402280807, 0.1010300219058990, -0.0223242901265621, -0.0519504100084305, 0.0281317923218012, -0.0749149695038795, -0.1473533213138580, -0.1363921910524368, 0.1285028308629990, 0.1834650337696075, -0.1928497254848480, 0.0277722105383873, -0.1674250513315201, 0.1165611594915390, 0.1105604320764542, -0.0525315925478935, -0.1461917310953140, 0.1852451264858246, -0.0183526296168566, 0.1051566004753113, 0.0214873161166906, -0.1016679406166077, -0.0448771230876446, -0.1685058921575546, 0.1592926979064941, 0.1429529786109924, -0.1707801669836044, -0.0466194935142994, -0.0530157946050167, -0.1898016482591629, -0.0071449428796768, 0.0912220254540443, -0.0701213032007217, 0.0214465018361807, 0.1111503988504410, -0.1369614303112030, 0.0565550625324249, 0.0419081710278988, -0.1321190744638443, 0.0057947691529989, -0.0238976515829563, 0.0035742491018027, -0.0013809923548251, -0.0523644499480724, -0.0253157503902912, -0.1497673541307449, -0.0330685153603554, -0.1102237403392792, -0.1566391587257385, 0.0116806793957949, -0.0377962365746498, -0.0150915691629052, -0.0296573713421822, -0.1998447179794312, 0.0655543431639671, -0.0503525547683239, -0.1487059295177460, -0.1822750419378281, 0.0439505316317081, 0.1172761917114258, 0.0215434506535530, -0.0921059846878052, 0.1789000034332275, 0.1854349970817566, 0.0951090604066849, 0.0904459208250046, -0.1241214498877525, 0.0234115794301033, -0.0699154064059258, -0.1910562217235565, -0.1487485915422440, -0.1183785125613213, 0.0402570925652981, 0.1303767114877701, -0.1761133074760437, 0.0787159875035286, 0.0451937839388847, 0.1496621519327164, 0.1576518714427948, 0.1614198833703995, -0.0160856191068888, -0.0630032569169998, -0.0468116551637650, 0.1535612791776657, -0.1675337553024292, 0.0393186062574387, 0.0051848376169801, 0.1076644137501717, -0.0601780414581299, 0.0784730762243271, -0.0227770414203405, -0.1787173748016357, -0.0718863457441330, 0.0302625875920057, -0.0678725391626358, 0.1012682914733887, -0.0919635668396950, -0.1528285890817642, 0.0024194838479161, 0.2239509522914886, -0.1334528475999832, 0.1159605160355568, -0.1209957227110863, 0.1211603507399559, 0.0094002615660429, -0.0438505299389362, -0.1458205729722977, -0.0541412197053432, 0.1915009915828705, 0.1059829965233803, -0.1018869355320930, 0.1444116085767746, -0.0664732977747917, -0.1287410259246826, -0.1760357320308685, -0.1608034521341324, 0.1023617833852768, -0.0896418169140816, 0.1287033557891846, 0.0092805670574307, 0.0473812147974968, -0.1406848281621933, -0.1158431097865105, 0.0462012700736523, -0.0622120983898640, 0.1146579906344414, 0.1422151625156403, 0.0056219501420856, -0.1552803665399551, -0.0440747290849686, -0.1687878966331482, 0.0681371837854385, -0.1727916449308395, 0.0535951554775238, 0.0955112054944038, -0.1684350222349167, 0.0490831024944782, -0.1550035625696182, -0.1006034985184669, -0.1749063432216644, 0.1425796747207642, 0.0258686356246471, 0.1384362876415253, 0.0178008731454611, -0.1453309953212738, -0.0452147573232651, 0.1249171718955040, -0.1294820159673691, 0.1210131794214249, 0.0985557585954666, 0.1168234944343567, -0.0723859518766403, -0.0172684099525213, -0.0578415654599667, -0.0513447113335133, 0.0097575001418591, 0.1423664689064026, -0.1553175896406174, 0.1051753461360931, -0.1209089085459709, -0.1943833529949188, -0.0757379457354546, -0.1687741726636887, 0.0758817717432976, 0.1649789512157440, -0.1425664424896240, -0.1733459234237671, 0.1462791711091995, 0.0552144870162010, -0.0059979660436511, -0.0522455982863903, 0.1166760474443436, -0.2319676280021667, -0.0227100495249033, -0.0213526245206594, 0.0223795194178820, 0.1110635101795197, -0.1624894291162491, 0.0833371132612228, 0.0960843935608864, -0.0413469672203064, 0.0413446165621281, 0.0837372392416000, 0.1506770998239517, -0.0470776967704296, -0.1340492963790894, -0.0960664153099060, -0.0911407917737961, 0.0078651905059814, -0.0439700819551945, 0.1255671530961990, 0.1224290281534195, -0.1378022730350494, -0.0898006930947304, 0.1388131529092789, -0.0175690688192844, 0.0132367638871074, -0.0748351961374283, -0.1052917614579201, 0.1615514904260635, 0.0729232355952263, 0.1605074554681778, -0.1858016997575760, 0.0393990427255630, 0.0148057155311108, -0.0093472860753536, -0.0426670871675014, 0.0705877318978310, 0.1993891745805740, 0.0113812061026692, 0.1512363404035568, -0.0606547147035599, -0.0362118333578110, -0.1307460218667984, 0.0562332309782505, 0.0741133689880371, 0.1583778709173203, 0.1028716936707497, -0.0306907668709755, 0.1274762004613876, -0.0398323163390160, 0.0788223594427109, 0.0047201095148921, 0.1073558405041695, -0.0834061130881310, -0.0991706028580666, -0.0675171092152596, 0.0573409274220467, 0.0794082358479500, -0.0466593392193317, -0.0233464241027832, 0.0163891054689884, -0.0342654846608639, -0.0467276498675346, 0.1345149874687195, 0.1039797291159630, -0.0664444118738174, -0.1968470066785812, 0.1475912183523178, -0.1394595950841904, 0.1240423098206520, 0.0105902086943388, -0.0884353071451187, -0.0475241877138615, -0.1725110411643982, 0.0943928509950638, 0.1209997832775116, 0.0328016057610512, 0.0312944129109383, 0.0604800172150135, -0.0690849721431732, -0.1671577692031860, -0.0022385369520634, 0.1765843331813812, 0.2183556705713272, 0.0957132950425148, 0.1629636138677597, 0.0539997555315495, -0.0524221584200859, -0.0865290984511375, -0.1782933175563812, 0.0453189462423325, -0.1651236861944199, -0.0495536737143993, -0.0206459891051054, -0.1836073398590088, -0.2064709514379501, -0.0945067852735519, -0.0023509885650128, 0.2424933314323425, -0.1082051768898964, -0.0879480391740799, 0.1935397386550903, 0.1709055006504059, 0.0516904070973396, -0.1153778061270714, -0.1372484266757965, 0.1469321101903915, 0.0841698348522186, 0.0324574783444405, 0.0203258376568556, -0.0796138271689415, 0.0755457803606987, 0.1150654852390289, 0.0042336815968156, 0.1359313577413559, -0.0920033752918243, -0.0022525601089001, 0.1113825440406799, -0.0507150255143642, -0.0288104917854071, -0.0559443123638630, 0.2095654159784317, 0.0837834328413010, 0.0789598375558853, 0.1060702875256538, 0.1491929143667221, -0.1498100906610489, -0.0879667326807976, 0.0022963259834796, 0.0749061554670334, -0.0420792847871780, 0.0885200873017311, 0.0864047780632973, -0.1757616251707077, 0.0483526363968849, 0.0061859758570790, 0.0142331402748823, -0.0443508699536324, -0.0655683875083923, -0.1695171147584915, 0.0383557453751564, -0.0246420800685883, 0.0496102049946785, 0.1026841849088669, -0.0203225612640381, 0.0048239221796393, -0.0671954005956650, 0.0197817180305719, -0.0487153641879559, -0.1048811152577400, 0.0933771058917046, -0.1472500413656235, -0.0241523068398237, 0.1049999967217445, 0.0301660522818565, 0.0355406142771244, -0.0440837852656841, 0.0801037773489952, 0.1728198975324631, 0.0104225417599082, -0.0067849098704755, -0.1844294518232346, 0.1725235283374786, 0.0116720162332058, -0.0337825007736683, -0.1328034996986389, 0.1237894222140312, -0.1458791792392731, 0.1007569804787636, -0.0905188471078873, 0.1381094306707382, 0.0799365863204002, 0.2134741544723511, -0.2005360126495361, 0.1683924198150635, -0.0871261581778526, -0.0950117781758308, 0.0545480363070965, 0.0981989055871964, 0.0925620421767235, -0.1997750550508499, 0.0877433717250824, 0.0569761879742146, 0.0995730608701706, -0.1314046978950500, -0.0378881245851517, 0.0913085341453552, 0.1349044591188431, -0.1159053444862366, -0.1917895525693893, -0.1412333697080612, -0.0626441538333893, 0.2268181145191193, -0.0215467568486929, -0.1160444021224976, -0.1127504333853722, -0.0389275662600994, -0.2028408795595169, 0.0914879217743874, -0.1268725693225861, -0.0106770442798734, -0.0205044057220221, -0.0812453925609589, -0.0761118382215500, -0.1438011080026627, 0.0953899472951889, -0.0780606716871262, -0.0755712836980820, 0.1487653255462646, -0.1395670622587204, -0.0606932379305363, -0.0583320558071136, -0.0108001893386245, -0.0428352057933807, -0.0077588339336216, -0.0599000416696072, 0.1336561590433121, -0.0171893052756786, -0.0799665600061417, 0.1747461408376694, 0.0548589415848255, -0.0148821286857128, -0.1350696235895157, -0.1303626149892807, 0.1448364555835724, -0.1785664409399033, 0.0612214952707291, 0.1441783905029297, -0.0251747258007526, -0.0843771100044250, -0.1166936382651329, 0.0196062959730625, 0.1850246042013168, 0.0122589347884059, 0.0597307570278645, 0.0208461172878742, 0.0197018478065729, 0.0667345896363258, 0.1271931529045105, -0.1568479835987091, -0.0415103361010551, 0.0269344225525856, -0.0488700121641159, -0.0932917296886444, -0.0614876225590706, 0.0821946784853935, 0.0859715864062309, 0.0731540843844414, 0.0750064253807068, 0.1560986489057541, -0.0487357154488564, -0.0690357089042664, -0.1493377238512039, -0.1308866739273071, 0.1651422232389450, -0.1158562749624252, -0.0556098222732544, 0.1708478778600693, 0.1433942019939423, 0.1093064248561859, 0.1299618035554886, -0.0939177125692368, 0.0292359441518784, 0.0189645569771528, 0.1589711755514145, -0.0521921254694462, 0.0145208118483424, -0.1751403212547302, -0.1344452798366547, 0.0569140091538429, -0.0272696353495121, 0.1744829863309860, 0.0312493648380041, -0.0167533960193396, 0.0694340169429779, 0.1225137114524841, -0.0210165232419968, -0.0977449640631676, -0.0241894498467445, -0.0588169135153294, -0.1230590119957924, 0.1449890732765198, -0.0360938534140587, 0.0721249058842659, -0.1634825468063354, 0.1622529774904251, -0.0276356730610132, 0.1019863560795784, -0.1914036571979523, -0.1185950040817261, -0.0759143531322479, 0.0617665089666843, -0.0006255268817768, -0.1617220789194107, 0.0217258520424366, 0.0028937542811036, -0.0390738062560558, 0.1362781822681427, -0.0809200033545494, 0.0642188563942909, -0.0704620257019997, 0.1193306818604469, -0.2020108550786972, 0.1423425525426865, -0.0606659129261971, 0.0980660393834114, -0.1458504199981689, 0.1353279203176498, 0.1157963797450066, 0.1036496981978416, 0.0099412035197020, -0.0351245030760765, -0.0930810421705246, 0.0583034344017506, 0.1175457686185837, 0.1875261217355728, 0.0061873006634414, 0.1316065639257431, 0.0108771007508039, 0.2461097538471222, 0.0387110710144043, -0.1129895895719528, 0.1694559156894684, 0.1202318072319031, -0.0750907883048058, 0.1128679588437080, 0.0669907629489899, -0.0034510700497776, -0.0641945153474808, -0.1492216438055038, 0.0525738894939423, -0.0907645374536514, -0.0255020931363106, 0.0137306367978454, 0.0716238468885422, -0.1706370711326599, -0.1744541674852371, 0.0719617828726768, 0.1226381808519363, -0.0855143368244171, 0.1068328619003296, 0.1248027235269547, -0.0790764614939690, 0.1448495388031006, -0.0731089487671852, -0.2018483877182007, -0.1716791391372681, 0.1053288951516151, 0.1354966014623642, -0.1754498630762100, -0.0703608989715576, 0.0711646005511284, -0.0832508280873299, 0.1144915148615837, 0.1581745892763138, -0.0310904905200005, 0.1538785845041275, -0.0396786369383335, 0.0512467660009861, -0.0637676045298576, 0.0797783955931664, -0.1385184228420258, 0.1024834439158440, 0.0319962203502655, -0.1658929735422134, -0.1501654684543610, 0.0060389479622245, -0.0201957449316978, -0.1349988728761673, 0.0222201459109783, -0.1943246275186539, -0.0222450047731400, -0.0332421958446503, 0.1937149912118912, -0.1408382207155228, -0.0041766632348299, -0.1123004406690598, 0.0591695904731750, 0.1495616585016251, 0.1332456618547440, 0.1789138913154602, 0.0062675923109055, 0.1120736598968506, -0.0772645100951195, 0.1418357342481613, 0.0986139103770256, -0.1560615152120590, 0.0921773687005043, 0.0348918847739697, -0.1084684133529663, -0.0282571874558926, -0.0390637479722500, -0.1376237273216248, -0.0933382511138916, -0.1562820225954056, -0.1673472225666046, 0.0538408756256104, 0.0146359736099839, -0.0416465811431408, 0.0919671729207039, 0.0265454351902008, 0.1545007973909378, -0.1760828942060471, 0.0876613035798073, -0.1101445332169533, -0.0076720714569092, 0.1116565465927124, -0.0625608190894127, -0.1774726361036301, 0.1881106048822403, 0.0444351322948933, -0.0580279342830181, 0.1192665100097656, -0.2066864222288132, -0.0002196640125476, -0.0545723512768745, -0.0851557031273842, 0.0968521758913994, -0.0612515546381474, -0.0545042864978313, 0.0260428600013256, 0.1409571617841721, -0.1242064833641052, -0.1442302465438843, -0.0693985819816589, 0.0503523498773575, -0.0559902489185333, -0.1375119984149933, 0.0041719791479409, -0.1573078036308289, -0.0308223310858011, -0.0391721725463867, -0.1106199845671654, 0.0545581094920635, 0.1604894995689392, 0.0908665731549263, -0.0687752962112427, 0.1131222024559975, 0.1300319135189056, -0.0373526662588120, 0.1699109077453613, 0.0955663546919823, -0.0319321937859058, -0.0832890272140503, 0.1165338009595871, -0.1660499423742294, 0.0655872896313667, 0.0965575128793716, -0.0440707877278328, 0.1746924221515656, 0.0905758515000343, -0.1855531185865402, 0.0134232398122549, -0.0313301943242550, -0.1047411710023880, 0.1199413016438484, -0.0409151427447796, 0.1544900536537170, -0.0136812739074230, 0.0361703783273697, -0.1258044093847275, -0.0171320736408234, -0.1166311874985695, 0.0366439856588840, -0.1263479292392731, -0.0252066254615784, -0.0374145507812500, -0.1830080896615982, -0.0203560627996922, 0.0324744284152985, -0.1390917301177979, -0.0064298808574677, -0.1462018638849258, -0.0797481164336205, 0.0829522013664246, 0.0662743523716927, 0.1060876324772835, 0.0957075208425522, 0.1049297079443932, -0.0583317801356316, -0.0426537655293941, 0.0007338289287873, 0.0476069897413254, -0.0665677115321159, 0.0959965214133263, 0.1149443089962006, -0.1084669604897499, 0.2685053646564484, -0.1049850061535835, -0.0748651698231697, -0.1380506753921509, 0.1312690824270248, -0.0989598482847214, 0.0532721765339375, -0.1687900274991989, -0.0340524390339851, 0.0102645447477698, 0.0911404490470886, -0.1074467226862907, -0.0689879134297371, -0.0984995737671852, 0.0246237739920616, -0.0445895157754421, -0.0298317633569241, -0.0484082624316216, 0.0069530485197902, 0.0235808230936527, 0.0106438398361206, -0.0113176135346293, -0.0226646028459072, 0.0662195533514023, 0.2102052718400955, -0.0300786439329386, -0.0221520327031612, 0.1632925570011139, 0.1618702113628387, 0.0354439169168472, 0.0660333558917046, -0.1496676206588745, 0.0891678258776665, -0.1158575639128685, 0.1371347308158875, -0.0018730906303972, -0.1660446077585220, 0.1221012622117996, -0.0176772233098745, 0.0018526252824813, 0.0715377628803253, 0.1045882403850555, 0.0232658218592405, 0.1484647840261459, -0.0045065856538713, -0.1159195899963379, -0.1691222935914993, -0.0408241339027882, 0.2333994358778000, -0.1691041737794876, -0.1292379498481750, -0.1650053113698959, -0.1832665801048279, -0.1447876095771790, 0.1140129417181015, 0.0916756913065910, -0.1164898648858070, -0.1875175237655640, 0.0515228845179081, 0.0378565192222595, 0.1865729093551636, -0.0486421100795269, -0.2342430353164673, -0.0612457953393459, 0.0440827980637550, -0.0397302955389023, 0.0217909570783377, -0.0457947254180908, -0.0746362134814262, 0.1254222989082336, -0.2024289965629578, 0.0853778645396233, -0.0033016700763255, -0.1738815307617188, -0.0529466643929482, -0.2131481170654297, -0.1022359207272530, -0.1967896819114685, -0.0991058126091957, 0.0109655614942312, 0.0222398191690445, 0.0536176748573780, 0.0401186831295490, -0.0258120913058519, -0.0007644444704056, -0.0366046838462353, -0.1759520173072815, 0.0991118103265762, -0.1739707142114639, -0.1970181912183762, -0.1034419760107994, -0.1345170289278030, -0.0521114245057106, 0.0422498993575573, -0.0810625329613686, -0.0371684655547142, -0.0125855607911944, -0.0006067723734304, -0.1510401666164398, 0.1388570219278336, 0.1400248855352402, -0.1934907585382462, 0.0242203138768673, -0.0653749182820320, -0.0261011309921741, -0.1960196644067764, -0.1502512693405151, 0.1710559278726578, -0.1841091960668564, 0.0933242961764336, 0.0411177575588226, -0.0067124944180250, 0.1532997190952301, 0.0189585480839014, 0.1300867050886154, -0.0351110473275185, -0.0214454978704453, -0.1170233041048050, 0.0654407814145088, 0.0347391776740551, 0.1323215514421463, 0.0244948342442513, -0.0465115346014500, 0.1193263307213783, 0.1228482574224472, 0.1172277256846428, 0.0354436449706554, -0.0141856167465448, 0.0570842176675797, -0.1033276766538620, 0.0295160971581936, -0.1439638435840607, 0.0740127786993980, -0.0510369278490543, -0.0176823493093252, -0.1288483142852783, -0.0805521085858345, -0.0547427572309971, -0.1338452845811844, 0.1807861924171448, 0.0512654483318329, -0.1477446854114532, -0.0220696832984686, -0.2062650918960571, 0.1720291078090668, 0.0349598340690136, -0.0759161189198494, -0.0692512542009354, -0.1779273748397827, -0.0034530614502728, 0.0132338879629970, 0.0258103460073471, -0.0255312733352184, 0.0237599890679121, 0.0660210922360420, 0.1333967298269272, 0.1243638917803764, 0.1042338758707047, -0.1906168311834335, 0.0873214378952980, 0.2085507959127426, -0.0024146132636815, 0.0104620335623622, 0.1739596575498581, -0.0745191425085068, 0.0231603123247623, -0.1004400998353958, -0.1877323687076569, -0.0771602317690849, 0.1475685685873032, -0.0744954049587250, -0.0204811934381723, -0.0475796572864056, 0.1440060585737228, -0.0480372011661530, -0.0944545790553093, 0.0426129437983036, -0.1231691241264343, 0.0404504388570786, 0.1428447067737579, -0.1159545257687569, 0.0327644534409046, -0.1613240092992783, 0.1036642715334892, -0.0155116012319922, -0.1155778691172600, 0.0385273210704327, 0.0826934203505516, -0.0932605415582657, 0.1108419150114059, 0.0986223146319389, -0.1164730638265610, -0.1348014771938324, 0.1705894023180008, -0.0333275496959686, -0.1635006517171860, -0.1101759001612663, 0.0819839835166931, 0.0622972510755062, -0.1232535168528557, 0.0040014693513513, -0.0978009998798370, -0.0294705703854561, -0.1969274729490280, -0.0497591644525528, 0.0009694702457637, -0.0426666848361492, -0.0809434726834297, -0.2127046138048172, -0.0863313749432564, -0.0708986073732376, 0.1349738091230392, 0.0724262446165085, 0.1471784561872482, -0.1072720587253571, 0.0773588195443153, -0.0601564608514309, 0.0347593948245049, 0.1137734279036522, -0.0426879450678825, 0.1240148022770882, -0.1716192215681076, -0.2050552964210510, 0.1090111657977104, 0.1707484275102615, 0.2077466249465942, 0.1381007283926010, 0.0421226657927036, 0.1120977252721786, 0.0580966696143150, -0.0990677550435066, 0.1260233670473099, 0.1023552864789963, -0.0216035526245832, 0.1910556852817535, -0.1018202602863312, -0.1361805200576782, 0.1720005571842194, -0.0715720131993294, 0.0267814565449953, -0.0486016683280468, 0.0759050771594048, -0.1369500607252121, -0.2058110237121582, 0.0310688633471727, -0.0369403585791588, -0.0819142162799835, 0.0341555252671242, 0.1051282212138176, -0.0381465665996075, 0.0534931384027004, 0.1299388706684113, 0.0590569674968719, 0.1696638166904449, 0.0003378306864761, 0.1637466251850128, -0.0576201453804970, 0.0694398805499077, -0.1795913279056549, 0.0285478476434946, -0.0213629081845284, -0.0662867650389671, 0.0296562463045120, 0.1906357556581497, 0.0705264061689377, 0.1553338468074799, 0.1149147078394890, 0.1340306252241135, 0.0532644502818584, -0.1010455340147018, 0.0208355877548456, -0.0800960958003998, 0.1007162034511566, 0.1372838020324707, 0.2063276618719101, -0.0795581340789795, -0.1892683953046799, 0.0423168540000916, -0.0411780960857868, 0.1157598048448563, 0.0564855895936489, -0.0513994097709656, 0.0547071136534214, 0.0732544809579849, -0.1025345847010612, 0.0088531095534563, -0.0407014265656471, 0.0297051575034857, -0.1683583408594131, 0.1710773110389709, -0.0354884117841721, 0.1562995910644531, 0.1576658338308334, 0.0504112541675568, 0.1137564182281494, 0.0412602908909321, 0.1721048653125763, -0.0887275114655495, -0.1679622381925583, 0.0667634084820747, -0.0897539481520653, 0.0690366178750992, -0.1721296906471252, 0.0877102315425873, -0.0045944517478347, 0.0352635011076927, -0.0303644500672817, 0.0408185981214046, 0.0861555114388466, 0.0609338469803333, 0.0822520330548286, 0.0293958783149719, -0.0065511101856828, -0.1730929315090179, 0.1502797156572342, -0.1205946952104568, -0.1109983548521996, 0.1242078319191933, 0.0964517891407013, -0.0889128893613815, -0.0154340313747525, 0.0398427024483681, -0.0643905103206635, -0.0690544024109840, -0.0775529444217682, -0.0973191633820534, -0.0090957954525948, -0.1012079417705536, 0.0996390357613564, -0.0533038005232811, 0.1899987906217575, -0.1124220713973045, 0.0903282463550568, -0.0653213113546371, -0.2061364799737930, 0.0412795953452587, -0.0830437466502190, -0.2141222506761551, 0.1804463267326355, -0.1375383585691452, -0.1402298063039780, 0.1216900125145912, -0.0694661363959312, 0.0596805624663830, 0.0283707194030285, -0.1138091683387756, -0.1168333142995834, -0.0486310943961143, 0.0612354129552841, -0.0424936078488827, 0.1290617883205414, -0.0843033343553543, 0.0492325834929943, 0.0263710971921682, 0.1361864358186722, 0.1164899244904518, 0.0080993948504329, 0.0128622697666287, -0.0145925013348460, 0.0131714139133692, 0.0004648486210499, 0.1064804345369339, -0.0560110434889793, -0.0950357615947723, 0.1515943408012390, 0.0033996659331024, -0.1044645756483078, 0.0309081487357616, -0.1188229024410248, -0.1130994111299515, -0.0138642089441419, -0.1744853109121323, 0.1402667909860611, 0.1747281253337860, -0.1662766337394714, -0.0531695298850536, 0.0017586854519323, 0.0840486958622932, 0.1517469733953476, -0.1413277685642242, 0.1894225180149078, -0.0680596455931664, -0.1323478668928146, 0.1441740840673447, -0.1262626647949219, 0.1585284620523453, -0.0634265467524529, 0.1683919876813889, -0.0762780755758286, 0.1725270748138428, -0.0957180783152580, 0.1561036556959152, 0.0390765219926834, -0.0415875501930714, -0.0884691551327705, -0.1662076264619827, -0.0833325088024139, -0.0671253427863121, 0.0193285997956991, -0.0777651816606522, 0.0524062030017376, 0.1439452618360519, -0.0832454934716225, 0.0085379779338837, 0.0937262326478958, 0.0305035412311554, -0.1027422249317169, 0.0139508713036776, -0.1016033291816711, 0.0624568723142147, 0.1540545821189880, -0.0128632877022028, 0.0829561948776245, 0.0709403902292252, -0.0566449910402298, -0.1120981797575951, 0.0507462397217751, -0.0728709772229195, -0.0478439331054688, 0.1193868219852448, -0.0063122003339231, -0.0195362977683544, -0.0456269755959511, -0.0026091567706317, -0.1431158483028412, -0.0746449455618858, -0.1443618237972260, -0.0333802364766598, 0.1276184171438217, 0.1990055143833160, -0.0353316813707352, 0.1685754209756851, -0.0824888870120049, 0.1568121165037155, -0.0317913703620434, 0.0159380082041025, 0.0512006469070911, -0.0957612320780754, 0.0711021125316620, -0.0405464619398117, 0.1175157204270363, 0.0704914256930351, -0.1294757723808289, 0.1264466941356659, 0.1163490936160088, -0.0887480303645134, -0.0652013272047043, 0.0782374665141106, 0.1108528897166252, -0.0187200084328651, 0.0267459992319345, 0.0332124978303909, 0.1531787067651749, -0.1445702463388443, -0.1774112582206726, 0.1034297049045563, -0.0034992687869817, 0.1115316450595856, -0.1112986132502556, -0.0508941821753979, 0.0589733645319939, -0.1086727827787399, -0.1170961856842041, -0.1365736573934555, -0.0175425820052624, 0.0301046073436737, -0.0637455508112907, 0.2016130983829498, -0.0628097951412201, -0.1785415112972260, -0.1920555382966995, 0.0145773915573955, -0.0657680332660675, 0.1567917615175247, -0.1476795971393585, 0.0939527601003647, -0.0557920932769775, 0.0215714015066624, 0.1363386213779449, 0.1628572642803192, 0.0209210440516472, -0.0762275829911232, 0.0363751873373985, -0.0640290901064873, -0.1334822624921799, 0.0485570430755615, 0.1743204146623611, 0.1577185094356537, 0.1007781699299812, -0.1295077055692673, 0.2013714462518692, 0.0237244050949812, 0.2573962211608887, -0.0720490366220474, -0.1503221690654755, -0.0509314313530922, -0.0042696013115346, 0.1344624757766724, 0.0782680660486221, 0.0385677218437195, 0.0104815457016230, 0.0873005464673042, -0.1710067093372345, 0.0541489385068417, 0.0218336135149002, -0.0797300189733505, -0.1704782545566559, 0.1286251544952393, 0.0863317996263504, -0.1111300587654114, -0.0683261081576347, -0.1570872068405151, -0.0530984066426754, -0.0914913937449455, -0.1521871089935303, -0.0680605769157410, -0.1804168820381165, -0.0545972287654877, 0.0513144284486771, 0.1045062765479088, -0.1767278164625168, -0.1786463856697083, 0.0174156334251165, 0.0831296145915985, 0.0458842851221561, -0.0352062918245792, -0.0829627439379692, 0.1469476222991943, -0.1676540970802307, -0.2368610501289368, -0.0858898460865021, 0.0590374134480953, -0.1561506092548370, 0.0051778927445412, 0.0493036024272442, -0.0402319692075253, 0.0473982319235802, -0.1298608183860779, -0.0590045712888241, 0.0583560839295387, -0.1843962222337723, -0.0061137625016272, -0.0184837523847818, -0.0800756141543388, -0.1124227046966553, -0.1001362651586533, -0.1306720227003098, -0.0156812183558941, -0.2070882469415665, -0.0432288609445095, -0.1165748834609985, -0.1154670864343643, -0.1381863504648209, -0.1513268053531647, -0.0026810616254807, -0.0319472849369049, 0.2348890155553818, 0.0095160258933902, 0.1607167869806290, -0.0618255138397217, -0.1480771899223328, -0.1309832185506821, -0.0567350648343563, 0.0756189078092575, -0.1609437614679337, 0.0590158812701702, 0.1599758863449097, -0.1301708966493607, -0.0073466356843710, 0.1213359385728836, 0.0393193215131760, 0.0218418929725885, 0.1516503393650055, -0.0273134186863899, -0.0326052829623222, 0.0698314681649208, -0.1463489979505539, 0.1054351106286049, 0.1050954163074493, -0.1883066445589066, 0.1098355203866959, 0.0512898378074169, -0.0432426668703556, 0.0627761855721474, 0.0723591521382332, -0.1734712719917297, -0.0319636017084122, -0.1666903346776962, 0.0815557092428207, -0.0712017789483070, -0.0373389646410942, -0.0113151958212256, 0.1154075339436531, 0.0720806792378426, 0.0948033481836319, 0.0354899354279041, -0.0074090361595154, 0.1964550912380219, -0.1900797337293625, 0.0721806362271309, 0.1640551835298538, 0.1276331990957260, 0.1764948070049286, -0.1027951911091805, 0.0498210936784744, 0.0474475882947445, -0.1874077618122101, 0.0260511059314013, 0.1128461807966232, -0.1256252974271774, 0.0702706053853035, -0.1587218642234802, 0.1474865227937698, -0.0944912061095238, 0.0681906864047050, -0.0696795210242271, 0.0688992068171501, 0.0357234887778759, 0.0831531286239624, 0.0028398509602994, 0.2520916759967804, 0.1788838505744934, -0.0784679204225540, -0.1845612376928329, -0.1079216003417969, -0.0248873662203550, -0.0528236255049706, -0.1588730067014694, 0.1056016162037849, 0.1802987009286880, -0.0229953899979591, -0.0924217179417610, 0.0677455961704254, -0.1627636253833771, -0.0091098146513104, 0.2362346649169922, -0.1250530779361725, -0.0873877182602882, 0.0897657424211502, 0.0931631699204445, 0.2120580822229385, -0.1139156892895699, -0.1129081174731255, -0.1185124218463898, -0.1282597482204437, -0.0719530805945396, -0.1434899121522903, -0.1758866161108017, 0.0925829187035561, 0.1269064247608185, 0.0055606118403375, -0.0692589730024338, 0.0652754604816437, 0.0809781104326248, -0.1094646155834198, 0.0200039409101009, 0.1288374513387680, 0.0888305157423019, 0.0200639553368092, -0.0836953520774841, 0.1557076126337051, -0.0951853320002556, 0.1356250792741776, -0.0869635865092278, 0.1789192259311676, 0.0801036730408669, 0.1052238941192627, -0.1321754455566406, 0.1407994925975800, -0.1885834783315659, 0.1744615137577057, 0.0699146911501884, 0.0137311564758420, 0.0786635428667068, -0.1596786528825760, -0.0106023307889700, -0.0276065617799759, 0.0460750684142113, 0.0296436585485935, -0.0707304701209068, 0.0631080344319344, -0.0804786384105682, -0.1345229893922806, -0.0897640213370323, 0.0624930597841740, -0.0512952543795109, -0.1633069515228271, -0.1240983977913857, -0.0999572724103928, 0.1558668911457062, 0.0730933472514153, 0.0033797174692154, 0.0315217114984989, -0.1260942667722702, 0.1864154040813446, 0.1171992495656013, -0.0740915164351463, 0.0186405219137669, -0.1518892645835876, -0.0588956810534000, 0.1756740212440491, 0.0611128546297550, 0.2121771574020386, -0.0131187234073877, 0.1900965124368668, 0.1103332042694092, -0.1445500701665878, 0.0479155927896500, -0.1096985340118408, 0.0591450966894627, 0.0177683643996716, 0.0895369052886963, -0.0714725553989410, -0.1459780782461166, -0.1472489535808563, 0.1177128776907921, -0.0494080968201160, 0.0068284878507257, -0.1012739911675453, 0.0960680171847343, 0.1625431478023529, -0.2765753269195557, -0.0613874010741711, 0.0536265820264816, -0.1696747839450836, 0.0805011168122292, 0.1284916251897812, -0.0742421820759773, 0.0470242947340012, -0.0185834076255560, 0.0340066328644753, 0.0921447798609734, 0.1548665165901184, -0.1478635370731354, 0.0019563781097531, -0.1302374601364136, -0.1215801313519478, 0.1678276658058167, 0.1405239701271057, 0.0898806974291801, 0.0915886387228966, 0.1563930809497833, 0.0765715911984444, -0.1250975131988525, 0.1784367710351944, 0.0124400071799755, -0.1694924980401993, -0.0984328836202621, -0.1705598533153534, -0.0703644901514053, 0.1404706388711929, 0.0631722584366798, 0.1542708724737167, 0.0465005189180374, 0.0732725113630295, -0.1782327592372894, 0.1726532876491547, -0.0800897926092148, 0.1236137747764587, -0.1030576378107071, -0.0119532225653529, -0.1587386429309845, -0.1612360626459122, -0.1408361345529556, 0.1028761565685272, 0.0078781703487039, -0.2459315657615662, 0.0501248277723789, -0.0363448821008205, 0.1504589021205902, -0.0999893322587013, 0.1592695564031601, -0.1748218238353729, 0.1848515123128891, -0.0070615806616843, -0.0548901073634624, 0.0663853809237480, -0.0407574512064457, 0.0083436360582709, -0.0697218626737595, 0.0081884525716305, 0.1004948988556862, 0.0639796704053879, -0.1356140971183777, -0.2063595801591873, 0.1997082531452179, -0.0883115679025650, -0.0108744939789176, 0.0597968846559525, 0.1433029919862747, 0.0421029850840569, 0.0931111052632332, -0.1429014503955841, 0.1296007037162781, -0.1534402072429657, 0.1215976625680923, 0.0324601270258427, -0.0947246551513672, -0.2053354680538177, 0.0961324647068977, -0.0776875540614128, 0.1116604581475258, -0.1921026855707169, -0.1166502460837364, 0.1436654478311539, -0.2025073766708374, -0.0867200940847397, -0.1087138131260872, -0.1504871398210526, 0.1810726970434189, -0.0615422166883945, -0.1396717727184296, 0.0007136974600144, 0.1703539788722992, -0.0104725956916809, -0.1173200383782387, -0.0724328607320786, 0.0756898373365402, 0.0304100401699543, 0.0324499867856503, -0.1798059642314911, -0.1331705451011658, -0.1041578724980354, 0.0729597732424736, 0.1121449097990990, -0.0784752294421196, -0.0661398991942406, -0.1427079290151596, 0.1196598932147026, -0.1307575702667236, 0.0411391928792000, 0.0645586401224136, 0.1125314757227898, 0.0910543203353882, 0.1079025641083717, -0.0307768806815147, -0.1658498346805573, 0.1787951141595840, 0.1122330650687218, 0.1545933187007904, -0.0918152481317520, -0.0880804508924484, -0.1431861966848373, 0.0742084160447121, -0.0674967318773270, 0.1381143629550934, 0.0450058989226818, -0.1059818491339684, 0.0078067067079246, 0.1529685854911804, -0.0965704321861267, -0.0074617872014642, -0.0724405646324158, -0.1380697041749954, -0.0892682075500488, 0.1692519485950470, 0.1349447667598724, -0.0107087474316359, 0.0038935851771384, -0.1588105261325836, 0.1070929989218712, -0.0650877803564072, 0.0918678715825081, 0.0313000716269016, 0.0582957901060581, -0.1680917739868164, -0.1875580698251724, -0.0039164465852082, -0.0816170275211334, -0.0820673406124115, -0.0985176712274551, 0.1776077002286911, -0.0893321931362152, -0.0361576639115810, 0.1022083982825279, -0.0109391622245312, -0.2443292438983917, 0.1001375466585159, 0.0581958591938019, 0.2113299369812012, 0.0791876167058945, -0.0341953709721565, -0.1484685987234116, 0.1161634847521782, 0.0538448430597782, -0.1636339426040649, 0.1560390144586563, 0.0284570790827274, 0.0694181770086288, 0.0800284296274185, 0.0058676511980593, -0.0921116322278976, -0.1103936433792114, 0.0643640905618668, 0.1026936396956444, -0.1059063449501991, -0.2285728156566620, 0.0501875393092632, -0.0722916498780251, -0.0620784759521484, 0.1511495560407639, -0.1751484721899033, -0.1710118055343628, -0.0770142227411270, -0.1286617964506149, -0.0852275937795639, 0.0935659036040306, -0.1006385907530785, 0.0992971584200859, -0.0879616662859917, 0.1068137213587761, -0.1398690938949585, -0.0315795950591564, 0.1666069030761719, -0.0643616095185280, 0.0354609936475754, -0.0148562788963318, 0.0954920276999474, -0.0340968444943428, -0.1519769728183746, 0.2603912651538849, 0.1449768692255020, 0.0612935498356819, 0.0413716994225979, 0.0844621807336807, -0.0749814882874489, 0.0591609440743923, -0.2028786689043045, 0.1202962845563889, -0.0120591390877962, -0.0702105909585953, -0.0348777584731579, -0.0198332648724318, -0.0070271906442940, 0.1290524005889893, -0.1158447340130806, -0.0142816621810198, 0.1000607609748840, -0.0919269397854805, 0.0208056736737490, 0.0322383157908916, -0.1315020024776459, 0.1805559843778610, -0.0502720326185226, -0.0704170688986778, -0.1983548551797867, -0.0913431495428085, 0.1601328700780869, -0.1068304479122162, -0.0131509695202112, -0.0587655045092106, 0.0626844614744186, -0.2256040871143341, -0.1651508808135986, -0.1965510845184326, 0.0023773019202054, 0.1071171015501022, 0.0437646880745888, -0.0016508935950696, -0.1915822327136993, 0.0538137145340443, -0.0545906387269497, 0.1304762214422226, -0.1353264003992081, -0.1883225888013840, 0.1630401462316513, -0.1172868683934212, 0.1078142076730728, 0.0579333826899529, 0.0501432642340660, -0.1088480874896049, 0.1665080785751343, 0.0265805795788765, 0.1347621977329254, 0.2058740556240082, 0.1282265931367874, -0.0063726529479027, -0.0808872506022453, -0.2009997814893723, -0.0889802202582359, 0.1597665995359421, 0.1072424277663231, -0.1775395721197128, -0.1765606254339218, -0.1605432182550430, 0.0987674668431282, -0.0329254083335400, -0.0985299199819565, -0.0322155356407166, -0.1622579544782639, -0.1187148317694664, 0.0649503394961357, 0.0865747928619385, 0.1040254011750221, 0.1623674482107162, 0.1582163274288177, 0.0809367969632149, -0.0711141824722290, 0.1333691030740738, -0.1228107213973999, 0.1739231497049332, -0.0369966477155685, 0.1062158420681953, 0.0645824223756790, -0.0794699862599373, -0.1112809702754021, 0.1077399104833603, 0.1475436091423035, 0.1178744584321976, 0.1135147064924240, 0.0451990552246571, -0.0205720588564873, -0.1580877304077148, 0.0133029446005821, -0.0890194475650787, -0.0625171586871147, -0.0373042114078999, -0.0874387472867966, -0.0123528670519590, 0.0783483311533928, -0.1388292610645294, -0.1618143320083618, -0.2180196195840836, -0.0407938212156296, 0.0133987218141556, 0.0690442547202110, -0.1781174838542938, -0.1834204643964767, -0.0479812026023865, 0.0227648727595806, -0.0595021210610867, 0.1658598035573959, 0.0070710023865104, -0.0975508689880371, 0.0578140430152416, -0.0360951758921146, -0.1007912680506706, 0.1124460473656654, 0.2040723711252213, 0.0860343724489212, -0.0338465087115765, -0.0058207339607179, -0.1167008876800537, -0.0675882995128632, -0.0261070132255554, -0.1060404404997826, 0.1529080122709274, 0.0184068921953440, -0.0916701480746269, -0.0668042004108429, 0.1540354341268539, -0.0684520155191422, -0.1929761022329330, -0.1968509405851364, -0.0374907851219177, 0.0112785967066884, 0.0774422883987427, 0.0726294443011284, -0.1118152514100075, 0.0818542987108231, -0.0695681646466255, 0.0063836975023150, -0.2020531147718430, -0.1364241093397141, 0.0353802032768726, 0.0839825943112373, 0.1667367517948151, 0.0436110310256481, -0.1418370455503464, -0.0993472635746002, -0.1909230202436447, -0.0668315887451172, 0.1523843407630920, -0.1365648806095123, -0.0697915256023407, -0.1466837525367737, -0.1806692779064178, -0.1673955321311951, -0.0868872478604317, 0.1828982383012772, 0.0361767150461674, 0.0242764726281166, 0.1542756557464600, 0.0478490926325321, -0.1772843897342682, 0.0867105424404144, 0.1454500257968903, 0.0882883071899414, -0.0119003728032112, 0.0243843104690313, 0.0612611696124077, -0.0812109112739563, -0.1470699161291122, -0.1728837192058563, 0.1016377732157707, 0.0092906178906560, -0.1725730001926422, 0.1113226264715195, -0.0724899470806122, -0.0066509363241494, -0.0722633972764015, -0.0927169844508171, 0.1025425121188164, -0.1315253674983978, -0.0428279675543308, -0.0654377043247223, -0.0787631720304489, 0.1614883393049240, -0.1373627036809921, -0.1492736637592316, -0.1096578761935234, -0.0586195662617683, 0.1355524659156799, -0.1690399348735809, -0.1474434882402420, 0.0540835708379745, -0.0959242135286331, 0.0266447030007839, -0.0339821949601173, 0.0100473593920469, 0.1310261487960815, 0.0923214107751846, 0.0234526991844177, 0.0072546754963696, 0.1312997043132782, -0.1600797176361084, -0.0804667323827744, 0.1486500799655914, 0.1349696666002274, -0.1528932899236679, -0.1421364843845367, 0.1460125446319580, -0.0772557109594345, 0.0213055051863194, 0.0314887613058090, -0.1280990689992905, 0.1616599410772324, -0.1713291257619858, 0.0438780486583710, -0.0338117666542530, -0.1040579229593277, -0.1096917092800140, -0.0376654043793678, -0.1903679370880127, -0.1474118232727051, 0.0008454013150185, 0.0056664124131203, 0.1287207007408142, -0.0875276625156403, 0.1099123805761337, -0.1599674522876740, -0.0155531959608197, 0.0208903755992651, 0.1597556918859482, 0.0627842620015144, -0.1951522082090378, -0.1909849643707275, -0.1155932694673538, -0.1892102360725403, -0.1144061833620071, -0.0412854105234146, -0.1760972738265991, 0.0789890885353088, 0.1505933851003647, -0.1519650071859360, 0.0086047705262899, -0.1427260339260101, -0.1599982380867004, -0.0049431370571256, -0.2064491659402847, 0.0283260028809309, 0.1489563733339310, -0.0139603614807129, -0.0819562971591949, 0.0492467284202576, 0.0896191373467445, 0.1789436191320419, -0.1352184861898422, 0.0377487428486347, 0.1543720066547394, 0.1646552085876465, 0.0371358618140221, 0.0879029408097267, 0.0638499483466148, 0.0660438463091850, -0.1020069941878319, 0.0666541308164597, 0.0434372238814831, 0.1418033093214035, 0.0892523601651192, 0.1714049577713013, -0.0323855876922607, -0.1333230435848236, -0.0553863868117332, -0.0480138175189495, -0.0738309323787689, -0.1842622607946396, -0.1149419844150543, -0.0837259963154793, 0.0989540368318558, -0.0733314901590347, -0.1281392574310303, 0.2095017433166504, 0.0388073399662971, -0.1929502934217453, 0.0045628752559423, -0.1010910272598267, -0.0381862446665764, 0.1523346453905106, -0.0819941610097885, -0.1564900726079941, -0.1008287519216537, -0.1419767439365387, 0.1244938746094704, 0.0469265542924404, 0.1720662266016006, -0.1891393065452576, 0.1135699599981308, -0.1589578092098236, -0.1089026704430580, -0.0718816220760345, 0.1344422549009323, -0.1674451231956482, 0.0036747991107404, 0.0059676417149603, 0.0292519032955170, 0.0544066652655602, -0.1096284911036491, -0.1342803239822388, -0.0752860680222511, 0.0119195189327002, 0.0910303890705109, 0.1216455176472664, -0.0891457572579384, 0.0706348717212677, 0.0126959336921573, 0.0526207536458969, 0.0713227614760399, -0.1079196184873581, -0.1071248427033424, -0.1706918478012085, 0.0109173180535436, 0.1381433010101318, -0.0781434997916222, 0.1280728280544281, -0.0102313552051783, 0.1455927640199661, -0.1235143914818764, 0.1241061240434647, -0.1023170724511147, -0.1935927420854568, -0.1028444319963455, 0.1128103956580162, 0.1449305415153503, 0.1572983860969543, -0.1457451730966568, 0.0834908634424210, 0.1574257314205170, -0.0157919488847256, -0.0546583682298660, 0.1073263287544250, -0.0679974183440208, -0.0624062567949295, -0.0713583156466484, -0.0831302627921104, -0.0880054906010628, -0.2175464481115341, 0.1283638477325439, 0.0995577350258827, -0.0668947845697403, 0.1294574588537216, -0.0780730694532394, 0.1264988929033279, 0.0174558218568563, -0.2109806090593338, 0.0173440948128700, 0.1173411011695862, 0.0228606574237347, -0.0117021007463336, -0.1691274195909500, -0.0104200728237629, 0.0986980497837067, -0.1177330911159515, 0.0818048343062401, -0.1338859796524048, -0.1576789021492004, -0.0867377668619156, 0.1356615275144577, 0.0032538468949497, -0.0039505860768259, -0.1634591817855835, 0.1560828685760498, 0.0661798939108849, -0.1921742111444473, -0.1792926639318466, -0.2063150256872177, 0.0015893471427262, 0.0666700303554535, 0.1627746671438217, 0.0807773992419243, -0.1831949949264526, -0.0381845571100712, 0.0841696411371231, -0.0617603622376919, -0.0356261320412159, -0.0207979883998632, 0.1221672967076302, 0.0196827482432127, -0.0284751802682877, -0.0072462721727788, -0.1868667155504227, 0.1256715804338455, 0.0915982350707054, -0.0560666546225548, -0.1786308437585831, 0.0924853459000587, -0.0705964341759682, -0.0422289408743382, -0.0426953472197056, -0.0821284502744675, 0.0385678000748158, -0.0064918925054371, 0.0581429451704025, -0.1027709394693375, -0.1064899340271950, 0.0395712889730930, 0.0435886681079865, 0.1106282323598862, 0.0656743720173836, -0.1921302527189255, 0.1425736397504807, 0.1197566688060760, 0.0484213717281818, 0.0073593258857727, 0.0624046772718430, 0.1302074790000916, 0.1273890733718872, -0.1374709308147430, -0.1325007528066635, -0.1354189962148666, 0.1394700855016708, 0.1288399696350098, 0.0534493736922741, -0.0808132439851761, -0.0516159050166607, 0.1491936147212982, 0.0636306703090668, -0.1375938802957535, 0.0999251976609230, -0.1002313271164894, -0.1462750583887100, -0.0386125370860100, -0.1577770411968231, 0.0543982349336147, -0.1198025122284889, 0.1298884898424149, 0.0702162235975266, -0.0302668157964945, -0.0751747488975525, -0.1636431366205215, 0.0519073829054832, 0.1381868124008179, 0.1130154803395271, -0.1638024300336838, -0.0940180569887161, 0.1423732936382294, -0.0877799913287163, 0.0290860179811716, -0.0762466564774513, -0.1094693318009377, 0.1411546170711517, 0.0598581321537495, 0.0587663650512695, -0.0358397290110588, 0.0427858754992485, 0.1255064755678177, 0.1793177723884583, -0.0058017796836793, -0.1611186265945435, -0.1322372406721115, -0.0644972622394562, -0.0410191267728806, -0.0971029698848724, -0.1150952726602554, 0.0144014507532120, -0.1772394478321075, 0.1422695517539978, 0.0623609051108360, -0.1131086498498917, -0.0857678130269051, -0.1663643717765808, 0.0739854425191879, 0.1956907957792282, 0.0981016308069229, 0.0734531804919243, -0.0941230505704880, -0.0621267817914486, 0.0227096322923899, 0.0545211210846901, 0.1922069638967514, 0.0798156559467316, -0.1932608187198639, -0.1695386916399002, -0.1486174911260605, 0.1761383265256882, 0.1194049865007401, 0.1465507894754410, -0.0663696676492691, 0.2318983674049377, 0.1601133793592453, -0.0858772024512291, -0.1102630496025085, 0.1230067387223244, -0.1090521961450577, -0.1386147141456604, 0.1354822516441345, 0.0143318157643080, -0.0478472784161568, 0.1828245520591736, 0.0368246547877789, -0.0870760753750801, -0.1687320768833160, 0.1596268564462662, 0.1040222421288490, -0.0141455112025142, -0.0328107140958309, -0.0527795851230621, -0.1662966609001160, -0.0342518538236618, 0.1638976037502289, 0.0284555032849312, 0.1519843190908432, 0.0596985071897507, -0.0962172374129295, -0.0499645583331585, 0.1454447507858276, 0.1302995830774307, 0.0938595533370972, -0.0333988294005394, -0.0766647085547447, -0.1133831962943077, 0.0956044048070908, 0.1290458738803864, -0.0456885918974876, -0.1054636389017105, 