//Numpy array shape [32, 4]
//Min -0.404996782541
//Max 0.589699625969
//Number of zeros 0

#ifndef W4_H_
#define W4_H_

#ifndef __SYNTHESIS__
model_default_t w4[128];
#else
model_default_t w4[128] = {0.296491861343, 0.157492846251, 0.112504504621, 0.079321958125, -0.103537954390, 0.016099382192, -0.304148286581, 0.109677478671, 0.277628958225, -0.083728633821, 0.171933531761, 0.001237119897, -0.404996782541, -0.349078834057, -0.236364632845, -0.402330368757, 0.239348813891, -0.174261003733, -0.179184749722, -0.032038800418, -0.245108738542, 0.287058621645, -0.226319953799, -0.008540688083, 0.038095280528, -0.009133695625, 0.423466235399, 0.161045879126, -0.238845065236, -0.281777411699, 0.112137407064, -0.073098681867, -0.020115002990, -0.228144899011, -0.008482430130, 0.359649062157, 0.038895610720, -0.014063064940, -0.311788707972, -0.015202781186, 0.329026162624, -0.122534446418, 0.093434080482, 0.385184377432, 0.110040299594, 0.031942095608, 0.589699625969, -0.030660336837, -0.166001334786, 0.338168710470, 0.277704924345, -0.107436068356, -0.020096655935, -0.161695435643, 0.463668256998, 0.074864126742, 0.090582221746, 0.019913425669, -0.239779576659, -0.099795803428, -0.009965839796, -0.272345900536, 0.286898702383, 0.119672469795, 0.168858781457, -0.185875400901, -0.139132156968, -0.051727067679, 0.097757168114, 0.066511705518, 0.392467677593, -0.109294347465, -0.096437670290, 0.270967721939, 0.243372336030, -0.226066067815, 0.045398604125, -0.096163943410, 0.240016713738, -0.025069633499, -0.324955403805, -0.330382347107, 0.020711133257, 0.240448728204, 0.330965220928, 0.231837868690, 0.118455231190, 0.140849113464, 0.174873962998, -0.196051642299, 0.454513162374, 0.143830597401, 0.034928567708, 0.184048503637, 0.291853159666, -0.052196685225, -0.088354937732, 0.082387290895, -0.323368906975, -0.038969151676, -0.120603390038, 0.095023117959, -0.350285053253, 0.086516804993, 0.077420145273, -0.092727199197, 0.193810448050, -0.009890500456, 0.305820405483, 0.058158718050, -0.062080066651, -0.050665087998, 0.337039262056, -0.101324215531, -0.084710530937, -0.040491119027, 0.017847077921, 0.056175731122, 0.494092822075, -0.018416959792, 0.014209103771, -0.360601007938, -0.202841758728, 0.068842872977, -0.164086341858, 0.121598839760, -0.164250597358, 0.097126357257};

#endif

#endif
