//Numpy array shape [64, 2]
//Min -0.292113780975
//Max 0.266397029161
//Number of zeros 0

#ifndef W4_H_
#define W4_H_

#ifndef __SYNTHESIS__
dense_1_weight_t w4[128];
#else
dense_1_weight_t w4[128] = {0.174824908376, 0.016406781971, -0.276294797659, -0.134394720197, -0.127760410309, 0.100597888231, -0.132010415196, -0.106849409640, -0.170159652829, -0.070896662772, -0.188169270754, 0.045258462429, -0.070748962462, -0.049116119742, 0.011094153859, 0.151036351919, -0.070476949215, -0.150138959289, -0.140620291233, -0.140780463815, 0.165285617113, 0.076816558838, -0.071181058884, -0.146711528301, 0.210587516427, 0.009613400325, 0.184361398220, -0.195282712579, -0.245823398232, 0.244008406997, -0.133798614144, -0.044589910656, 0.065667733550, -0.238473817706, 0.127833068371, 0.010394543409, -0.137140318751, 0.139721632004, -0.204910114408, 0.156151801348, -0.192946925759, -0.271584987640, 0.083812110126, -0.171582534909, 0.122518032789, 0.096340797842, -0.204881757498, 0.057395584881, 0.200528413057, 0.019366143271, 0.139325678349, 0.018718792126, 0.169600054622, -0.000597030798, 0.208604365587, -0.193213939667, -0.168175145984, -0.104943171144, -0.077684648335, -0.169887363911, -0.098305195570, 0.099192827940, -0.094151392579, 0.014233125374, -0.116127707064, 0.024414112791, -0.150906413794, 0.150106117129, -0.292113780975, -0.067819952965, -0.260894447565, 0.123300291598, 0.232134774327, 0.207476764917, -0.160453706980, -0.065222017467, -0.042748715729, 0.050973679870, -0.019785087556, 0.154539868236, 0.093454651535, -0.009099324234, 0.243214949965, -0.088373810053, 0.169931143522, 0.019696917385, 0.171018853784, 0.008897585794, 0.042892675847, -0.003904375713, -0.014647350647, 0.124826274812, -0.256113380194, -0.220396220684, 0.104601435363, -0.059527814388, 0.266397029161, -0.003694765735, -0.199478387833, -0.105614975095, 0.010635821149, -0.036409109831, -0.072838120162, -0.011327153072, 0.006033281796, 0.126160636544, -0.259469002485, 0.214873090386, -0.225929766893, -0.049118839204, -0.247519448400, 0.100315198302, 0.033747095615, 0.160733506083, 0.232341110706, 0.026443371549, 0.033375181258, 0.108418002725, -0.089891470969, 0.083989329636, -0.152688547969, 0.021006187424, 0.149541050196, -0.155927255750, 0.022633450106, 0.136300280690, -0.097137391567, -0.121500290930};

#endif

#endif
