//Numpy array shape [64, 2]
//Min -0.292113780975
//Max 0.266397029161
//Number of zeros 0

#ifndef W4_H_
#define W4_H_

#ifndef __SYNTHESIS__
model_default_t w4[128];
#else
model_default_t w4[128] = {0.1748249083757401, 0.0164067819714546, -0.2762947976589203, -0.1343947201967239, -0.1277604103088379, 0.1005978882312775, -0.1320104151964188, -0.1068494096398354, -0.1701596528291702, -0.0708966627717018, -0.1881692707538605, 0.0452584624290466, -0.0707489624619484, -0.0491161197423935, 0.0110941538587213, 0.1510363519191742, -0.0704769492149353, -0.1501389592885971, -0.1406202912330627, -0.1407804638147354, 0.1652856171131134, 0.0768165588378906, -0.0711810588836670, -0.1467115283012390, 0.2105875164270401, 0.0096134003251791, 0.1843613982200623, -0.1952827125787735, -0.2458233982324600, 0.2440084069967270, -0.1337986141443253, -0.0445899106562138, 0.0656677335500717, -0.2384738177061081, 0.1278330683708191, 0.0103945434093475, -0.1371403187513351, 0.1397216320037842, -0.2049101144075394, 0.1561518013477325, -0.1929469257593155, -0.2715849876403809, 0.0838121101260185, -0.1715825349092484, 0.1225180327892303, 0.0963407978415489, -0.2048817574977875, 0.0573955848813057, 0.2005284130573273, 0.0193661432713270, 0.1393256783485413, 0.0187187921255827, 0.1696000546216965, -0.0005970307975076, 0.2086043655872345, -0.1932139396667480, -0.1681751459836960, -0.1049431711435318, -0.0776846483349800, -0.1698873639106750, -0.0983051955699921, 0.0991928279399872, -0.0941513925790787, 0.0142331253737211, -0.1161277070641518, 0.0244141127914190, -0.1509064137935638, 0.1501061171293259, -0.2921137809753418, -0.0678199529647827, -0.2608944475650787, 0.1233002915978432, 0.2321347743272781, 0.2074767649173737, -0.1604537069797516, -0.0652220174670219, -0.0427487157285213, 0.0509736798703671, -0.0197850875556469, 0.1545398682355881, 0.0934546515345573, -0.0090993242338300, 0.2432149499654770, -0.0883738100528717, 0.1699311435222626, 0.0196969173848629, 0.1710188537836075, 0.0088975857943296, 0.0428926758468151, -0.0039043757133186, -0.0146473506465554, 0.1248262748122215, -0.2561133801937103, -0.2203962206840515, 0.1046014353632927, -0.0595278143882751, 0.2663970291614532, -0.0036947657354176, -0.1994783878326416, -0.1056149750947952, 0.0106358211487532, -0.0364091098308563, -0.0728381201624870, -0.0113271530717611, 0.0060332817956805, 0.1261606365442276, -0.2594690024852753, 0.2148730903863907, -0.2259297668933868, -0.0491188392043114, -0.2475194483995438, 0.1003151983022690, 0.0337470956146717, 0.1607335060834885, 0.2323411107063293, 0.0264433715492487, 0.0333751812577248, 0.1084180027246475, -0.0898914709687233, 0.0839893296360970, -0.1526885479688644, 0.0210061874240637, 0.1495410501956940, -0.1559272557497025, 0.0226334501057863, 0.1363002806901932, -0.0971373915672302, -0.1215002909302711};

#endif

#endif
