//Numpy array shape [100, 128]
//Min -1.847731113434
//Max 1.499950647354
//Number of zeros 0

#ifndef W2_H_
#define W2_H_

#ifndef __SYNTHESIS__
dense_weight_t w2[12800];
#else
dense_weight_t w2[12800] = {-0.042515307665, 0.029190609232, 0.131685376167, -0.064940430224, 0.078916035593, 0.122787363827, -0.048213358968, -0.030078982934, 0.007940054871, 0.217260077596, 0.145337596536, 0.043969806284, -0.051440734416, 0.070533469319, -0.145561665297, -0.146045029163, -0.176198408008, -0.085977934301, 0.045241236687, 0.095163844526, -0.137364700437, 0.041693910956, -0.074092760682, 0.087169751525, -0.455932199955, 0.131177619100, 0.002515325323, -0.074995741248, 0.758770227432, -0.044878646731, -0.212319970131, -0.130021050572, -0.167864918709, 0.016248388216, -0.181828513741, -0.018612859771, -0.138800352812, -0.163199126720, -0.216880246997, 0.034984312952, 0.205123230815, -0.213851556182, 0.184543475509, -0.070974700153, 0.014268994331, 0.306405484676, -0.046567920595, -0.126995369792, -0.066777817905, 0.100274778903, -0.004769263789, -0.118505693972, 0.124652311206, 0.781242012978, -0.328089147806, 0.049010533839, 0.084483504295, -0.160713955760, -0.089233122766, -0.001759897918, -0.074441745877, -0.862143278122, 0.134833201766, 0.037553418428, 0.115322373807, -0.144295990467, 0.231044948101, -0.396705627441, -0.061236601323, -0.450812697411, 0.966374456882, -0.029832277447, 0.597780525684, 0.039484206587, 0.006426311564, 0.052600510418, -0.020669518039, 0.298597633839, -0.073850207031, -0.441407322884, -0.172323778272, -0.328486084938, 0.680827856064, 0.173093140125, 0.071278482676, 0.141066178679, 0.099797576666, -0.057294219732, -0.075287483633, 0.069267503917, 0.068973153830, 0.037667348981, -0.055104445666, -0.026278117672, 0.002414749237, -0.030259197578, -0.111885264516, 0.095230415463, 0.222013235092, -0.076504640281, -0.337117761374, -0.067773133516, -0.032990653068, 0.341033518314, 0.142687857151, 0.007285967469, -0.070768952370, 0.033652149141, -0.092212744057, 0.097428470850, 0.005207108799, 0.028084987774, 0.110985763371, 0.006037145387, -0.101270765066, -0.024630447850, -0.451249450445, 0.066508851945, -0.061788182706, -0.103747330606, -0.109373182058, 0.004008041695, -0.015587188303, 0.145944043994, -0.296362072229, -0.148764505982, 0.023189762607, -0.203918114305, 0.252176642418, -0.186675578356, 0.071536712348, -0.057506371289, 0.074740767479, -0.120020031929, -0.074137032032, 0.403701841831, 0.062120065093, 0.016265852377, 0.127253726125, -0.061137177050, -0.156498894095, -0.091866277158, -0.036872912198, -0.059631224722, -0.582467436790, -0.103337779641, -0.088663376868, -0.050992697477, -0.082591608167, 0.074389912188, 0.064311683178, -0.103720672429, 0.045930597931, -0.046048481017, -0.351198285818, 0.088663160801, 0.016865586862, 0.032331626862, -0.285204201937, 0.033797759563, 0.028881844133, -0.121560312808, -0.276020526886, 0.086069025099, -0.170474231243, 0.156497523189, 0.341015309095, 0.025972260162, 0.223290041089, -0.027251195163, -0.399440348148, 0.155616879463, -0.025694444776, -0.060565400869, 0.031875334680, 0.056848596781, -0.156868264079, 0.078592777252, 0.077937811613, 0.135781913996, -0.065943673253, 0.313312739134, -0.380050003529, -0.111847326159, 1.045497298241, 0.159859567881, 0.079788982868, -0.046888548881, -0.048517543823, 0.164167255163, -0.116154327989, -0.099651746452, -0.152668192983, 0.044949624687, -0.209469869733, -0.217382535338, 0.172060891986, 0.819962918758, -0.157769098878, 0.017622744665, -0.141511633992, 0.117151282728, -0.106820248067, -0.045546084642, -0.540450990200, 0.184639349580, 0.260504275560, 0.979817330837, -0.138957738876, -0.109992817044, 0.060165744275, -0.075730383396, 0.099965438247, -0.027706604451, -0.070801302791, -0.232922881842, 0.018032804132, 0.106202043593, -0.186117380857, 0.146321713924, -0.059553314000, 0.137644693255, 0.377837896347, -0.172417595983, 0.072021178901, 0.067293867469, -0.194399341941, 0.023544156924, 0.291513442993, 0.060782261193, -0.289112240076, 0.089900381863, 0.094995833933, -0.152488261461, -0.086200863123, -0.334124952555, 0.700465500355, 0.098977804184, -0.039156123996, 0.149141207337, -0.115382879972, 0.127836748958, -0.040326744318, 0.020145250484, -0.099447533488, 0.056470025331, 0.258625507355, 0.030192492530, -0.186750292778, -0.106629773974, 0.587902188301, -0.153289377689, -0.113271117210, -0.012545758858, -0.008171604015, -0.101310990751, 0.243624359369, 0.069497048855, 0.060159564018, -0.066062353551, 0.146315723658, 0.018411930650, 0.040134154260, -0.593015253544, 0.063753768802, -0.133550599217, -0.088222287595, 0.099333643913, 0.044602993876, -0.146635219455, -0.123990371823, -0.148412629962, 0.528780400753, 0.007743159309, -0.113356575370, 0.030687782913, -0.005680460483, -0.035629849881, 0.130964145064, -0.008779138327, -0.280752420425, -0.052929513156, -0.872421443462, -0.226109832525, -0.710387110710, 0.019139384851, -0.358461529016, -0.146246805787, 0.017934534699, -0.187673747540, -0.348831802607, 0.143250599504, 0.149121686816, -0.102170176804, -0.062874667346, -0.023179858923, 0.504276931286, -0.226964980364, 0.180005997419, 0.097814515233, -0.068155825138, -0.297282218933, -0.173204481602, -0.105452276766, -0.038150951266, 0.131706178188, 0.130806699395, -0.049173150212, 0.032993264496, -0.381077498198, 0.101626992226, -0.121231675148, -0.574734449387, -0.471940994263, 0.079094827175, -0.637413203716, -0.008591474965, -0.934703171253, 0.135633125901, -0.042221151292, 0.054379291832, -0.217190787196, 0.022024558857, 0.271326631308, -0.100136980414, -0.860718488693, -0.093131065369, 0.520126283169, -0.399374842644, -0.147932171822, 0.021557969972, 0.088644430041, -0.601897835732, 0.091178633273, -0.263741254807, 0.263111650944, -0.028115818277, 0.285234481096, -0.114083394408, 0.097521349788, -0.277760654688, 0.388903647661, 0.036619313061, 0.138243764639, -0.160535305738, 0.004730966873, -0.243930414319, -0.086342446506, 0.279719352722, -0.080444648862, 0.261021316051, 0.081932134926, -0.139936402440, -0.084651388228, 0.391916126013, 0.083361983299, 0.124712742865, -0.061239827424, 0.435139328241, -0.025307992473, 0.051549907774, 0.012319426052, 0.053908184171, 0.055251210928, 0.917160034180, -0.027985002846, -0.182581171393, 0.073100090027, 0.110932521522, -0.112760208547, -0.148586302996, -0.042429611087, 0.068894535303, 0.065710581839, -0.103953354061, 0.049657348543, 0.037199143320, -0.091459468007, -0.263943433762, -0.122015401721, 0.411989629269, 0.090330220759, 0.052433609962, -0.086939863861, 0.078007824719, -0.028996033594, -0.074219204485, -0.114624142647, 0.047659251839, -0.164408534765, 0.035456266254, 0.346753090620, 0.058661960065, -0.150463968515, -0.028338620439, 0.104405313730, -0.129226356745, 0.052493344992, 0.102225363255, 0.127499416471, 0.557256758213, 0.143572390079, 0.062616184354, -0.062478870153, -0.183552190661, -0.088043823838, 0.080151453614, -0.087120994925, -0.118383944035, 0.099889129400, 0.382105976343, 0.063074812293, -0.444779813290, -0.104078717530, -0.373392194510, -0.203542649746, -0.172861203551, -0.261673688889, 0.008287867531, 0.001273423200, 0.125102072954, 0.135294362903, -0.138909623027, -0.087936766446, 0.028886651620, 0.174653172493, -0.344463378191, -0.134840548038, -0.011224642396, 0.123588651419, 0.015610518865, -0.179999202490, 0.006700784899, 0.033518165350, -0.016304459423, -0.046283259988, -0.045236464590, -0.119358912110, -0.436428725719, -0.057845629752, -0.372019886971, -0.215621918440, 0.018526183441, -0.349649339914, 0.178497582674, 0.122799269855, -0.083137691021, -0.039317030460, 0.092741422355, 0.155031323433, -0.000095854317, -0.497139900923, -0.234994545579, 0.024724865332, 0.362813979387, 0.111597985029, -0.550915718079, -0.117427960038, -0.041989237070, -0.025276649743, -0.323470860720, -0.135740593076, -0.257769793272, -0.297367841005, 0.123099863529, 0.059641506523, -0.575610816479, -0.057200416923, -0.013070865534, -0.027346089482, -0.089777313173, -0.151056766510, -0.029432073236, -0.170436486602, 0.159940212965, 0.022851232439, -0.061654888093, -0.231059744954, 0.498127043247, -0.183328911662, 0.089420162141, -0.261727035046, 0.376742929220, 0.015521568246, -0.304414719343, 0.288993597031, -0.007712472696, -0.132393360138, -0.176639676094, 0.051131136715, 0.085791945457, 0.329251080751, -0.197530493140, 0.018672153354, -0.118649266660, 0.125282138586, 0.015569622628, -0.178004577756, 0.031549137086, -0.101739354432, 0.068620502949, -0.017808293924, 0.172134131193, -0.059095926583, 0.053548403084, -0.140543624759, 0.058028515428, 0.065278932452, 0.190080866218, 0.126955017447, 0.044563893229, 0.071505963802, 0.034034583718, -0.143571823835, 0.113854818046, -0.078225001693, -0.028164042160, -0.024403585121, -0.035027272999, -0.581115841866, 0.094927541912, -0.056903269142, -0.129394844174, -0.135542526841, 0.017544467002, -0.055436339229, 0.001736989245, 0.030199697241, 0.208237543702, -0.144978746772, 0.057472381741, 0.046379085630, -0.109207324684, -0.114403747022, -0.113781645894, 0.105154991150, 0.065755702555, 0.067174278200, 0.092811137438, -0.047440957278, 0.032242067158, 0.036018162966, -0.195532873273, -0.097312241793, 0.046592496336, -0.196650281549, 0.208848357201, -0.004502461758, -0.071497365832, 0.121225938201, -0.047248274088, -0.050196491182, 0.292478710413, 0.269268751144, 0.071687079966, -0.003702116432, 0.064751699567, -0.161117404699, -0.116243369877, 0.018184291199, 0.064539104700, 0.158121854067, -0.152225777507, -0.003553804243, -0.089593864977, 0.468974649906, 0.174540430307, 0.088032141328, -0.374115169048, -0.522542834282, -0.166736111045, -0.228664293885, -0.050250295550, -0.856743991375, 0.084025546908, -0.067466117442, 0.142965570092, 0.005348901730, 0.015157853253, 0.483287274837, 0.000555679784, -0.058948200196, -0.193875387311, 0.388566017151, 0.017671147361, -0.111910238862, 0.091544210911, 0.048549327999, -0.150117829442, 0.007053637411, -0.060832809657, 0.084269002080, 0.056166049093, -0.514581322670, -0.547997593880, 0.183030351996, 0.012080448680, 0.368721395731, 0.010680209845, -0.153658598661, 0.013118058443, -0.010670016520, -0.055522713810, -0.093673758209, 0.534936666489, -0.532601058483, 0.095577657223, 0.060021858662, -0.059368148446, -0.166097924113, -0.076142311096, -0.197315379977, -0.060047950596, -0.074549876153, -0.194909244776, -0.666753649712, -0.072379641235, 0.031546227634, -0.042000304908, 0.147502213717, 1.072561025620, 0.097746632993, 0.119188293815, 0.071728177369, 0.091410070658, 0.158346444368, 0.091786466539, -0.068548917770, 0.134617596865, -0.172623887658, -0.144734859467, -0.196942761540, 0.025249555707, -0.054523125291, 0.418747127056, 0.081994235516, 0.737974286079, -0.134417086840, 0.121484920382, -0.083295077085, 0.202919334173, -0.177058249712, -0.020797464997, 0.123090118170, 0.014009111561, -0.005478422157, 0.005048015155, 0.247813627124, -0.133956313133, -0.030471354723, 0.033991072327, -0.180962383747, -0.007491056807, -0.036795988679, 0.099794693291, 0.044503852725, 0.384648382664, 0.128466308117, -0.078246101737, 0.069754727185, -0.074287459254, -0.061429701746, 0.055881157517, -0.011166324839, 0.201712816954, -0.028991580009, -0.172748014331, -0.008529687300, -0.733023405075, -0.160145998001, 0.018901633099, -0.134231537580, 0.026909014210, -0.240406811237, -0.057971499860, -0.200507238507, 0.005356386770, 0.095729194582, -0.127363011241, -0.100671395659, 0.078747265041, 0.164278537035, 0.007468070835, 0.052322417498, 0.083154916763, 0.067585051060, -0.138367310166, 0.065769568086, 0.020480010659, 0.142724722624, 0.007099522743, 0.052161745727, -0.124078951776, 0.247902348638, -0.717842102051, -0.144863978028, -0.195778310299, -0.147060185671, 0.118556290865, 0.251668155193, -0.227461397648, -0.174321725965, -0.108167991042, -0.084599830210, -0.127142056823, -0.259110271931, -0.243430018425, -0.156316146255, -0.137628078461, 0.264304727316, -0.084562413394, 0.309647381306, 0.195475921035, 0.093634374440, -0.026962270960, -0.172197505832, 0.361405402422, -0.298334270716, -0.173680827022, 0.053973928094, -0.142925500870, -0.133796721697, 0.241556838155, 0.074506640434, 0.083003140986, -0.049719773233, -0.167336270213, -0.154076412320, 0.130563393235, 0.080798096955, 0.374338775873, -0.089648813009, 0.236505746841, -0.273040443659, 0.150955274701, -0.162159547210, 0.008356244303, -0.257049262524, -0.254777491093, -0.029716797173, 0.169092893600, 0.043404102325, 0.159430772066, -0.151255100965, -0.090723261237, 0.025829672813, 0.086293026805, 0.056582484394, 0.810148239136, -0.070293143392, -0.212403669953, -0.153537616134, -0.102354638278, -0.017181923613, -0.110883139074, 0.049569547176, -0.010189069435, -0.000042467556, -0.078396238387, -0.070307888091, 0.133701592684, -0.058679942042, -0.209361568093, -0.120295293629, -0.482725173235, -0.078679613769, -0.071978934109, 0.034406490624, -0.166529163718, -0.044650875032, -0.066546976566, 0.011873934418, 0.067957617342, -0.062034778297, 0.042146544904, -0.142646610737, -0.046727422625, 0.105649568141, 0.114043533802, 0.040785204619, -0.018873771653, 0.046352058649, -0.007043103687, -0.103581421077, -0.339998185635, 0.025574918836, -0.137724310160, -0.176283225417, 0.090787023306, -0.094167575240, -0.073744826019, -0.005820696708, 0.373247176409, -0.078999564052, 0.125681906939, -0.046397440135, -0.218723282218, -0.105298921466, -0.092770084739, -0.103099189699, 0.149263411760, 0.249627977610, -0.335812389851, 0.137465685606, 0.111925415695, -0.148602694273, 0.316865772009, 0.048583395779, 0.589459359646, -0.322224855423, 0.313347280025, -0.150770664215, -0.146209001541, -0.047230686992, -0.061064537615, 0.032990254462, 0.008271368220, 0.092907451093, 0.166157677770, -0.038098998368, 0.103105969727, 0.110988207161, 0.386469155550, 0.100118339062, 0.153501212597, -1.258900761604, -0.052731018513, 0.647208809853, 0.052075736225, 0.494644075632, -0.180583655834, -0.165947750211, 0.012115199119, -0.048844154924, -0.104972407222, 0.002877191408, -0.020440919325, 0.023856695741, 0.437524169683, 0.020613301545, -0.044251061976, -0.176401302218, -0.004220319912, -0.063909575343, 0.982087433338, -0.722965419292, 0.161569491029, -0.380964249372, -0.150275915861, -0.047496493906, 0.033617660403, 0.222405925393, -0.268486589193, 0.594371736050, -0.052028857172, -0.132672473788, 0.016640096903, -0.020343931392, -0.144161820412, -0.062470536679, -0.323700010777, 0.086266383529, 0.192709848285, -0.204470977187, -0.146904438734, -0.035663004965, 0.257759869099, -0.014771679416, -0.216173589230, -0.073522880673, 0.094486087561, 0.083366475999, -0.179248213768, 0.028816582635, -0.014259425923, 0.310852289200, -1.241725564003, 0.111866354942, 0.091094426811, -0.070029206574, -0.000937990961, -0.207869261503, 0.005574011244, -0.006239866838, -0.154960274696, -0.063552252948, 0.118416085839, -0.045540142804, -0.095283597708, -0.053000114858, -0.567042350769, -0.156837671995, 0.030543342233, 0.018625410274, 0.060869578272, 0.013273242861, -0.074742235243, 0.363296449184, -0.094488970935, 0.169925734401, -0.185363277793, -0.129443705082, -0.052185907960, 0.496599614620, -0.031492270529, -0.075185306370, 0.014153675176, 0.102137252688, 0.055986244231, 0.026167308912, 0.015677351505, 0.092472404242, 0.045007981360, -0.102501660585, -0.047512240708, -0.089468181133, -0.108810357749, -0.027958454564, 0.027388796210, -0.010608323850, 0.223313376307, -0.106020055711, 0.551242887974, 0.088488422334, 0.985379517078, -0.132019475102, -0.085237011313, -0.121538601816, -0.137205824256, -0.164370432496, -0.010901393369, 0.150394544005, -0.086236849427, 0.084741957486, -0.087449379265, 0.155231624842, -0.480596959591, 0.314109712839, -0.143070787191, -0.077755555511, 0.157768115401, 0.124756634235, -0.104846343398, 0.060508348048, -0.001272276742, -0.087174311280, -0.145169094205, -0.022955505177, -0.171249791980, 0.286753714085, 0.145491480827, -0.065104968846, -0.226913109422, 0.672562777996, -0.110086664557, 0.299630790949, 0.330503076315, 0.345772534609, -0.071175679564, -0.075926050544, -0.121861770749, -0.081178002059, -0.037715192884, -0.168920204043, -0.019554529339, 0.442088246346, -0.037721104920, 0.031484350562, 0.160093188286, 0.119701139629, -0.100359290838, -0.086679108441, -0.216883718967, -0.392022490501, -0.085014924407, -0.552931368351, -0.021089224145, -0.076875872910, 0.063541904092, -0.568247616291, -0.031203206629, -0.269871324301, 0.150901004672, -0.098399735987, 0.018207862973, 0.094010405242, -0.054736308753, 0.076066948473, 0.244107544422, -0.036799475551, 0.526329696178, -0.174062892795, -0.065732747316, -0.317772358656, -0.245817363262, 0.084045879543, -0.060167130083, 0.113100245595, -0.062838591635, 1.162204980850, -0.024021359161, -0.116093076766, -0.066300794482, 0.227434799075, -0.052007574588, 0.134018599987, 0.112874977291, 0.128820866346, 0.070484481752, 0.037301402539, -0.107406377792, -0.016741057858, -0.022428205237, -0.068717703223, 0.207724839449, 0.168420493603, 0.153645008802, 0.020590553060, 0.004966084380, -0.159738972783, 0.138540193439, 0.031686093658, -0.011119765230, 0.067327775061, 0.002789092716, 0.085305936635, -0.022613165900, -0.085122019053, 0.115803651512, -0.044054370373, -0.149956971407, -0.833715498447, -0.099100135267, 0.060763131827, 0.127182975411, -0.095288850367, 0.058746468276, -0.094136290252, -0.117581568658, -0.120224975049, 0.084202192724, 0.128802150488, -0.057480022311, -0.124747961760, 0.034320443869, -0.135958224535, 0.043428361416, -0.012184433639, -0.480100750923, -0.020367041230, 1.178914546967, -0.153287932277, -0.444444864988, -0.013179626316, 0.156852409244, 0.120429538190, -0.040574382991, -0.261104911566, 0.236722752452, -0.115099161863, 0.059303995222, -0.156268939376, 0.120116844773, 0.027385145426, -0.684382915497, 0.002965257037, 0.269469082355, -0.031120836735, -0.116371661425, 0.454375356436, 0.103011146188, -0.105443522334, -0.309450775385, 0.088445842266, -0.002996572992, -0.092546105385, 0.022676331922, -0.308405905962, 0.181749567389, 0.131307199597, 0.459107547998, -0.668880999088, 0.010547221638, 0.056027557701, 0.164394453168, -0.078198403120, 0.090508624911, -0.043219618499, 0.157639592886, 0.069950334728, -0.294855177402, 0.024356776848, -0.018081298098, 0.114898413420, 0.309399902821, -0.730597078800, 0.098710574210, -0.056035380810, -0.008424483240, -0.119427084923, -0.180261358619, -0.150731474161, 0.445277363062, 0.698683619499, 0.020290289074, -0.271871745586, 0.976295590401, -0.125128477812, -0.079549282789, 0.126962363720, -0.029493808746, -0.194365069270, 0.130294457078, 0.127552643418, -0.183717474341, 0.091817535460, 0.371556162834, -0.185201734304, -0.648349523544, 0.026525018737, -0.203319802880, -0.058659672737, 0.146672412753, 0.089726395905, -0.273688882589, -0.570150315762, -0.214086264372, 0.886329472065, 0.070527806878, -0.217431724072, 0.027777824551, -0.562061846256, 0.021619876847, -0.143200457096, -0.064530849457, 0.057718336582, 0.111096821725, 0.127965137362, -0.084701091051, -0.070496030152, 0.344617098570, -0.102859541774, 0.079074293375, -0.071614488959, 0.049845941365, -0.142752960324, -0.552704453468, 0.033068545163, 0.669872403145, -0.025546565652, -0.007201220375, -0.000896079815, -0.049491398036, 0.019965907559, -0.030690485612, 0.185101151466, 0.013696957380, 0.125778049231, -0.225875303149, -0.981689512730, -0.143386155367, -0.129981651902, -0.016292169690, 0.100846111774, -0.023087136447, -0.090954124928, -0.099015958607, -0.000663886487, 0.336126536131, -0.121157944202, 0.123527012765, 0.048672962934, -0.042460128665, 0.159027159214, 0.106365278363, 0.074794270098, -0.811551094055, -0.138422310352, 0.212706163526, -0.170683056116, 0.288076460361, -0.046532493085, -0.103674039245, -0.221154555678, -0.132524996996, -0.048092190176, -0.086637273431, 0.032514706254, 0.002794781467, -0.150375440717, -0.115529939532, 0.096654862165, -0.884120523930, 0.234757557511, -0.156276926398, -0.127620205283, 0.120746567845, 0.085519321263, 0.073681198061, -0.044058535248, 0.038986794651, 0.140491500497, -0.060160573572, -0.033908337355, 0.072512306273, 0.596986591816, -0.051087446511, 0.135301679373, -0.200128421187, 0.408675014973, 0.061567086726, -0.559967815876, 0.214739412069, 0.588806092739, -0.175983384252, 0.105574026704, 0.015280308202, 0.071417197585, -0.366742521524, -0.009335648268, 0.028669342399, -0.669251382351, 0.033162321895, -0.407996475697, -0.040234617889, -0.041748847812, -0.030072681606, 0.014954322018, 0.062072481960, -0.188557416201, -0.568331599236, 0.640011131763, 0.079911403358, -0.207616850734, 0.552819669247, -0.216859281063, -0.263282179832, 0.538779377937, 0.108421504498, 0.005722633097, -0.001808792353, 0.135345101357, -0.027397330850, 0.029286954552, 0.034092687070, 0.008221936412, 0.598707735538, 0.139280721545, 0.134419947863, 0.202448651195, 0.448343276978, 0.018243903294, 0.050155844539, 0.099348470569, 0.106920689344, -1.375635147095, -0.124257251620, -0.160731196404, 0.082246914506, -0.009922740050, 0.026588156819, -0.037340495735, -0.090880222619, -0.062176298350, 0.119520850480, -0.049565508962, 0.113214232028, -0.022874796763, -0.240338578820, 0.089446835220, -0.103031508625, -0.248932495713, -0.010426141322, 0.110194571316, -0.282361298800, 0.095503978431, 0.092115148902, 0.064094781876, -0.099131286144, 0.058299370110, -0.310762196779, -0.030475948006, -0.172817245126, 0.058779828250, -0.128594949841, 0.055557470769, -0.204484924674, -0.585725903511, 0.016762280837, -0.160832807422, -0.096673965454, -0.178352370858, -0.039962917566, -0.056394919753, -0.017676718533, -0.148225590587, 0.096187084913, 0.100615471601, 0.095821663737, 0.106211513281, 0.058488000184, -0.047138560563, 0.124219015241, 0.097804404795, -0.491874307394, -0.038652118295, -0.646529138088, 0.110983766615, 0.537049651146, -0.015135518275, -0.128651767969, -0.066993899643, -0.154957637191, 0.145324110985, 0.137233257294, 0.028000468388, 0.061669871211, 0.011345039122, -0.404803574085, -0.052459046245, 0.050819061697, -0.120459608734, -0.118254370987, -0.047805842012, 0.156088635325, 0.124384239316, -0.026278827339, -0.080641582608, -0.100890845060, 0.107183337212, 0.125530257821, -0.001118129585, -0.171399369836, 1.275693893433, -0.580598354340, -0.093238539994, -0.143973097205, 0.427882432938, 0.099905848503, 0.060151781887, 0.387085735798, 0.101932987571, -0.034691471606, -0.039901137352, 0.138591229916, 0.301514327526, -0.260056316853, 0.177832558751, 0.047144208103, 0.191732674837, -0.641069591045, 0.225876688957, 0.276630163193, -0.140043854713, -0.097756676376, 0.040560323745, -1.191927075386, -0.288943111897, 0.085437685251, 0.152899786830, -0.112247981131, 0.066330477595, -0.143917828798, 0.124077066779, -0.182578712702, 0.449449032545, 0.108380787075, 0.047094814479, 0.129503175616, 0.095689959824, 0.102077826858, -0.002363051521, -0.242627799511, -0.016323272139, -0.317667454481, 0.215536534786, -0.029900219291, -0.174853309989, 0.344575583935, -0.210100263357, -0.363413244486, 0.237291514874, 0.054052073509, 0.111800409853, 0.037155248225, 0.086744435132, -0.016820997000, 0.172034934163, 0.562454700470, -0.072955466807, 0.056833211333, 0.123364098370, 0.138858333230, -0.115675210953, -0.107950136065, 0.056134603918, -0.097123436630, 0.080885782838, -0.036872431636, -0.008091811091, 0.050887264311, -0.162141650915, -0.100773207843, -0.009926324710, -0.049439556897, -0.002294780454, 0.038603268564, -0.171497911215, -0.023551650345, 0.142414823174, -0.110152095556, -0.024124899879, 0.135222643614, 0.058015100658, -0.100179724395, -0.671473324299, 0.037382464856, -0.021026235074, -0.066271618009, -0.055219564587, -0.125698149204, -0.047868624330, -0.099248453975, 0.071853429079, 0.579671800137, -0.116980671883, 0.101180441678, -0.172304436564, 0.008703969419, -0.083172835410, -0.150027960539, 0.101380780339, -0.107522360981, -0.079651802778, 0.154147863388, 0.020603330806, -0.752934634686, -0.040745038539, 0.055044427514, -0.157940164208, 0.093067035079, -0.081780776381, -0.103714242578, -0.201629847288, -0.021206101403, 0.108122907579, -0.497287303209, -0.030128607526, 0.563108503819, -0.205727830529, -0.179290086031, -0.147595360875, 0.003284573555, -0.165664970875, 0.024607883766, -0.149146094918, -0.034198656678, 0.055795412511, -0.138811603189, 0.075627274811, -0.082870483398, 0.345761537552, 0.035004593432, 0.076679155231, 0.114426858723, -0.045593544841, 0.050245393068, -0.269995212555, -0.097851336002, -0.001784750959, 0.050043448806, 0.033727440983, -0.021028785035, -0.080584667623, -0.343409806490, 0.054682780057, 0.159332990646, 0.460894018412, 0.031205918640, 0.701733469963, -0.101312160492, 0.091986149549, -0.064765103161, 0.042536474764, -0.434499263763, -0.829431951046, -0.466739892960, 0.828399419785, -0.011605354026, 0.203475058079, -0.153876915574, -0.075375743210, -0.278603434563, 0.007480973843, 0.021695926785, -0.248290300369, -0.142866954207, 0.033654712141, 0.274572700262, -0.026276202872, 0.089946202934, -0.243626222014, -0.442006558180, -0.168878301978, 0.032693192363, -0.129068672657, 0.272088289261, 0.091260477901, 0.023449504748, -0.401499748230, 0.263421356678, -1.096566200256, -0.203171476722, 0.014776522294, 0.122473396361, -0.448643654585, -0.554872035980, 0.089743472636, -0.036287918687, 0.155731603503, 0.011480167508, -0.095925576985, -0.160907328129, -0.132462441921, 0.153288915753, -0.139040410519, -0.051932919770, -0.072690121830, 0.060838181525, 0.079957358539, 0.713412940502, -0.093835428357, -0.505217134953, -0.035737328231, -0.128126338124, 0.031161945313, -0.035342857242, -0.141269922256, -0.184839487076, 0.092670314014, -0.041130620986, -0.080587767065, 0.179687902331, -0.639831006527, -0.073937870562, 0.050093356520, 0.114212796092, 0.020358012989, 0.023605944589, -0.058816745877, 0.085401147604, 0.133745685220, -0.220929890871, -0.097390934825, -0.169015899301, 0.025224490091, 0.162136927247, 0.002037762431, 0.092469111085, -0.129738628864, 0.321213334799, -0.011133238673, 0.352183192968, -0.139569908381, 0.506652474403, -0.094313979149, -0.203566670418, -0.164343461394, -0.093011341989, 0.072518736124, -0.204608947039, 0.058229386806, 0.074493847787, 0.002383375773, -0.023394370452, -0.011189604178, 0.238584101200, 0.119026921690, -0.358057796955, 0.151956886053, -0.137410297990, 0.078698292375, -0.092486985028, 0.047927618027, -0.152224749327, -0.004356299061, 0.061485845596, -0.151540681720, -0.005122737028, 0.168556943536, 0.831948041916, 0.151286914945, 0.541176736355, 0.004776824731, -0.131726801395, -0.286589533091, 0.403224825859, 0.641902387142, 0.038112733513, 0.089096121490, -0.091092601418, -0.100837260485, -0.058860100806, -0.255838096142, 0.071942098439, -0.030989268795, -0.536965489388, 0.311681449413, 0.251519352198, 0.018986076117, -0.158458411694, -0.083495318890, 0.212844073772, -0.083717614412, 0.110890291631, -0.133952125907, 0.002317228122, -0.095610424876, 0.283472478390, -0.306961238384, 0.197235763073, 0.076263472438, 0.014619719237, -0.087468177080, -0.084493592381, 0.045104302466, 0.488202959299, 0.148007690907, 0.022147843614, 0.056694921106, -0.595001697540, -0.133276537061, -0.171668320894, -0.387589514256, -0.270417392254, -0.088046662509, 0.239725023508, -0.088657274842, 0.393543660641, 0.778085172176, -0.086680345237, 0.013833704405, -0.169616729021, 0.273488730192, -0.258964538574, -0.016492730007, -0.158128634095, -0.138751685619, 0.177864059806, 0.154731467366, -0.047838125378, -0.073940999806, -0.127724051476, -0.062619268894, 0.271205723286, -0.083402290940, 0.097906783223, -0.048859175295, -0.376362591982, -0.106817878783, -0.586732804775, 0.039976060390, -0.103836141527, -0.095214970410, -0.272388130426, -0.072407931089, 0.148773804307, 0.014610449784, -0.121361397207, 0.140313446522, -0.033914942294, 0.023957192898, -0.187174156308, -0.262303084135, -0.084342978895, -0.171440571547, 0.099595159292, -0.004308026750, 0.096419550478, -0.072768270969, -0.436729907990, -0.116316869855, 0.060726575553, 0.030808186159, 0.022840769961, -0.154758527875, -0.125273704529, -0.159786492586, 0.027255313471, 0.054785683751, 1.137588858604, -0.202013790607, 0.044227626175, -0.123613394797, 0.195990324020, -0.100432805717, 0.118721120059, 0.064743928611, -0.119772188365, 0.037776276469, -0.019833978266, 0.099033214152, 0.171418219805, 0.078312300146, 0.019504148513, 0.005429804325, -0.200052484870, 0.125874340534, -0.069554761052, -0.127861157060, -0.064763158560, -0.020051285625, 0.106230810285, 0.068435877562, -0.147151768208, -0.084853142500, -0.100909642875, 0.040916629136, -0.589753150940, 0.084019735456, -0.084324032068, 0.004601059016, -0.021938668564, 0.753856182098, -0.130575895309, 0.160179302096, -0.094489127398, -0.130294412374, 0.055648181587, -0.041254051030, -0.126408725977, -0.104768469930, -0.135875225067, -0.412891000509, -0.032898161560, -0.338335484266, 0.544398486614, -0.004756199662, 0.146228671074, -0.042096558958, 0.043014127761, -0.223739132285, -0.128930211067, -0.039877023548, 0.047319922596, -0.118951320648, 0.130166277289, -0.183678135276, 0.114805839956, -0.115751907229, -0.099427111447, -0.122458197176, -0.124623700976, -0.044676028192, 0.009012558497, -0.066681794822, -0.063964441419, -0.065862551332, 0.305488854647, -0.357015758753, 0.096036039293, 0.055487275124, 0.493991971016, -0.159097656608, 0.308256030083, -0.029685128480, -0.084951691329, -0.579844951630, 0.160377725959, -0.196001395583, -0.096603639424, 0.003458200721, -0.292184859514, 0.104811809957, 0.134947016835, -0.044300101697, -0.039783392102, -0.163364946842, -0.094261787832, -0.054695498198, 0.122429773211, 0.065766625106, 0.105723492801, 0.109277568758, -0.163357913494, -0.093175344169, -0.244180217385, 0.024641321972, 0.213418677449, 0.046512819827, 0.075357578695, 0.140701681376, 0.101858712733, -0.103135131299, 0.009200623259, -0.099604614079, -0.003699599998, 0.041719898582, -0.219777122140, 0.270329028368, -0.134009331465, 0.052460961044, -0.114856429398, 0.095110453665, -0.131603926420, -0.147609651089, 0.062948383391, 0.052773848176, -0.308363944292, -0.127942875028, 0.020506167784, -0.103345066309, -0.077440842986, -0.027375698090, -0.007617279887, -0.135761424899, -1.221426606178, 0.142296746373, 0.821863532066, -0.178064420819, -1.121793627739, 0.136023044586, 0.360004186630, 0.181518957019, -0.087396964431, 0.157526224852, 0.044181890786, -0.042972009629, -0.063134193420, -0.009463248774, 0.101807072759, -0.221257999539, 0.112976200879, -0.228676259518, -0.000135014066, -0.064663946629, 0.150561317801, 0.300805330276, 0.011801508255, 0.091334834695, -0.104361206293, 0.087042927742, -0.058476328850, 0.039420936257, -0.154402479529, 0.409242063761, 0.722148358822, -0.103695988655, 0.403569579124, -0.312231063843, -0.074128836393, -0.265140056610, -0.164966911077, -1.119391322136, -0.106551997364, -0.155683398247, 0.002802427625, 0.072886593640, -0.112201504409, 0.019653834403, -0.171248853207, 0.141134440899, 0.385595053434, -0.088367126882, -0.030389316380, 0.104702539742, -0.021871469915, -0.131877437234, -0.363029062748, 0.087133467197, 0.220800474286, 0.286563515663, 0.004349470139, 0.392844855785, -0.122391797602, 0.404671639204, -0.039655648172, -0.369157344103, -0.104588992894, -0.097409546375, -0.108698338270, -0.022988487035, 0.009835573845, -0.014199926518, -0.188046425581, -0.079375959933, 0.207746177912, -0.141458600760, -0.127056628466, 0.083175517619, -0.155313804746, -0.180091187358, -0.012669002637, -0.247483149171, -0.321665674448, 0.227320268750, -0.069518215954, 0.092118866742, -0.051598515362, -0.492215871811, 0.257239431143, 0.026087040082, -0.121178649366, -0.132751733065, 0.090335905552, -0.161968335509, -0.147266507149, 0.087531961501, -0.176411584020, -0.189618587494, 0.135202795267, 0.085562266409, -0.043834775686, 0.020956212655, -0.233284249902, 0.054849520326, 0.094537295401, 0.062856994569, 0.128794044256, -0.076442874968, 0.177661284804, -0.163496538997, -0.105163924396, -0.157247200608, 0.114011272788, -0.143403142691, 0.078867696226, 0.099846288562, -0.235660955310, 0.103277936578, 0.036640711129, -0.061383347958, 0.129026800394, 0.064583800733, -0.096038751304, -0.149153009057, -0.554631531239, 0.005342466757, 0.047974344343, 0.112329408526, 0.105116270483, -0.135933458805, -0.160930782557, -0.115645058453, -0.576199054718, 0.027784641832, -0.730620861053, -0.025102084503, 0.606318056583, -0.038645826280, -0.200687721372, 0.019401066005, 0.038123752922, -0.098407059908, -0.060895483941, -0.105275601149, -0.121419928968, -0.031435787678, 0.150810852647, 0.051409218460, -0.273069709539, -0.251606583595, -0.506073236465, -0.090639501810, -0.037000969052, 0.195219844580, -0.085382536054, -0.168178096414, 0.035694345832, 0.115961432457, -0.187947347760, 0.137227952480, 0.111224845052, 0.022361364216, 0.011990591884, -0.013921308331, 0.345705151558, 1.426355123520, -0.064443685114, -0.073641791940, 0.145319879055, -0.708644807339, -0.002494224813, 0.140517145395, 0.106057517231, 0.289092689753, 0.240001887083, 0.149056240916, -0.046432957053, -0.373020648956, -0.245444670320, -0.080145545304, 0.199486792088, 0.006934715901, 0.060749031603, -0.017391780391, 0.194250136614, 0.185805588961, 0.028303790838, -0.078310906887, 0.028000505641, 0.099720366299, 0.314578473568, 0.200428426266, -0.091029785573, -0.153868809342, -0.071829348803, -0.136186286807, -0.026964440942, 0.032863289118, 0.215412735939, -0.099997557700, -0.074090726674, -0.002650323324, 0.614268124104, -0.123244263232, -0.017469307408, -0.089727178216, -0.051629260182, -0.121596999466, 0.200385704637, -0.244320929050, -0.327196985483, 0.158682942390, -0.099971741438, 0.161863401532, 0.087617225945, 0.304485708475, -1.071814656258, -0.159094274044, 0.109686665237, -0.020049156621, -0.096751727164, 0.010342038237, -0.116668380797, 0.110459633172, -0.207567408681, -0.027958353981, 0.069532699883, 0.007109462749, -0.084028117359, 0.006688510068, 0.261756420135, 0.050342403352, 0.143738374114, -0.191889330745, -0.010909257457, 0.058080438524, -0.032774608582, -0.037730503827, -0.139856725931, 0.107033073902, 0.059259060770, -0.020188814029, 0.126631706953, -0.160532921553, -0.030972780660, -0.098476946354, 0.071020357311, -0.133201122284, 0.114085085690, 0.011139268056, -0.093502677977, -0.106057845056, 0.651015102863, 0.152269095182, 0.014459406957, -0.133679136634, -0.207000821829, -0.123855568469, -0.040367580950, 0.039125084877, -0.032068088651, -0.101036727428, 0.392219781876, 0.029263753444, 0.216754764318, 0.168223276734, 0.067296028137, 0.136789098382, -0.159448340535, -0.155076101422, -0.349995404482, 0.117680773139, -0.012444168329, 0.152916505933, -0.188387319446, 0.012567228638, -0.116416044533, 0.039199702442, -0.415190845728, -0.048758793622, -0.133742839098, 0.097255244851, 0.098233990371, 0.026386056095, -0.116422213614, 0.153642237186, -0.138147979975, 0.096303999424, -0.111129701138, 0.031434368342, -0.256949663162, -0.018586784601, -0.529899656773, 0.379790067673, -0.114361420274, -0.229485154152, -0.219732150435, -0.356948643923, -0.067298017442, -0.103844992816, -0.196800991893, 0.049773417413, -0.052690804005, 0.157587051392, -0.052713841200, 0.335050523281, -0.259878635406, 0.170182615519, 0.079393520951, -0.173566177487, -0.130513519049, -0.019791429862, -0.408752173185, 0.134193852544, 0.085991837084, -0.961910963058, 0.023190494627, -0.128380894661, 0.114418305457, 0.723144710064, -0.133856177330, 0.139133110642, -0.151370972395, -0.114087611437, 0.072031840682, -0.028771091253, -0.006876542233, 0.052684791386, 0.020670171827, -0.120163023472, 0.226906254888, 0.104857631028, 0.204048261046, -0.193404912949, -0.132859691978, -0.134195983410, -0.196552410722, 0.363360762596, -0.260070294142, 0.322399824858, -0.153244391084, 0.085403159261, 0.082855924964, -0.173391416669, -0.071429044008, -0.019077001140, 0.025158654898, 0.001013453002, -0.091493390501, 0.081163391471, 0.058182835579, 0.007317445707, 0.005269907881, -0.094556353986, -0.185095250607, -0.108769372106, -0.067560002208, 0.024692073464, 0.025729389861, -0.115852490067, 0.544552505016, -0.102996811271, -0.160331979394, -0.098280943930, -0.006905426271, -0.124141201377, 0.066116482019, 0.150583475828, 0.095325700939, 0.032089810818, -0.133154004812, -0.057770766318, -0.123401738703, 0.121904388070, 0.054926257581, -0.155643910170, -0.019050899893, 0.133228689432, 0.208013594151, -0.028087263927, 0.518189549446, -0.155703455210, -0.011327514425, -0.112976111472, -0.077855810523, -0.123813852668, -0.028642460704, -0.059214144945, -0.039157532156, 0.106439672410, -0.004871942103, 0.050525587052, -0.087812729180, 0.051776077598, -0.222327753901, 0.115137152374, 0.051719807088, 0.046220555902, 0.086348764598, -0.137237757444, 0.114164300263, -0.042293537408, 0.275158226490, -0.054266627878, 0.173304617405, -0.265727192163, 0.530954658985, -0.161469697952, 0.101586744189, -0.106602221727, -0.000958246936, -0.145862311125, 0.050450250506, 0.042524438351, -0.055158931762, -0.062391340733, 0.130445748568, 0.240204945207, -0.181461468339, -0.016669368371, -0.519689857960, -0.337457269430, 0.070700302720, -0.158090293407, -0.199260726571, -0.341405153275, 0.047209303826, 0.113099105656, -0.051043193787, -0.084070950747, -0.073488496244, 0.592861175537, 0.032477650791, -0.299792766571, -0.311445713043, -0.531394600868, -0.165844991803, 0.117699176073, -0.118734166026, -0.040766496211, -0.436908662319, -0.301232933998, -0.227674335241, -0.309956014156, 0.020827610046, 0.279708951712, 0.296180039644, 0.262983977795, -0.343854993582, -0.543749332428, -0.108970209956, -0.178446575999, 0.040295258164, 0.070449218154, 0.326242476702, -0.134695976973, 0.370977818966, 0.027866579592, 0.226759925485, -0.092315480113, -0.115424685180, -0.091836676002, -0.478860735893, -0.120380297303, 0.035815324634, 0.275569051504, 0.319813966751, -0.137542933226, -0.108280502260, 0.097656883299, -0.123218685389, -0.283461451530, -0.576374888420, 0.009301223792, -0.042302865535, 0.107428781688, -0.077912524343, -0.010958385654, 0.008451180533, -0.088100381196, -0.104179114103, -0.132661074400, 0.201474651694, 0.102953568101, 0.076114743948, -0.126661971211, 0.212109357119, -0.149044707417, 0.716319262981, -0.030899770558, -0.136193245649, -0.172569543123, -0.476343423128, 0.015328560024, 0.079561144114, -0.154599502683, 0.124209620059, 0.093509502709, -0.156330943108, 0.449805289507, -0.115145027637, -0.058053959161, 0.012087072246, -0.162857070565, 0.008561727591, -0.168737694621, 0.082836143672, -0.021408399567, -0.019382482395, 0.072541743517, 0.018510064110, -0.197118148208, 0.112763457000, -0.129102364182, 0.032625302672, -0.100415475667, -0.048037979752, 0.009092647582, 0.854866921902, -0.099532634020, 0.200455948710, 0.082568690181, 0.110889829695, 0.133767083287, 0.027276704088, 0.056055739522, -0.136449009180, -0.030072590336, -0.128649100661, -0.162142008543, -0.074387915432, -0.021052384749, -0.632154405117, -0.076771795750, -0.142419248819, 0.111736312509, -0.161928132176, -0.402841806412, -0.041662227362, -0.198228105903, 0.028960887343, 0.094458572567, -0.087207749486, 0.087175473571, -0.041704349220, -0.903937399387, 0.816314935684, -0.034160945565, -0.382590532303, -0.094762109220, -0.015961134806, 0.505280077457, 0.293117582798, 0.808881521225, -0.103154927492, -0.047533810139, -0.128841310740, 0.241098910570, -0.023261114955, 0.089650191367, 0.130684956908, -0.089296661317, -0.397315591574, -0.124793514609, -0.071223504841, 0.077619746327, 0.000363834668, -0.025249496102, -0.398328363895, 0.123867139220, -0.001516938326, 0.481167554855, -0.015112253837, 0.298433005810, 0.076686449349, -0.164727434516, 0.003991209902, -0.277628630400, 0.098640054464, 0.123906098306, 0.041315898299, 0.049678541720, 0.553934752941, 0.131711855531, 0.579135060310, -0.204254105687, 0.592020034790, -0.082636803389, 0.066419012845, -0.060115046799, -0.349399715662, -0.085356764495, -0.159984141588, 0.212473526597, -0.248990878463, 0.470426708460, -0.032231777906, -0.070660792291, -0.035957094282, 0.025523331016, 0.358726054430, -0.176359593868, -0.030727939680, 0.118388548493, -0.075546838343, -0.016669077799, -0.069224335253, 0.046513050795, 0.201289758086, -0.145374625921, 0.009611208923, -0.206821858883, 0.100214928389, 0.124634601176, 0.357818394899, -0.052512448281, -0.437020868063, 0.092641040683, 0.007953157648, 0.048122003675, -0.204098686576, -0.045788284391, -0.161352470517, 0.000562001194, 0.161646008492, 0.070795737207, 0.089226178825, 0.553897798061, 0.112115584314, -0.327195048332, -0.106614992023, 0.064689055085, -0.063038982451, -0.105560392141, -0.138764157891, -0.136414289474, -0.004835427739, 0.156584203243, -0.136455163360, -0.092418439686, -0.151233479381, -0.091334991157, 0.008903354406, 0.086905315518, 0.374114692211, 0.023920210078, -0.482623368502, 0.056515403092, -0.426923602819, -0.098440535367, -0.160225480795, -0.089693643153, -0.016883112490, -0.070092447102, 0.064993128181, -0.075152330101, -0.012932955287, -0.164173915982, 0.417846173048, -0.084767177701, -0.002825911390, 0.052851114422, -0.053360108286, -0.095130823553, 0.020785421133, -0.607077896595, 0.127119183540, 0.018198587000, 0.234373405576, 0.052675891668, 0.069645270705, 0.014776040800, -0.076647847891, 0.586705386639, -0.426923096180, 0.114272199571, -0.088360369205, 0.593897938728, -0.119688883424, -0.428273350000, 0.009248496033, -0.738214492798, 0.086846925318, -0.014291762374, 0.051191028208, 0.221857503057, 0.267836958170, -0.047122396529, -0.204923212528, 0.278082907200, -0.203782364726, 0.577350676060, 0.344138503075, -0.026270410046, -0.030809907243, 0.039623431861, -0.582652747631, 0.064661286771, 0.084340155125, -0.314419120550, 0.033792044967, -0.191477552056, -0.675363302231, -0.238087654114, 0.078559428453, -0.068160228431, -0.107811667025, -0.141248911619, 0.142031565309, -0.032501216978, 0.218191340566, 0.087917990983, -0.347654134035, -0.069920949638, -0.252214282751, -0.164515301585, 0.031537219882, -0.224808782339, 0.314842998981, -0.128591433167, -0.001399018220, -0.234719470143, 0.103196360171, 0.391526013613, -0.116273425519, 0.021716019139, -0.080803304911, -0.070254929364, 0.033824600279, -0.114448964596, -0.181535407901, 0.084191069007, 0.107031874359, -0.165767639875, 0.134203702211, 0.022789802402, 0.316793173552, -0.060481496155, 0.095806442201, 0.016283188015, 0.112604737282, 0.099142543972, -0.763395547867, 0.077067896724, 0.536196172237, 0.048175439239, -0.007808404509, 0.006278091576, -0.011741844006, -0.034132245928, 0.107089273632, 0.133983865380, 0.136574283242, -0.108972236514, -0.038408763707, 0.023018984124, -0.095652416348, -0.104548096657, 0.079651504755, 0.118975020945, -0.058073211461, 0.074954792857, 0.161493569613, -0.019875312224, 0.577322542667, 0.078210532665, 0.077653877437, -0.079644091427, -0.117912285030, 0.147179156542, -0.071119382977, -0.060950089246, 0.914784669876, 0.138921603560, -0.347422838211, -0.015699269250, 0.545707941055, -0.050491496921, 0.153054162860, -0.151649624109, -0.116075217724, 0.168738484383, -0.010850309394, 0.089835599065, -0.116183616221, -0.074674382806, 0.228737890720, 0.035294935107, 0.256585896015, -0.277351409197, -0.086328633130, -0.029251055792, 0.153719112277, 0.329612702131, 0.136356472969, -0.105218186975, -0.095486827195, 0.090367898345, 0.023421898484, 0.070813782513, 0.007152497768, 0.278664380312, 0.558934569359, 0.099531598389, -0.138703882694, -0.075131379068, 0.061506241560, 0.111327007413, 0.275519341230, -0.836130321026, -0.009803724475, 0.004613846075, -0.155499741435, -0.179074078798, -0.035530220717, 0.142979860306, 0.096150733531, 0.631064236164, -0.409596353769, 0.121275268495, 0.038415350020, -0.178494781256, 0.070052549243, -0.136868804693, 0.422257483006, 0.374370127916, 0.105739764869, 0.144766658545, -0.185398593545, 0.090478330851, -0.299975812435, -0.396286994219, -0.177714452147, -0.180207133293, -0.131092995405, -0.022205313668, -0.039033122361, -0.119993790984, -0.196750402451, 0.098625190556, 0.196798875928, -0.068081364036, 0.283684194088, 0.072679899633, 0.017395760864, -0.323987841606, -0.180490255356, -0.027810391039, -0.182597219944, 0.010188541375, 0.121371001005, 0.108108103275, -0.098451323807, -0.035618398339, -0.094832435250, -0.021875053644, 0.094469100237, -0.018788568676, -0.037759397179, -0.069002874196, 0.068309105933, 0.010949224234, -0.072705082595, 0.063464716077, -0.093661472201, 0.047453682870, -0.008757620119, -0.014601780102, -0.151212126017, 0.038881391287, -0.345519542694, 0.075268380344, 0.131173610687, 0.046461451799, 0.008414885029, 0.041085645556, 0.291773289442, -0.108084537089, -0.129910901189, -0.120724342763, 0.074035197496, -0.143060714006, 0.084476657212, -0.650753259659, 0.022948851809, -0.381449848413, -0.069008760154, -0.115693777800, -0.054642375559, 0.037892911583, 0.060849487782, -0.051649555564, 0.082768812776, -0.000999557204, 0.069801814854, -0.094835564494, -0.039602916688, 0.072088755667, -0.084161400795, 0.001272342983, -0.338197380304, 0.112678878009, 0.552014291286, -0.147631794214, -0.111331932247, 0.156929299235, -0.047514032573, -0.157576903701, -0.107638113201, -0.032368492335, -0.176673352718, 0.110950857401, -0.008613467216, -0.118716500700, -0.228819131851, 0.005020224489, -0.261287540197, 0.226658299565, 0.455444306135, -0.090835325420, 0.103622570634, 0.091237880290, -0.106167763472, -0.088495172560, 0.071809835732, 0.086676985025, 0.113797910511, 0.136441439390, -0.010459888726, 0.278565227985, 0.068202562630, -0.148856505752, -0.266899853945, -0.010337432846, 0.003343814518, -0.282441824675, 0.267123162746, -0.135373011231, -0.226283118129, 0.033434510231, 0.122978866100, -0.162610188127, 0.213317215443, -0.170065164566, -0.034449782223, 0.393315464258, 0.404717028141, 0.416749030352, 0.471703916788, 0.061251360923, 0.142391502857, 0.127813726664, 0.054721388966, 0.240869954228, -0.366171538830, 0.240416809916, 0.134513124824, -0.295934975147, -0.151658505201, -0.042268626392, -0.031462214887, -0.240559756756, -0.121927075088, -0.013044471852, 0.058758422732, -0.098786123097, -0.142773702741, -0.058757632971, -0.124485231936, -0.256792396307, 0.137449547648, -0.221232414246, -0.060032140464, -0.230540707707, 0.430927574635, -0.157568350434, -0.393684595823, 0.145085647702, 0.211749047041, 1.088388442993, -0.071961864829, -0.136726617813, 0.005735444371, -0.038779731840, -0.455177247524, 0.094696700573, -0.140214070678, -0.186156064272, 0.028241820633, -0.175239533186, -0.046134162694, -0.055898826569, -0.199296444654, 0.000612636621, -0.007379907183, -0.145127952099, -0.121868908405, -0.151956066489, -0.210910990834, -0.050993043929, 0.162781879306, 0.006585218012, -0.031836047769, -0.080831661820, -0.119904331863, 0.032891027629, 0.116662696004, 0.145959645510, 0.001922531636, 0.123249895871, -0.173118308187, 0.061979383230, 0.128266483545, -0.313582450151, -0.126632928848, -0.144411921501, -0.186853185296, -0.082242541015, 0.122519686818, -0.227316081524, -0.225287988782, 0.113330751657, -0.154579132795, 0.085811331868, 0.088793344796, 0.119043327868, -0.078816719353, -0.160482391715, 0.456965059042, -0.094472870231, -0.560745716095, 0.137871235609, 0.065296359360, -0.087446145713, 0.137739434838, 0.103986799717, -0.100862786174, -0.166092783213, 0.200906977057, -0.184169411659, -0.073917120695, -0.132587850094, -0.091347053647, 0.005664904136, 0.260620981455, 0.226760685444, -0.329315125942, -0.108075112104, -0.112048357725, 0.548891246319, -0.059759121388, -0.009789012372, -0.045287322253, 0.036427639425, -0.151799872518, 0.019798746333, 0.136050969362, 0.004793425091, -1.003876328468, -0.053644638509, -0.051174551249, 0.620607256889, 0.006211456377, 0.033829167485, 0.205641165376, -0.123855359852, 0.127338752151, 0.129117429256, 0.060465253890, 0.251233816147, 0.032051600516, -0.341159075499, 0.183087438345, 0.193122237921, -0.687117278576, -0.562437176704, -0.090388052166, 0.015132506378, 0.003970500547, 0.073622480035, 0.712708473206, 0.568821728230, -0.723741948605, -0.032345701009, 0.147769510746, -0.175832703710, -0.402633458376, 0.219103157520, -0.203051030636, -0.529745578766, 0.100055590272, -0.112447507679, -0.058735132217, 0.052463684231, -0.188568145037, -0.157935500145, -0.261918962002, -0.043648026884, -0.151638895273, -0.163217753172, 0.000454865542, 0.123088948429, -0.167782098055, -0.074556410313, 0.101978808641, -0.096825212240, -0.079774342477, 0.339503943920, -0.048603083938, -0.088047601283, -0.154486835003, -0.283440768719, 0.464144825935, -0.121543176472, 0.125775367022, -0.084856182337, 0.067550718784, 0.022705247626, 0.004053519573, -0.087664648890, 0.180415451527, 0.063433833420, 0.149471938610, -0.124181047082, 0.061283595860, -0.042269699275, -0.435154080391, -0.122237123549, 0.428950279951, -0.003790311283, 0.097952418029, -0.039316993207, -0.422786384821, 0.061517924070, -0.185904815793, 0.045118033886, -0.124246194959, -0.150036633015, -0.002758060815, -0.190330520272, 0.047693159431, -0.194680556655, -0.046389594674, -0.068138018250, 0.062168780714, 0.034324802458, -0.070229761302, 0.032054267824, -0.006542809308, -0.073258981109, -0.108612060547, -0.116539031267, -0.144637212157, -0.141059502959, -0.118069335818, 0.072018355131, -0.501720905304, -0.160321965814, -0.002588378731, -0.176055282354, -0.579339563847, 0.132662728429, -0.132038339972, -0.140454247594, 0.132587596774, 0.019830927253, -0.101816870272, 0.139908879995, -0.191670894623, 0.093366712332, 0.152705311775, -0.011384653859, -0.153531149030, -0.061826460063, 0.615405142307, 0.107234582305, -0.127501621842, -0.032293122262, -0.171012267470, 0.016196867451, 0.028156533837, -0.025909546763, -0.036407899112, -0.120408296585, 0.044595535845, 0.562425076962, -0.254040777683, -0.167079716921, -0.145180478692, -0.086712412536, 0.030092151836, -0.300277113914, 0.031734045595, -0.242650046945, 0.081323549151, 0.041931267828, -0.143251359463, 0.188654154539, -0.064737789333, -0.048223014921, -0.207920655608, 0.108509555459, -0.189777657390, 0.339043378830, 0.268567889929, -0.011278160848, -0.054917950183, 0.103161089122, 0.019120331854, -0.151650696993, 0.862259685993, -0.180469319224, -0.021178297698, 0.056981608272, 0.406817555428, -0.563783228397, -0.155760079622, -0.035707484931, 0.140137702227, 0.091623470187, 0.146289452910, 0.132300406694, 0.401367723942, 0.071278817952, -0.464080572128, -0.151794716716, 0.013526744209, -0.128618881106, -0.200403124094, -0.294159889221, 0.288605988026, 0.130466267467, 0.145340532064, -0.196505770087, -0.017685346305, 0.263624906540, 0.173101916909, -0.058184932917, 0.030718168244, 0.041147377342, 0.659328997135, -0.069853037596, 0.025104526430, 0.082926310599, -0.034754361957, -0.157980710268, -0.120711833239, -0.063238441944, 0.409263551235, -0.005446648225, 0.191051319242, -0.037835378200, 0.135961934924, 0.085701689124, -0.193144470453, 0.041940331459, 0.608152747154, -0.186313197017, 0.086344517767, -0.049766302109, -0.340526252985, -0.018683869392, -0.010418063030, -0.147242039442, -0.147824451327, 0.022326482460, -0.197138607502, -1.022962570190, -0.184943661094, -0.114339277148, -0.000573475438, -0.092066198587, 0.010849976912, 0.047251552343, 0.062346611172, 0.016516555101, 0.384190648794, 0.091246247292, -0.055021032691, 0.073096305132, 0.125161811709, 0.064085885882, -0.144399896264, -0.132169067860, -0.008816566318, -0.004889493808, -0.411033987999, -0.084264896810, -0.077038757503, 0.079784035683, -0.254205375910, 0.033098187298, 0.006901196670, -0.196850702167, -0.020808270201, -0.138741031289, 0.100091516972, 0.015577775426, -0.292094051838, 0.053269218653, -0.145686641335, -0.014548407868, 0.115012608469, 0.074401855469, -0.026803538203, -0.063212029636, 0.003929965664, -0.102474801242, 0.042012542486, 0.008367847651, 0.020565137267, 0.054429911077, -0.079416096210, 0.490106642246, -0.277885317802, -0.029003964737, 0.143045693636, -0.267204225063, 0.018314389512, -0.270142406225, 0.372303903103, -0.311908513308, -0.101880945265, 0.048226781189, -0.139351516962, 0.180286735296, 0.087905146182, 0.147284880280, 0.115636229515, -0.148275747895, -0.514069914818, -0.291211247444, 0.153323844075, -0.137052997947, -0.082684077322, -0.139237895608, 0.486984372139, -0.148731201887, -0.907855808735, -0.188681676984, -0.079385839403, -0.076843261719, -0.396715849638, -0.364932417870, 0.008108111098, 0.305878996849, 0.041209802032, 0.045909430832, -0.059038594365, 0.093266956508, 0.339686334133, -0.124350085855, 0.029651338235, 0.085090167820, -0.330226629972, -0.066709466279, -0.082503587008, -0.047344781458, -0.345297574997, 0.041818115860, -0.507688105106, 0.188578352332, 0.187127158046, 0.001986082178, -0.071589320898, 0.110922239721, -0.141967505217, -0.464271545410, -0.209549114108, 0.047293789685, -0.051796924323, -0.123867534101, 0.013554800302, 0.041155494750, -0.085356250405, -0.188202157617, 0.209863051772, -0.138036414981, 0.100237205625, -0.219721466303, 0.031388148665, -0.052361942828, 0.027221344411, -0.168688356876, 0.364520728588, 0.053032036871, 0.143978878856, 0.063246056437, -0.071254767478, -0.209979802370, 0.104797869921, 0.008529435843, 0.143077298999, 0.118469819427, -0.077497221529, -0.488800287247, -0.149884521961, -0.165604144335, -0.143313452601, 0.001686815638, -0.209478855133, -0.058675523847, 0.014216112904, -0.140115484595, -0.175202086568, -0.091115854681, 0.002794372849, -0.024076497182, -0.032932821661, -0.083091847599, 0.099870666862, -0.098971158266, -0.574104309082, -0.127322763205, -0.621701419353, -0.029888264835, 0.234302386642, -0.102334417403, -0.155721083283, -0.029201645404, -0.157939150929, -0.049559190869, -0.009091248736, -0.046220667660, -0.154588893056, -0.074658170342, 0.221352756023, -0.144324526191, -0.407412678003, 0.154707118869, 0.172310784459, -0.032634474337, -0.066765211523, -0.151144236326, -0.079805217683, -0.075731948018, 0.208242312074, 0.090947292745, -0.172930046916, -0.073475554585, -0.092080861330, -1.386682629585, -0.321999192238, 0.014683450572, 1.035480022430, 0.181858196855, -0.167452633381, 0.404741197824, 0.184384956956, -0.748283326626, 0.016668237746, -0.112196378410, -0.234441742301, 0.105121076107, -0.173766598105, -0.142619028687, -0.200028315187, 0.469946265221, 0.171475857496, 0.054770387709, -0.456358969212, 0.102255173028, 0.046424176544, -0.077396959066, 0.286424160004, 0.490600913763, 0.229014679790, -1.122552394867, -0.123784355819, -0.284294575453, -0.451994836330, -0.152243688703, -0.061917345971, 0.253630787134, 0.048882853240, 0.106948785484, 0.045840784907, -0.186525121331, -0.076572708786, -0.017526531592, -0.028239401057, 0.107119813561, 0.644596815109, -0.203212872148, -0.128788799047, -0.093707136810, 0.141658887267, 0.034034796059, 0.686781346798, -0.027434311807, 0.105547785759, -0.283040314913, -0.070803776383, -0.170287594199, -0.066434510052, -0.418359309435, -0.924801409245, 0.101110339165, -0.141506686807, -0.060970790684, -0.127412065864, -0.020355874673, 0.070764951408, -0.143623143435, 0.231670305133, -0.152542084455, 0.077991396189, 0.140500456095, 0.048292662948, 0.069664783776, -0.358574867249, -0.026277262717, -0.264118790627, 0.032175306231, -0.064135074615, -0.034528799355, -0.266054004431, -0.137739896774, 0.130488604307, 0.072798229754, -0.002481539734, 0.020439945161, 0.132334500551, -0.111100427806, 0.123837888241, -0.092815719545, -0.140055447817, 0.098712265491, -0.180571272969, 0.085507221520, 0.109438136220, -0.036545671523, 0.054268546402, 0.085713289678, 0.052116155624, 0.018881043419, 0.142673090100, -0.137559413910, -0.039449200034, -0.177543878555, 0.523441910744, 0.042695023119, -0.118207916617, -0.158111155033, -0.418506830931, 0.113955989480, -0.175812423229, -0.123636215925, 0.008169895038, -0.172402113676, 0.295185416937, -0.075213506818, -0.066889740527, -0.077303163707, 0.001860710792, -0.016683558002, -0.462327629328, -0.150383219123, 0.487118154764, -0.080021657050, -0.027765661478, 0.090015254915, 0.005992487539, -0.202838942409, -0.136194959283, 0.094376251101, -0.022679952905, -0.061210341752, 0.069902755320, -0.601634025574, -0.259083747864, 0.008089580573, -0.116777032614, 0.051762744784, -0.157526358962, 0.104946546257, 0.146179080009, 0.284293085337, 0.069018341601, -0.107603758574, -0.022904222831, 0.768014431000, -0.335987299681, 0.176728352904, 0.085469983518, -0.369154393673, -0.632196009159, 0.532877385616, 0.183577403426, 0.139868006110, -0.017200503498, 0.099002353847, -1.049605727196, -0.476301252842, -0.101107172668, -0.035134579986, 0.040300358087, 0.015450567007, 0.893365263939, -0.267398566008, 0.137650743127, -0.086699061096, -0.008102363907, -0.232080817223, -0.134008616209, -0.113336607814, -0.186675399542, -0.152855202556, -0.126593053341, -0.209752559662, -0.148633062840, 0.107940368354, 0.085623957217, -0.055899064988, 0.393683731556, 0.015402109362, -0.110689029098, -0.510499477386, -0.122897125781, -0.674976289272, -0.172448888421, -0.111164912581, -0.157765343785, -0.664111256599, -0.710951805115, -0.093511737883, 0.151037439704, -0.167499825358, -0.116220869124, -0.099609822035, -0.021074328572, -0.026077309623, 0.112609587610, -0.135327741504, -0.009894344956, -0.195872083306, 0.130194470286, 0.054797634482, 0.169577211142, 0.035498790443, 0.315447092056, -0.031927824020, 0.066359750926, -0.003493745113, -0.060587748885, 0.064202174544, -0.104538977146, -0.224538952112, -0.161072060466, 0.109675675631, 0.129448294640, 0.048352140933, -0.022029075772, -0.019177006558, -0.041717119515, 0.084311284125, 0.096371695399, -0.011090533808, -0.004391188733, -0.209281995893, 0.130988359451, -0.155169174075, 0.085454262793, 0.129882216454, -0.029071023688, -0.045444160700, -0.142918735743, 0.001185936620, -0.879731833935, 0.014969096519, 0.052533768117, -0.115553677082, -0.519525527954, -0.091010317206, -0.184425547719, 0.068958796561, -0.002551458078, 0.024174116552, -0.157302558422, 0.081019543111, -0.169856011868, 0.032431621104, 0.213715389371, 0.053045023233, 0.336052596569, 0.212808564305, -0.124375015497, -0.107828706503, -0.151982173324, -0.394194573164, -0.023494822904, -0.073602676392, 0.024044519290, 0.017318297178, -0.135921999812, 0.030002219602, -0.107900179923, -0.677891969681, -0.085559621453, 0.096515983343, -0.154190033674, 0.252548813820, -0.005946874153, 0.738499820232, -0.161113634706, -0.185166746378, 0.113830193877, 0.002056276659, -0.135371342301, 0.430700480938, -0.663357436657, -0.237558975816, -0.042766992003, 0.117674313486, -0.111266173422, 0.284679442644, -0.030414167792, 0.142115727067, 0.064736336470, -0.071244262159, -0.227497890592, 0.136628404260, -0.009158780798, 0.305343091488, -0.071325905621, -0.191495552659, 0.360278517008, 0.021212454885, 0.171085804701, 0.258887618780, 0.110026098788, -0.123301707208, -0.158536389470, 0.094904132187, 0.053901795298, -0.171146318316, -0.716315209866, -0.192873284221, 0.065657071769, -0.052701760083, 0.144753426313, -0.361345946789, -0.321511358023, -0.037066426128, 0.098452217877, -0.129376113415, 0.221681237221, 0.054803982377, 0.029000101611, 0.084630146623, -0.194337427616, -0.148488074541, 0.312077164650, -0.171454444528, -0.034965552390, -0.003359945025, -0.017691105604, 0.080145925283, 0.044972985983, -0.112651921809, 0.054437987506, 0.048723310232, 0.083918899298, -0.066339567304, 0.099475555122, 0.015101083554, -0.509158670902, 0.132706061006, -0.015251571313, 0.082326665521, -0.093265525997, 0.086217284203, 0.046248909086, -0.056773841381, -0.026554614305, 0.173120111227, 0.097701922059, -0.054270863533, 0.053824584931, -0.025880374014, -0.203084394336, -0.263610392809, 0.107139922678, -0.019797727466, -0.198499113321, -0.155497804284, -0.159215629101, 0.010983859189, -0.162877544761, -0.148559808731, -0.041442498565, 0.053951490670, -0.064903676510, -0.156173035502, -0.086751148105, -0.160476893187, -0.676623284817, -0.095932699740, 0.247398018837, -0.124103695154, -0.424548327923, -0.000552976271, -0.103833295405, -0.037101481110, -0.163765266538, 0.047781880945, -0.133295387030, 0.157084450126, -0.138967871666, -0.054279405624, 0.523742020130, 0.100712209940, -0.269555568695, 0.230893850327, 0.171259254217, 0.023560298607, 0.054762780666, -0.207002311945, 0.119985006750, 0.083075694740, 0.028053406626, 0.123480372131, -0.035273861140, -0.080896198750, -0.026744978502, -0.618647277355, 0.473750591278, -0.090370684862, 0.185090884566, 0.320075541735, -0.145512878895, -0.029149891809, -0.058080818504, 0.452097594738, -0.060444373637, 0.016107009724, -0.104599401355, 0.815105259418, -0.764168262482, -0.297320991755, 0.098116554320, 0.564549386501, -0.722693443298, 0.242361202836, -0.005734079983, -0.118403583765, 0.096409223974, 0.160748630762, 0.033285900950, 0.125354781747, 0.207755565643, -0.918548226357, -0.087209589779, -0.234784960747, -0.402551025152, -0.398423194885, 0.060609493405, 0.798490881920, 0.109842307866, 0.163836851716, -0.120238974690, 0.116514921188, -0.144380033016, 0.058558385819, -0.407588511705, -0.252605885267, -0.172947645187, 0.098414160311, -0.005292506423, -0.186469227076, 0.381208568811, 0.000748670253, -0.518703997135, -0.216429978609, 0.259587734938, -0.084776453674, -0.202643901110, 0.003318854375, 0.075876541436, -0.025576185435, 0.294302225113, -0.062732294202, 0.023149486631, 0.045052736998, -0.035452231765, 0.003755819751, 0.015870843083, -0.114928938448, 0.062701538205, -0.107800468802, -0.019433293492, -0.042364761233, 0.054971810430, -0.162328422070, -0.255011826754, -0.095105141401, 0.012570034713, -0.061651583761, 0.057775110006, 0.019573429599, 0.094354175031, 0.061760995537, -0.102916181087, 0.127891436219, 0.156409651041, 0.154859662056, -0.124511815608, 0.579746663570, -0.276026517153, -0.091411791742, -0.123308524489, 0.107930064201, -0.172736063600, -0.010506259277, -0.065038137138, -0.119650878012, 0.118465133011, -0.129854381084, -0.086670346558, -0.078718230128, -0.076734907925, 0.100941255689, 0.098450794816, -0.120637781918, -0.337135165930, -0.120102763176, 0.119465380907, -0.116771452129, 0.483502775431, 0.013804842718, -0.763465583324, -0.127805188298, -0.047414619476, -0.171814411879, -0.102028541267, -0.006132644601, 0.007661927957, -0.061099391431, 0.267673432827, 0.077553659678, 0.400558978319, 0.182503953576, -0.222320869565, -0.019327567890, -0.113587841392, 0.134730681777, 0.078871458769, 0.164742365479, -0.391894966364, 0.027954695746, 0.117417372763, 0.132797092199, -0.041128695011, 0.392407923937, 0.162638142705, -0.013570982963, 0.162547484040, -0.657827317715, -0.030414639041, -0.252795010805, -0.078913912177, 0.485367596149, -0.193151354790, -0.140589043498, 0.091776043177, 0.232710629702, -0.257653415203, -0.449461251497, 0.185317620635, -0.163808852434, -0.148992866278, 0.221265122294, -0.115908533335, 0.113493613899, -0.086323931813, 0.118222206831, 0.759073793888, -0.173816636205, -0.390606641769, 0.535156011581, -0.077545925975, -0.390905618668, -0.062047075480, 0.112930014729, 0.379150956869, 0.934199094772, -0.041028130800, -0.073413282633, -0.085248216987, 0.001381446025, -0.463853657246, 0.097332328558, -0.072695150971, 0.232764586806, -0.213142469525, 0.045038469136, -0.021714009345, -0.052825521678, -0.055547803640, 0.154489099979, -0.194202229381, -0.459414482117, 0.305548459291, -0.249996036291, -0.026077611372, 0.056877382100, 0.051380679011, -0.300489783287, 0.155203506351, 0.059711772949, -0.063164561987, 0.090436354280, 0.088852368295, -0.288958966732, 0.137168988585, 0.092592291534, 0.300612717867, 0.116894446313, 0.035798158497, 0.162141978741, 0.121503159404, 0.054381433874, -0.069178752601, 0.125821158290, -0.605603039265, -0.084815993905, -0.118015907705, -0.009628227912, 0.371501207352, 0.154558226466, -0.013213232160, -0.085068486631, -0.127649560571, 0.020572282374, 0.081268846989, 0.199580773711, -0.108297698200, -0.237926378846, 0.097329407930, 0.132764577866, 0.006679832004, -0.027674097568, -0.138046801090, -0.004160132259, -0.378440260887, 0.087909460068, 0.089772485197, 0.138918474317, 0.126275077462, 0.144715502858, -0.034150272608, 0.009013795294, -0.184736981988, -0.154598131776, 0.607419908047, 0.122718580067, -0.190743118525, -0.040866389871, -0.243096545339, 0.188580185175, -0.002539385110, -0.100350163877, -0.829290866852, 0.021377919242, 0.031583506614, -0.042310290039, 0.678437829018, 0.054339520633, -0.330459952354, 0.135281339288, -0.082104817033, -0.078314006329, 0.095127955079, 0.226078152657, 0.108694300056, 0.087275892496, -0.182117983699, 0.068601481616, -0.142071127892, -0.163169130683, -0.053625650704, -0.861440777779, 0.459733873606, -0.022395299748, -0.096569530666, 0.060743320733, -0.006942825858, 0.139892488718, -0.032181508839, -0.255070447922, -0.016293892637, -0.029909525067, 0.087897658348, 0.076782710850, -0.404999434948, -0.067134052515, 0.129724204540, -0.349631249905, 0.454912871122, -0.108749814332, -0.021689826623, -0.129002049565, 0.038147382438, -0.115060344338, 0.766161620617, 0.173590183258, -0.192835390568, 0.309332966805, -0.015814289451, -0.317289352417, 0.489901006222, -0.433067649603, 0.191076278687, 0.589556634426, -0.000733121939, -0.028340652585, -0.066051512957, -0.123454093933, 0.023329518735, -0.024629877880, 0.074776217341, 0.063020378351, -0.283286750317, 0.137241646647, -0.103484012187, -0.143738791347, -0.003568504006, 0.016550930217, -0.001215070719, -0.554693818092, 0.802975773811, 0.550684154034, -0.280271202326, 0.120907559991, 0.026079576463, 0.316055327654, 0.157104119658, 0.074869990349, -0.075907908380, -0.134365022182, -0.177512809634, -0.172504618764, -0.167594164610, 0.126377433538, 0.040889430791, -0.060721319169, -0.104969292879, -0.169368281960, -0.048008561134, 0.021131293848, 0.415020018816, -0.039488848299, 0.525471687317, 0.067413553596, -0.095127865672, -0.009196453728, 0.313701689243, 0.165682047606, -0.093928851187, -0.262170076370, -0.005575541873, -0.078039534390, 0.050773907453, -0.547678530216, 0.004897919483, -0.243456721306, -0.132334694266, -0.080301336944, -0.134889930487, -0.113257274032, -0.159998282790, 0.157319307327, 0.045030198991, -0.071250088513, -0.080966711044, 0.119635723531, -0.200845211744, -0.035820376128, -0.134016782045, -0.028549198061, -0.237114578485, 0.004878685344, -0.160774409771, -0.220982030034, 0.368212580681, -0.146776333451, -0.136914089322, 0.139196366072, 0.068448036909, 0.096028976142, -0.225090146065, 0.185294330120, -0.099992848933, -0.021094908938, 0.976221859455, 0.087435103953, 0.098399363458, -0.054821386933, -0.028548214585, 0.039041224867, -0.089806832373, 0.712652385235, 0.110270060599, -0.010077971965, -0.536965727806, -0.005319133401, -0.003501164028, -0.072428479791, -0.014865584671, -0.994627237320, 0.487941652536, 0.078248016536, 0.653296530247, -1.113148570061, -0.155271410942, 0.166732147336, -0.143857315183, -0.119542673230, -0.036346450448, 0.017965791747, -0.191044628620, -0.118159055710, 0.108773387969, 0.007955445908, 0.038000620902, -0.465683966875, 0.508589386940, -0.064076818526, -0.628165841103, -0.158837527037, 0.134069949389, -0.047555435449, -0.218505576253, 0.530022263527, -0.211681053042, -0.271718144417, 0.035977646708, -0.133098989725, -0.472991049290, 0.095169305801, 0.465429663658, 0.666877329350, 0.122336879373, 0.063660189509, 0.104863896966, -0.061248324811, 0.227510750294, 0.083600282669, 0.551621675491, 0.236260831356, -0.592931330204, 0.152662202716, -0.077765136957, 0.014455192722, 0.197321251035, 0.006940770894, -0.369233995676, -0.193689256907, 0.557287693024, -0.313693493605, 0.126107409596, -0.084203839302, 0.227954566479, -0.024753458798, 0.476093709469, 0.019716514274, 0.033985093236, 0.075738675892, -0.094071008265, -0.091879516840, 0.144479617476, -0.087349794805, -0.290680795908, 0.081503108144, 0.039141032845, 0.072558090091, -0.160166352987, 0.013776400127, 0.579971730709, 0.075395978987, -0.589782059193, -0.175311908126, -0.033651571721, -0.125032678246, 0.475791841745, 0.377475261688, 0.117848731577, -0.048801884055, 0.072458267212, 0.091784544289, -0.191485598683, 0.156704753637, -0.004907141440, -0.011359491386, -0.018190039322, 0.059651590884, -0.020099526271, -0.080695904791, -0.205206975341, 0.169389501214, -0.777583897114, 0.098078779876, 0.050718244165, 0.009233323857, -0.236980259418, 0.103643983603, 0.041673302650, -0.105960428715, 0.443508803844, 0.006493697874, 0.142295435071, -0.125671029091, -0.188936889172, -0.194805741310, -0.043767292053, 0.191983446479, 0.127442553639, -0.243245050311, -0.372344583273, 0.009660989977, -0.088248662651, -0.156357288361, 0.685930311680, -0.173712328076, 0.011657748371, -0.028977548704, -0.259182304144, 0.043535221368, -0.118836522102, 0.221434742212, -0.065330237150, 0.123400531709, -0.419550001621, 0.023112000898, 0.054084319621, 0.016254048795, 0.116416938603, 0.050225984305, 0.415640980005, 0.139979600906, -0.220374509692, -0.729622781277, 0.115527138114, 0.054880760610, -0.175678908825, 0.087047815323, 0.040827803314, -0.087081320584, 0.077139332891, -0.019392924383, -0.023860495538, 0.029798893258, -0.213776364923, 0.403618425131, 0.431050956249, -0.361275374889, -0.537322998047, -0.113264478743, -0.103071831167, -0.044420313090, -1.080665111542, -0.130081072450, -0.302180856466, 0.045174285769, -0.126130104065, -0.418275594711, -0.187451973557, -0.006508538034, 0.357456594706, 0.338136851788, -0.110669501126, 0.018621075898, -0.145907551050, 0.142966151237, -0.145029455423, -0.139523193240, 0.174095332623, 0.461860269308, -0.082223355770, -0.253130376339, -0.248621121049, -0.212113603950, -0.553273379803, 0.064974874258, -0.327988713980, -0.045525413007, 0.377578318119, 0.244927003980, -0.026559928432, -0.081153817475, 0.161186665297, -0.031240595505, -0.001118255546, -0.045397531241, -0.061394371092, 0.051967434585, 0.056350275874, -0.158582985401, -0.067209474742, -0.041296191514, -0.360656052828, 0.125830575824, -0.119139574468, -0.072620786726, -0.066400870681, 0.122577637434, 0.733064293861, 0.042635843158, -0.056111074984, -0.040774438530, 0.090674012899, 0.167800158262, 0.810352742672, 0.469511210918, -0.138309374452, 0.066722683609, -0.138721376657, 0.127411887050, -0.016452070326, -0.162107303739, -0.084261812270, -0.146400213242, 0.087238788605, 0.136764928699, 0.159027636051, -0.120057903230, -0.108450517058, 0.080018460751, -0.266670733690, 0.123619347811, 0.132640898228, -0.045742243528, -0.032109010965, 0.024258507416, 0.139879718423, -0.137525752187, 0.068922795355, -0.042917191982, 0.206250458956, 0.063802257180, -0.066106103361, -0.088035114110, -0.325828611851, 0.115707755089, -0.011254765093, -0.037444911897, -0.363240480423, -0.021904801950, 0.115019485354, -0.032409470528, 0.439942866564, 0.024428844452, -0.315732836723, 0.010708169080, -0.088678002357, -0.124490350485, 0.132408574224, 0.659193038940, -0.162189677358, 0.011206369847, -0.501559495926, -0.097355239093, -0.145463883877, -0.056014411151, -0.012991525233, 0.182957932353, 0.714540183544, 0.053288970143, -0.317423671484, 0.134320363402, 0.092005237937, -0.464587092400, -0.276664555073, -0.074366167188, -0.066324427724, 0.007144560572, -0.021382695064, 0.317748785019, 0.564842045307, 0.735104918480, 0.106190219522, -0.474044531584, 0.481694579124, 0.083884783089, -0.217024341226, 0.060499515384, -0.138434618711, -0.086222171783, -0.332256108522, 0.169116675854, 0.175372064114, -0.712444961071, -0.172690138221, -0.495081007481, -0.018826948479, 0.139060378075, 0.327409267426, 0.091582283378, 0.151739627123, -0.153929337859, -0.022495627403, -0.111333034933, 0.299357324839, 0.116409823298, 0.394375234842, 0.291430026293, 0.220997184515, -0.339201986790, -0.098832726479, -0.299708843231, -0.331784576178, 0.056144867092, -0.025895265862, -0.489109724760, 0.177604317665, -0.488316208124, -0.093450881541, 0.024919409305, 0.008812595159, -0.055805783719, -0.045421205461, -0.203430607915, -0.111942209303, -0.131776526570, -0.033769007772, 0.072337329388, 0.049520220608, -0.032242696732, -0.106946617365, -0.052909720689, 0.062902681530, 0.055482733995, -0.295256227255, -0.082428850234, 0.628921568394, 0.041008763015, -0.930506944656, -0.020904136822, 0.130550339818, 0.144645705819, 0.689031302929, 0.413459062576, -0.062564224005, -0.120272412896, -0.143036708236, 0.015792526305, 0.055012378842, -0.058864302933, -0.062681481242, -0.315806031227, 0.088115930557, -0.196373969316, 0.141201332211, 0.070437699556, -0.222479984164, -0.014883494005, 0.023717518896, 0.148668050766, -0.092852279544, -0.140331611037, 0.043520133942, 0.038640744984, 0.045760765672, -0.155025050044, 0.219743296504, -0.155960991979, -0.167243376374, 0.102382399142, -0.164964661002, -0.157836526632, -0.048672560602, -0.037522308528, 0.119065828621, -0.291325241327, 0.335915267467, -0.195598408580, -0.063951738179, -0.058967109770, 0.456184387207, -0.107277929783, -0.024686206132, 0.078729033470, -0.416232734919, -0.062893338501, -0.096768699586, 0.530646264553, -0.005157068837, 0.099792353809, 0.110001690686, -0.119083411992, 0.052689675242, -0.011466306634, 0.135728180408, -0.293603986502, 0.033005744219, -0.167105257511, -0.876829683781, 0.095236174762, -0.042879547924, -0.273616820574, -0.212419152260, -0.019320093095, -0.041864641011, 0.013799911365, 0.021906662732, 0.026779731736, 0.763501167297, 0.683628797531, 0.025816883892, -0.540726304054, -0.185043007135, -0.013003299013, -0.436588674784, -0.097636014223, -0.086250998080, -0.150799483061, -0.396914929152, -0.170926392078, -0.365046739578, -0.686391174793, 0.039970591664, -0.239095196128, -0.753952860832, 0.228968933225, 0.562733888626, -0.658093512058, -0.007684035692, 0.164832159877, -0.039639763534, 0.158942058682, -0.021716238931, 0.125901982188, 0.409278869629, 0.118743069470, 0.006051287986, 0.217790618539, -0.159649088979, -0.425306856632, -0.008567791432, 0.043094146997, -0.072009056807, -0.497453629971, 0.003561527468, 0.188217222691, -0.132116258144, -0.098260901868, -0.034891806543, -0.256740540266, 0.140514776111, 0.091131657362, -0.261998504400, 0.008947321214, 0.007330545690, 0.112689800560, -0.143198117614, 0.058605328202, -0.090993061662, 0.026572648436, 0.137451663613, -0.136543631554, -0.137982964516, -0.090863779187, 0.187145963311, -0.042791865766, 0.258554816246, -0.168544173241, 0.024144265801, 0.085009112954, 0.375876247883, 0.399658590555, -0.120912089944, -0.000414989685, -0.144126921892, -0.159359723330, 0.080159083009, -0.345852911472, -0.012885014527, -0.485343098640, -0.073554269969, -0.028103793040, 0.121510945261, 0.009951074608, 0.051886629313, -0.194770038128, -0.368615150452, -0.040677808225, -0.204794362187, 0.001046456397, 0.040099233389, 0.054590374231, -0.051659636199, 0.040093030781, 0.073419407010, 0.033774230629, 0.232146307826, 0.122601576149, -0.067236013710, -0.031967587769, -0.188534796238, -0.157763466239, -0.080055303872, 0.056332625449, 0.615659773350, -0.180737257004, -0.032625667751, -0.088909961283, -0.242063492537, -0.179334834218, -0.029983377084, -0.150182828307, -0.678683876991, -0.027556287125, 0.064999550581, 0.122790187597, -0.043069068342, 0.104211591184, -0.471034735441, -0.016526170075, -0.154926791787, -0.050239931792, -0.080588176847, -0.146836161613, -0.189987167716, -0.143032714725, -0.039984032512, 0.465588539839, -0.159984841943, -0.392946481705, -0.089845001698, -0.059481106699, -0.113406158984, 0.107371956110, -0.094216212630, 0.114347584546, 1.164299726486, 0.464241802692, -0.132536664605, -0.021112766117, 0.240239053965, -0.188386827707, -0.515759289265, -0.160537496209, -0.153464898467, 0.048761878163, 0.549911558628, 0.272479146719, -0.061696115881, -0.729856669903, -0.085370063782, -0.006811256986, -0.011981095187, 0.311665803194, 0.437819629908, -0.742031574249, -0.114399887621, -0.032282408327, -0.016997173429, 0.005313744303, 0.477112799883, -0.074561804533, -0.540592610836, 0.313777744770, 0.377830564976, -0.270159900188, 0.058573719114, -0.234523966908, -0.429392606020, -0.117736540735, 0.200732871890, 0.173233836889, -0.189479306340, 0.494501411915, -0.018200132996, -0.151722848415, -0.133117169142, -0.027357097715, 0.105410814285, -0.027942001820, 0.006179649848, -0.162652373314, -0.145814612508, 0.092003077269, -0.156310692430, -0.182790175080, 0.075168438256, -0.048476696014, -0.132045730948, -0.077133662999, -0.029269406572, -0.028641955927, 0.233966171741, 0.010087390430, -0.208743453026, 0.067419335246, -0.073925554752, -0.132703125477, 0.032501675189, 0.594078660011, 0.023185607046, 0.092316545546, 0.002503471449, 0.123181648552, -0.044440507889, 0.304842650890, -0.059718023986, -0.260105967522, -0.172979876399, -0.200442612171, 0.075342744589, -0.145113304257, -0.176060065627, -0.331915080547, 0.060488797724, -0.165217593312, -0.061398722231, -0.180204674602, 0.023181442171, -0.111221484840, 0.127567574382, 0.084295384586, 0.263262629509, 0.087601728737, 0.478368878365, 0.059051103890, 0.252834767103, -0.097855687141, -0.111117430031, -0.269070893526, 0.119889490306, -0.224409639835, 0.895699501038, -0.026686504483, -0.206526324153, 0.124447688460, 0.090271569788, 0.043625727296, 0.474537163973, -0.048790309578, -0.801071703434, -0.078254602849, -0.119908519089, 0.083763644099, 0.139165922999, -0.188188061118, 0.009966590442, -0.014596238732, -0.044801760465, -0.171206563711, 0.086570307612, -0.606835484505, -1.136673450470, 0.058528888971, 0.167558759451, 0.051816117018, 0.066672407091, 0.513659715652, -0.054405339062, -0.170371726155, -0.059909213334, -0.115917138755, 0.135877087712, 0.180240720510, 0.614398300648, 0.145431563258, -0.098517745733, 0.146950304508, -0.267852485180, -0.494305640459, -0.229922428727, -0.026905437931, -0.099443823099, -0.041050665081, 0.438219010830, -0.269238054752, -0.161719679832, 0.394765675068, -0.127777636051, 0.242593586445, 0.093874543905, 0.251580864191, 0.192667946219, -0.745119750500, -0.051682136953, 0.028692476451, -0.027111634612, -0.116110816598, 0.487068861723, -0.034030675888, -0.238125190139, 0.165668129921, 0.316812872887, -0.179543331265, -0.126638323069, -0.173424482346, -0.047672908753, -0.207007825375, 0.565802752972, -0.276117652655, -0.304937720299, -0.600936532021, 0.198806524277, 0.060028303415, -0.214356765151, -0.551862001419, 0.374694943428, -0.119496762753, -0.065220400691, 0.070086330175, 0.009913391434, 0.148058712482, -0.002080250066, -0.071763738990, -0.100314691663, -0.148354589939, -0.239126339555, 0.224603995681, -0.124002382159, -0.154574215412, -0.376587957144, -0.068505093455, -0.037457481027, 0.019635736942, -0.059592477977, -0.064883179963, 0.014822517522, 0.520718991756, -0.007220044732, -0.030385229737, 0.093989610672, -0.099295668304, 0.182463526726, -0.648506045341, 0.105411902070, -0.319090038538, -0.174732059240, -0.005510072224, -0.090045794845, -0.124310046434, -0.090984940529, -0.017131820321, -0.018639354035, -0.031803142279, -0.056635372341, 0.073752142489, 0.180481493473, -0.109951190650, -0.041166290641, -0.045529711992, 0.411127686501, -0.096001528203, 0.162912368774, -0.128318786621, 0.042428057641, 0.085560522974, -0.317678481340, 0.073065012693, -0.095675364137, 0.138378247619, 0.676937222481, 0.028332805261, -0.043298926204, 0.050999414176, -0.175151020288, -0.142130196095, 0.034957610071, -0.170753166080, 0.347104191780, -0.026083054021, 0.013530164957, -0.410369902849, 0.029537500814, -0.184275642037, -0.433623582125, 0.011477556080, -0.132207989693, -0.059655945748, -0.095926508307, 0.260145425797, -0.511340141296, -0.008275721222, 0.020418442786, 0.027045814320, -0.009454873390, -0.168033227324, -0.101368762553, 0.320097684860, -0.102638453245, 0.088342934847, -0.033936250955, 0.173914909363, 0.708524644375, -0.170173391700, 0.092756055295, 0.424237430096, -0.538662254810, -0.506016910076, 0.054021295160, -0.037211075425, 0.074263349175, -0.038686659187, 0.418719977140, -0.483189910650, -0.377877980471, -0.176250427961, -0.004953930620, 0.069125868380, -0.086283162236, 0.842710435390, 0.383032083511, -0.544479727745, 0.015675993636, 0.001297743875, -0.023584559560, 0.149315461516, 0.129256024957, -0.139340922236, -0.329408884048, 0.418974906206, -0.146545901895, -0.026767797768, -0.249252140522, -0.095127344131, -0.044958233833, -0.033950932324, 0.387422114611, -0.082125425339, -0.123063087463, -0.090956322849, 0.022417059168, -0.028571693227, -0.084933549166, -0.245840817690, 0.303666114807, -0.101994246244, 0.130774632096, -0.033765919507, 0.065595656633, 0.160797342658, -0.144953459501, 0.014946578071, 0.177534803748, 0.091180354357, -0.266481429338, -0.072018079460, 0.083426013589, -0.126009151340, -0.984880030155, -0.091833561659, 0.187782675028, -0.155574575067, -0.172675654292, -0.000265428418, -0.181563571095, 0.406211197376, 0.062686532736, -0.193663969636, -0.066603839397, -0.124396257102, -0.083133988082, 0.290849000216, -0.179228618741, -0.345285713673, -0.091496109962, -0.092494286597, -0.167923256755, 0.093089491129, -0.280478507280, -0.076906576753, -0.286822080612, -0.032818678766, -0.083168849349, 0.103665754199, 0.023714842275, -0.004041385371, 0.037094265223, -0.019638316706, 0.445525497198, -0.041395720094, 0.164481639862, 0.037252783775, 0.399258792400, 0.103069163859, -0.129106879234, -0.100744202733, -0.149404227734, -0.289629429579, 0.682164311409, -0.195130378008, 0.019057821482, -0.113457269967, -0.178690284491, -0.168213039637, 0.587262034416, -0.209109172225, 0.356266379356, 0.095812723041, 0.001708194613, -0.317344069481, -0.127086475492, -0.258318960667, 0.147153228521, -0.085216544569, 0.118665240705, 0.115590952337, -0.090283282101, -0.460528939962, -0.293280541897, -0.122263953090, -0.194788828492, 0.208248972893, 0.016624100506, -0.086417205632, -0.135727167130, 0.202162444592, 0.106433600187, 0.029658624902, 0.025930969045, 0.514052450657, 0.062017269433, -0.194367155433, -0.092045247555, 0.138327062130, -0.197281330824, -0.154388755560, 0.526845216751, -0.022721217945, -0.029095156118, 0.006615586113, -0.321738004684, -0.139398545027, -0.217282488942, 0.024865353480, -0.036763105541, 0.098489336669, 0.253219574690, 0.277343094349, 0.320060670376, -0.397682964802, -0.139424115419, 0.012829954736, 0.157718911767, 0.036364480853, 0.047814555466, 0.013334654272, -0.586321890354, 0.045071780682, 0.076840974391, 0.106881402433, 0.012531602755, 0.050396427512, -0.116225913167, -0.086045511067, 0.793614387512, 0.539265930653, -0.304845094681, -0.035857111216, 0.065606921911, 0.119221515954, 0.042105421424, -0.431165635586, 0.219639614224, -0.048627469689, 0.048566337675, -0.104899123311, 0.084356874228, 0.075957342982, 0.113147623837, -0.143131032586, -0.340698897839, -0.002817183034, 0.130055665970, 0.222736388445, 0.051685001701, 0.135437756777, -0.220642238855, -0.125738278031, 0.002896381076, -0.139862805605, -0.181939423084, 0.120106637478, -0.484268635511, 0.544519662857, -0.063084468246, 0.093743383884, 0.017430545762, 0.027662120759, -0.168846562505, 0.252118974924, 0.028520224616, -0.497750699520, -0.027112292126, -0.183369874954, 0.037760384381, 0.146785452962, -0.169776812196, 0.063882589340, 0.276877284050, -0.010311919264, -0.000952131522, -0.202267259359, -0.076258927584, -0.072742715478, -0.106921270490, -0.067407622933, 0.206294149160, -0.104431048036, -0.120130792260, -0.094729803503, 0.201981633902, 0.177542954683, 0.088776476681, -0.102696649730, -0.034260187298, -0.266856640577, 0.146870002151, -0.162906467915, -0.049339119345, 0.019558308646, -0.023472709581, -0.173254609108, 0.058338988572, 0.152721315622, 0.782987833023, -0.019702227786, 0.138658359647, -0.756632149220, 0.016881888732, -0.210031896830, -0.235982254148, -0.089828312397, 0.040526535362, 0.039547506720, 0.004102999810, 0.811566591263, 0.009465896524, 0.073800899088, -0.200633659959, -0.075585827231, 0.061135839671, 0.351460635662, 0.113761454821, 0.184455275536, -0.140999138355, -0.103571556509, -0.129716575146, 0.504330456257, -0.112372361124, -0.279189348221, 0.007659875322, -0.262307912111, -0.066862732172, -0.368276298046, 0.676535427570, -0.035019192845, -0.121383205056, 0.038117438555, 0.420019119978, -0.136655136943, -0.510799765587, -0.159888565540, 0.131372079253, 0.219846963882, -1.137561440468, 0.473992794752, -0.195308938622, 0.144442483783, -0.031743720174, -0.081233002245, -0.066845618188, 0.026339065284, 0.186400994658, -0.173398792744, -0.304265648127, -0.139751493931, -0.076731584966, -0.124656930566, 0.070904247463, 0.215569436550, 0.301965683699, 0.013754877262, 0.946589529514, 0.603234767914, -0.378946989775, 0.665076434612, -0.104425400496, 0.107863567770, 0.064148962498, -0.195547848940, 0.129427030683, 0.012745817192, 0.089001014829, -0.079385057092, 0.017078515142, -0.133956253529, -0.088932968676, 0.020948804915, 0.218749821186, -0.055994801223, -0.041320689023, 0.063349962234, 0.069279529154, -0.049729004502, -0.385046780109, -0.134483769536, 0.526232063770, -0.176119044423, -0.161995083094, 0.140639871359, -0.506819069386, 0.267722845078, -0.004411129747, -0.024319108576, 0.124868191779, 0.045493774116, -0.140922576189, -0.814132094383, -0.054270908237, -0.119951166213, -0.062367491424, -0.014642689377, -0.214614346623, -0.157003045082, -0.169857576489, -0.066581949592, 0.751194655895, -0.025675764307, 0.022850291803, 0.049468889832, -0.020289907232, 0.023127611727, -0.068149097264, -0.002925000619, -0.653596699238, -0.124632976949, 0.221433401108, 0.122715801001, 0.019372444600, 0.064648702741, 0.169802248478, -0.006079634652, -0.060603510588, -0.002982733073, 0.142291858792, 0.067752309144, 0.101801536977, -0.083649784327, 0.169877603650, -0.155974343419, 0.311137139797, 0.204873725772, 0.983011424541, 0.038406774402, -0.073293238878, -0.697685956955, -0.106266476214, -0.171814382076, -0.147036597133, 0.000063554908, -0.069102965295, -0.142689183354, 0.133319646120, -0.816950440407, 0.440915375948, 0.101838380098, -0.398991346359, 0.092235654593, 0.039194710553, -0.080847017467, 0.073041044176, -0.136835232377, -0.087622247636, -0.053903914988, -0.155261740088, 0.382028341293, 0.250454813242, -0.610925436020, -0.192812398076, -0.376134842634, 0.022373558953, 0.088943861425, 0.631726503372, -0.111437059939, -0.120503298938, -0.074964120984, -0.074435047805, -0.619901835918, 0.316165089607, -0.450512707233, -0.176155209541, 0.111980766058, 0.567227184772, -0.072602942586, 0.017661375925, -0.061322271824, -0.022281542420, -0.073475234210, -0.119286291301, -0.191107764840, -0.300319731236, -0.018457219005, -0.951463341713, -0.338586956263, 0.147261321545, -0.167725175619, -0.023950494826, -0.077328816056, -0.023095808923, -0.174653917551, 0.819657921791, 0.699716746807, -0.264348387718, -0.438249051571, -0.217703342438, -0.139561921358, -0.217083036900, -0.136660620570, 0.241731658578, 0.006292013451, 0.068765513599, -0.093941718340, -0.126853823662, -0.091942705214, -0.107102736831, 0.071048893034, -0.068592339754, 0.032184783369, 0.009133879095, -0.072679042816, -0.187360972166, -0.176780968904, -0.017100794241, 0.012842027470, -0.164550319314, 0.073812045157, 0.120622970164, 0.119301378727, -0.279839575291, 0.235028535128, -0.002730462700, -0.066640943289, -0.055610600859, -0.167427793145, -0.044571697712, -0.818586766720, -0.109157063067, 0.170861989260, -0.131292760372, -0.033013280481, -0.201288700104, -0.035845655948, -0.079565159976, 0.252958059311, 0.588841676712, 0.029730472714, 0.009304662235, -0.015959886834, -0.285163253546, -0.049335241318, -0.120698101819, -0.057655386627, -0.014303460717, 0.053079534322, 0.004717497155, -0.123075373471, 0.274250686169, -0.088044829667, 0.343668699265, -0.019823474810, 0.106333509088, -0.068727336824, -0.091877512634, 0.090325102210, 0.137099176645, -0.087651357055, 0.538804829121, 0.055593177676, 0.212160497904, 0.238327801228, 0.222972691059, -0.100598998368, -0.066188849509, -0.668014347553, 0.091804087162, 0.054934270680, 0.195989221334, -0.091623872519, -0.093430154026, -0.105453014374, -0.174069553614, -0.243889495730, 0.443945705891, -0.115742862225, 0.331956118345, 0.254499405622, 0.036237221211, 0.209321156144, 0.221408545971, -0.362637549639, -0.116316974163, 0.013388079591, -0.048856128007, -0.175745487213, -0.012984982692, -0.322406262159, -0.074559703469, -0.260099023581, 0.751066505909, 0.152697026730, 0.919677674770, -0.151262417436, -0.044088795781, 0.118939146399, 0.101455874741, -0.775055408478, 0.183476597071, 0.273793131113, -0.103354327381, 0.255667835474, -0.400158673525, 0.174345687032, -0.016516601667, 0.070148192346, -0.015485665761, 0.124626256526, 0.023302733898, 0.086140617728, -0.140202298760, -0.129285097122, -0.651018261909, -0.445217162371, 0.692410826683, -0.213362678885, -0.178374573588, -0.319575011730, -0.275003165007, -0.044511444867, 0.226206734776, 0.558503091335, -0.536024451256, 0.306413650513, -0.151881754398, 0.097369477153, 0.043591648340, -0.162037551403, -0.413494676352, -0.180141821504, 0.061026450247, 0.060554061085, -0.131668165326, -0.250709652901, -0.154303982854, 0.122573122382, 0.155584007502, 0.051609255373, 0.130383417010, 0.097301095724, -0.048199962825, -0.106300242245, -0.048738922924, -0.082575634122, -1.315186858177, -0.144256398082, -0.142276629806, -0.134580031037, -0.004606578965, -0.032034572214, -0.064696311951, 0.123045109212, -0.129733011127, -0.135798618197, -0.210531130433, -0.847031354904, -0.021024629474, 0.115515895188, -0.081523284316, -0.175383031368, 0.030890624970, 0.020694768056, 0.036848291755, 0.068220831454, 0.008524919860, 0.135980382562, 0.026402341202, 0.019916299731, -0.273501604795, 0.065145611763, 0.065568089485, -0.055119644850, 0.256241530180, -0.123883038759, -0.441080659628, 0.068113669753, 0.462783813477, 0.102330572903, 0.319402575493, -0.032934710383, -0.079857833683, -0.092662431300, -0.076677314937, -0.088099613786, 0.125611722469, -0.131313294172, 0.417250275612, 0.002492802683, 0.272851854563, 0.343533337116, 0.231840297580, -0.122315719724, -0.030430600047, -0.611060261726, -0.018423799425, -0.201254606247, -0.148271232843, 0.053680311888, 0.138188809156, -0.066681593657, 0.007816046476, -0.186186760664, 0.426259368658, 0.050955526531, 0.629746258259, 0.068858593702, -0.029495930299, -0.263082087040, -0.240833252668, -0.116832353175, 0.122686721385, -0.126319512725, 0.052770819515, 0.456396281719, 0.132741868496, 0.183799490333, 0.112563423812, 0.535520613194, 0.820896744728, 0.215184375644, 0.697377383709, 0.051665667444, -0.125216424465, -0.039765208960, 0.019273418933, -0.924180030823, -0.009943949990, 0.052609961480, -0.032826233655, 0.806076765060, -1.010016918182, -0.292334735394, -0.065802782774, -0.196116596460, 0.017172228545, -0.367317795753, -0.137805998325, -0.188711956143, -0.884777903557, -0.173034816980, -0.515818953514, -0.461813837290, -0.055611744523, -0.098081804812, -0.103915736079, 0.123362131417, -0.377889782190, -0.038591910154, 0.088839404285, 0.465134233236, -0.353707373142, -0.042326971889, -0.123322799802, -0.145039007068, -0.125035777688, -0.033405285329, 0.201344922185, -0.005933673587, -0.099870011210, 0.065533787012, -0.109555751085, -0.110702261329, -0.090833768249, 0.060722310096, -0.594847619534, 0.138175591826, 0.115382447839, 0.101980961859, -0.115776926279, 0.089781716466, -0.587245881557, -0.009597023949, 0.541425883770, -0.151079133153, -0.050860032439, 0.066922701895, 0.045448392630, -0.213392868638, 0.121953561902, -0.219910606742, -0.026778675616, -0.046996492893, -0.033032704145, 0.352456063032, -0.089941278100, 0.327702850103, -0.026432147250, 0.034908622503, 0.085611477494, -0.174770563841, 0.160605341196, 0.088080033660, -0.020914498717, -0.096311978996, 0.022420475259, -0.175857156515, -0.013064209372, -0.109302520752, -0.103021234274, -0.155951425433, 0.360013484955, -0.066366739571, 0.433416306973, 0.114493951201, -0.083799928427, -0.227776989341, -0.036717288196, -0.130778968334, 0.003730148776, -0.059216178954, -0.421071380377, 0.145257472992, 0.060506209731, 0.119550138712, 0.796489179134, -0.159948602319, 0.363978385925, 0.882729649544, -0.197677642107, 0.036860361695, -0.094939254224, -0.234080985188, -0.077441900969, -0.111687339842, 0.217724725604, 0.086166605353, 0.024671802297, 0.125521421432, 0.135920584202, -1.007074594498, 0.357868641615, -0.083784639835, 0.331498593092, -0.349454343319, 0.056213255972, 0.044018566608, -0.189797639847, 0.441589236259, -0.137832745910, 0.075833782554, -0.131310835481, 0.092755340040, -0.045456230640, -0.424109280109, 0.208277598023, -0.413177728653, 0.091463625431, 1.002214908600, 0.241585567594, -0.065515160561, -0.024690151215, -0.121995508671, 0.212617293000, -0.804599404335, -0.358218103647, 0.314899802208, -0.099596358836, 1.037969589233, -0.407558292150, -0.342450082302, -0.386908113956, 0.131230890751, -0.062268804759, -0.236674785614, 0.054026067257, -0.061038382351, -0.363641023636, 0.001576315728, -0.077440746129, -0.510719716549, 0.077555425465, -0.050641983747, 0.068057209253, 0.151062324643, -0.286032140255, -0.067932337523, -0.299239248037, -0.065772973001, -0.282006055117, 0.313136637211, -0.189388528466, -0.066226489842, -0.087435446680, 0.253070056438, -0.798112869263, -0.144576966763, -0.045643288642, -0.098147474229, -0.154724732041, -0.105382837355, 0.023886572570, -0.087006084621, -0.297578543425, -0.119971230626, 0.094814091921, 0.023373451084, -0.059818305075, -0.153125256300, -0.090280100703, -0.087963216007, 0.426468431950, -0.057149421424, 0.013754887506, -0.033332444727, 0.123056925833, -0.008353388868, -0.101566858590, -0.035583797842, -0.060341600329, -0.100585356355, -0.005767411552, -0.433647543192, -0.058488648385, 0.744035720825, -0.141504302621, -0.035154599696, -0.066525921226, -0.110813438892, -0.020512947813, 0.145573034883, -0.171345695853, -0.042126361281, -0.098374634981, -0.211791634560, -0.089057661593, 0.003975173458, 0.031254053116, -0.088027097285, 0.012857413851, -0.067711405456, -0.060348276049, -0.091910272837, -0.477261394262, -0.094042830169, 0.061325956136, 0.124726101756, -0.111410886049, 0.098488420248, -0.049632780254, 0.049616139382, -0.169033378363, -0.135738432407, 0.072167232633, -0.150412723422, 0.087748467922, 0.678151249886, -0.070579037070, 0.023912681267, 0.155616238713, 0.187336787581, 0.141031578183, 0.085696041584, -0.170001193881, 0.012098575011, 0.030782198533, 0.008813825436, -0.112052381039, 0.071767330170, 0.219881117344, -0.072304688394, 0.427783697844, 0.002029422671, -0.148900091648, -0.377755463123, -0.063609905541, -0.745045423508, 0.102520696819, -0.019276274368, -0.155592158437, 0.196556553245, -0.297037124634, -0.146678745747, -0.090175159276, 0.275514036417, 0.013362721540, 0.583103001118, 0.263708680868, 0.113036274910, -0.027419514954, 0.111655905843, 0.347420781851, -0.291232287884, -0.001394575229, 0.187525734305, 0.135625228286, 0.567875087261, -0.303611874580, -0.838093638420, -0.427983701229, 0.198978185654, 0.061026278883, -0.342122137547, -0.068408347666, -0.017261276022, -0.628357172012, 0.028362406418, 0.929419398308, -0.253911823034, -0.637283146381, 0.026695763692, -0.128539904952, -0.218540996313, -0.525008678436, 0.053326908499, -0.062915295362, -0.027775561437, -0.490971982479, 0.270242214203, -0.025729380548, -0.060104414821, -0.119461752474, -0.070036843419, -0.218926995993, 0.127836510539, 0.056311674416, -0.068556435406, 0.011078177020, -0.075017161667, 0.148849800229, 0.150163710117, 0.092404782772, 0.067203015089, 0.115090332925, 0.107477433980, -0.170340195298, -0.102542698383, 0.451846390963, -0.104543752968, -0.798445343971, 0.031678617001, 0.096922270954, 0.000890805386, 0.262561231852, -0.180168613791, 0.088817678392, -0.187251403928, -0.062715932727, -0.143776282668, -0.053133059293, -0.611483573914, 0.049471039325, 0.722922027111, -0.116982646286, -0.029678329825, 0.047029878944, 0.147444307804, 0.000209154401, -0.001741107786, -0.341658562422, 0.113804042339, 0.101204223931, -0.184334382415, -0.112692184746, -0.025801513344, 0.043210387230, 0.143250763416, -0.423682332039, -0.012180254795, 0.181107044220, -0.132883802056, -0.155936747789, -0.048239089549, 0.178584232926, -0.035735629499, 0.118193671107, 0.148688077927, 0.342891752720, 0.157216027379, -0.170157328248, -0.116334073246, 0.344864904881, -0.016937952489, 0.048543088138, 0.374043941498, -0.961506545544, 0.019150195643, -0.110246986151, 0.263977110386, -0.023459982127, -0.081929229200, -0.030790230259, 0.146746516228, 0.007295159157, 0.003235390875, 0.142326802015, -0.620016276836, -0.079811900854, -0.150434076786, -0.119012683630, -0.521978914738, -0.045659132302, -0.014343020506, 0.209629058838, -0.480020254850, -0.211499556899, -0.131980180740, -0.114802882075, 0.005813731812, -0.149281978607, -0.100235916674, 0.171884074807, -0.129159003496, 0.120994731784, -0.186784416437, -0.341191679239, 0.117497064173, 0.137187689543, -0.157844975591, -0.053803179413, 0.488357514143, -0.573166251183, 0.323881924152, -0.100085690618, 0.489295899868, 0.327739417553, -0.032411944121, -0.215460419655, -0.160479173064, 0.078882806003, -0.148652568460, -0.040964089334, -0.143218025565, 0.027654366568, -0.142064347863, 0.180455118418, -0.250937044621, -0.881749749184, -0.302742779255, -0.145480781794, -0.116405323148, -0.287746071815, -0.129542335868, -0.081888452172, -0.076794654131, -0.549211740494, -0.720910012722, 0.020993387327, 0.120557345450, 0.031259868294, 0.097123540938, 0.008402019739, -0.176323249936, -0.189809396863, 0.117231100798, 0.153538092971, -0.170135661960, -0.026878746226, -0.055831748992, -0.143057852983, -0.161741599441, -0.191652923822, 0.003153529251, 0.101848512888, 0.123716093600, -0.027838079259, -0.187813177705, -0.216562405229, -0.077488139272, -0.039202395827, -0.034647651017, 0.018180057406, -0.159300670028, 0.063598848879, -0.189654633403, 0.057068713009, -0.191831722856, 0.102792844176, -0.083254709840, -0.126123487949, 0.780563294888, -0.007117573172, 0.127943277359, -0.180810272694, -0.046303074807, 0.056538369507, -0.173790112138, -0.331708669662, -0.028609341010, -0.136198088527, 0.002185602905, -0.001226127846, -0.163971096277, 0.134001776576, 0.128118410707, -0.942801058292, -0.098275661469, 0.010062565096, -0.091489680111, -0.051203913987, 0.098901174963, -0.155950605869, -0.214711397886, 0.026523135602, -0.435659289360, -0.228746324778, -0.096042051911, 0.065586656332, 0.144937485456, -0.224274471402, -0.145279601216, -0.159064784646, 0.543252050877, -0.565839767456, 0.152747750282, 0.012049347162, 0.236413374543, 0.024631340057, -0.221473187208, 0.045864239335, 0.096316576004, -0.013905569911, -0.124732054770, 0.004395390395, -0.027163794264, -0.378755927086, -0.118960276246, 0.088022977114, 0.145967781544, -0.169181436300, 0.494925498962, -0.377371728420, 0.269681751728, -0.038886010647, -0.066017352045, -0.147241383791, 0.599639117718, -0.063524819911, -0.480368912220, 0.162296295166, -0.099233187735, 0.020445639268, 0.116827845573, -0.414102494717, -0.074696078897, -0.132007181644, 0.021235108376, 0.645359098911, 0.536754429340, 0.359886944294, 0.227801159024, 0.130850836635, 0.265574067831, -0.222166880965, 0.076750919223, -0.474720060825, -0.057233043015, -0.073346443474, -0.220347270370, 0.060331746936, -0.157784298062, -0.450407892466, -0.016298642382, 0.543644368649, 0.051363665611, -0.440831750631, 0.015108478256, 0.065616391599, -0.411287128925, -0.415429413319, 0.038513835520, -0.107630632818, 0.276315093040, -0.064799778163, -0.233571976423, 0.105372868478, -0.151936575770, -0.115313373506, 0.217870429158, -0.167245805264, -0.060691736639, 0.092268027365, -0.113903790712, 0.047369670123, -0.044902082533, -0.055495161563, -0.145584583282, -0.287403494120, -0.106696180999, 0.034124851227, -0.071579933167, -0.121830984950, -0.109486728907, -0.410043716431, -0.168729871511, 0.135221526027, -0.139000862837, 0.000682549027, -0.189954087138, -0.134370565414, -0.093715041876, -0.090147592127, -0.076925292611, 0.080190114677, -0.081369243562, -0.176694318652, -0.070526398718, -0.201536998153, 0.890113770962, 0.041547883302, -0.175214588642, 