//Numpy array shape [128, 256]
//Min -5.555977344513
//Max 2.053921461105
//Number of zeros 0

#ifndef W4_H_
#define W4_H_

#ifndef __SYNTHESIS__
dense_1_weight_t w4[32768];
#else
dense_1_weight_t w4[32768] = {0.256894916296, -0.916567623615, -0.039538126439, -0.066326558590, -0.053585913032, -0.054204769433, -0.333062410355, -0.041594836861, -0.111344106495, -0.452148377895, -0.004395047668, 0.026124656200, 0.576080381870, 0.059797063470, -0.037694253027, -0.714878857136, -0.013012593612, -0.110718496144, -0.111470915377, -0.091412462294, -0.031534481794, 0.347843915224, 0.027824552730, -0.026526948437, -0.178663358092, -0.126750305295, -0.053512021899, 0.246314913034, -0.127663254738, -0.018647231162, 0.155356258154, -0.024261636660, -0.099631853402, 0.027633773163, -0.765332043171, -0.103218384087, -0.072884954512, -0.032096460462, -0.207105025649, -0.122254714370, -1.057054638863, -0.049582909793, -0.015797648579, -0.212748989463, -0.177696973085, -0.059185817838, -0.272733390331, 0.016097579151, -0.225927576423, -0.341059058905, -0.123494379222, -0.044255506247, -0.001575480681, 0.029465366155, -0.133092701435, -0.136509388685, -0.300682604313, -0.080001637340, -0.007303962018, -0.043792903423, -0.030450031161, -0.003139560577, 0.391338676214, 0.130968868732, -0.243469491601, 0.164857819676, -0.112714752555, -0.041155967861, 0.025599690154, -0.678622782230, 0.192171663046, -0.154572680593, -0.080861419439, -0.133739724755, -0.393757611513, -0.166905388236, -0.071944519877, 0.048583757132, 0.941839337349, -0.099991902709, -0.501951634884, 0.136181116104, -0.958619356155, -0.169032469392, -0.019617816433, 0.034235324711, -0.099534690380, -0.060987100005, -0.544440209866, -0.016000373289, 0.383118867874, -0.083612069488, 0.003999705426, -0.012843593955, 0.190860986710, 0.004746924154, 0.067139327526, -0.078087724745, 0.110071130097, 0.009570498951, -0.152141302824, -0.118258282542, 0.034955319017, 0.292156457901, -0.204165145755, -0.035907525569, 0.260690182447, -0.300014555454, 0.042809586972, -0.847949147224, -0.614931225777, -0.619863212109, -0.028823111206, -0.543467700481, -0.405351340771, 0.051271438599, 0.518363773823, -0.370872020721, -0.099330529571, -0.080986887217, -0.107320517302, 0.010603845119, -0.050689011812, 0.050575029105, -0.213396400213, 0.468441724777, -0.144606187940, -0.091314159334, 0.004713363014, -0.835277378559, 0.061976276338, -0.338054388762, 0.300778985023, 0.214927494526, -0.044906593859, 0.286343961954, -0.107096239924, 0.091844417155, 0.016079055145, -1.512147784233, 0.155573397875, 0.310586482286, 0.029071975499, -0.073888555169, -0.122066468000, -0.080779902637, 0.058773037046, 0.186481133103, 0.523952901363, -0.091800741851, 0.096872419119, -0.106006979942, 0.007926628925, -0.017511177808, 0.121571443975, -0.005818284582, -0.035369966179, -0.047972109169, -0.003022057703, -0.025018606335, -0.027805924416, 0.010993200354, -0.039039339870, 0.020404396579, -0.389293819666, 0.008418402635, 0.049323193729, -0.052476570010, -0.551837086678, -0.050083484501, -0.131856113672, -0.388112634420, 0.061736334115, -0.011648946442, 0.045003026724, -0.077141903341, -0.033671583980, -0.936395764351, -0.239107832313, 0.380613595247, -0.426140069962, 0.044502571225, -0.034807033837, -0.096952155232, -0.447963297367, 0.017790433019, -0.003025436774, 0.014134269208, -0.037528704852, -0.675657808781, -0.069533333182, -0.727887332439, 0.357849478722, -0.396922558546, 0.030098235235, 0.074653059244, 0.045812308788, 0.144211694598, 0.064691878855, 0.160221904516, -0.481315165758, 0.047454588115, 0.069337472320, -0.072172634304, 0.397633671761, -0.011624418199, 0.059661380947, 0.087860129774, 0.455729693174, 0.005455372389, 0.008462855592, 0.107598088682, -0.623627424240, -0.723010301590, -0.217586562037, 0.106383554637, -0.169117987156, -0.612445294857, -0.347761958838, -0.169265016913, -0.201478406787, 0.335104078054, -0.048069629818, -0.404341191053, -0.155313000083, 0.239566490054, -0.230773478746, 0.004371966235, 0.240118712187, -0.072885349393, 0.040859602392, 0.015959037468, -0.978609144688, -1.314723372459, 0.151960402727, -0.203018739820, 0.087114945054, 0.058019366115, -0.026729978621, 0.101249590516, -0.047917138785, 0.924040138721, 0.053083036095, -0.118802882731, 0.013056557626, -0.994972825050, 0.247090712190, -0.095589242876, 0.730566263199, -1.619814634323, 0.077231541276, -0.706022322178, -0.149325519800, -0.217676341534, -0.001151088392, -0.091016806662, 0.074222281575, -0.440210819244, -0.087717361748, -0.053566757590, -0.055859737098, -0.053002458066, -0.206896990538, -0.006561881397, -0.012915792875, 0.290990829468, -0.048258807510, -0.000208908416, -0.501929342747, -0.250314623117, -0.083961024880, 0.001521480270, -0.056688107550, -0.058387067169, -0.022552238777, -0.210360571742, 0.018118932843, -0.352536290884, 0.015949102119, -0.137202873826, -0.027843326330, -0.175758227706, 0.027775496244, 0.543613374233, -0.083828084171, -0.015280082822, -0.213691085577, -0.137225404382, 0.011803654023, -0.134523749352, 0.164769455791, -0.138903096318, 0.018020018935, 0.019464576617, -0.184074819088, -0.110944621265, 0.049297019839, -0.050682015717, -0.029053555802, -0.001616008929, -0.019662007689, -0.606791913509, -0.302114158869, 0.059950493276, 0.034925363958, -0.322070151567, -0.161698937416, -0.028062114492, 0.000355802447, -1.140542268753, -0.131751611829, -0.114918269217, -0.311318546534, -0.153173446655, -0.013666019775, 0.050407864153, 0.005215863697, -0.014280941337, -0.579403221607, -0.104022569954, 0.529184639454, 0.104548580945, -0.080804698169, -0.066842086613, -0.076540373266, -0.023286154494, -0.471866965294, -0.075407274067, 0.117096923292, -0.084691643715, -0.725674629211, -0.054726880044, 0.049752052873, -0.032839544117, -0.167638435960, -0.076121203601, -0.192498564720, -0.310801506042, 0.117133319378, -0.587814629078, -0.168106347322, -0.152040600777, -0.078032836318, -0.147030800581, -0.228380411863, 0.097388878465, -0.221670046449, 0.034003529698, -0.004742491059, 0.086105011404, 0.069112181664, -0.057054664940, -0.032194033265, 0.031770214438, -0.002792984713, -0.138815864921, -0.115623310208, -0.178055897355, -0.078371107578, -0.668285250664, 0.010216856375, -0.050289869308, -0.526378810406, -0.384120613337, -0.086487270892, 0.006396255456, 0.092422038317, -0.540310978889, 0.002870382043, -0.568700075150, -0.096810370684, -0.319210588932, -0.091338023543, 0.312984108925, -0.105105146766, -0.124610036612, 0.069474823773, -0.203711181879, -0.148651748896, -0.107777893543, -0.807047247887, 0.098798029125, -0.159874081612, -0.134884595871, 0.151890426874, -0.407900959253, -0.115597084165, -1.894662141800, 0.176402539015, -0.001530918758, 0.014308476821, -0.195607870817, -0.015863707289, -0.159881606698, -0.115791976452, -0.045500736684, -0.284294664860, -0.133608207107, -0.068923629820, -0.163076922297, -0.126649156213, 0.461814790964, -0.080922365189, -0.447551459074, -0.071629218757, -0.125829473138, 0.268428176641, -0.155819788575, -0.061538051814, -0.315257459879, 0.286643147469, -0.056656308472, -0.204622462392, -0.041955027729, -0.024687765166, -0.133981108665, -0.021690934896, -0.107002995908, -0.016965314746, -0.268255770206, -0.033837083727, -0.181678652763, -0.027812764049, -0.034745808691, -0.417938739061, 0.144213467836, 0.187962278724, -0.006261230446, 0.078206613660, -0.163607627153, -0.325998991728, -0.106357097626, 0.242765247822, -0.465513080359, -0.117764957249, -0.094660297036, -0.190215885639, 0.130138590932, -0.240961730480, -0.017261175439, -0.247564211488, 0.056385669857, 0.020498905331, -0.016764363274, -0.001312927459, 0.242550954223, 0.031028795987, -0.438926637173, 0.416422843933, -0.274916410446, -0.028459182009, -0.352913796902, -0.204094290733, -0.142489582300, -0.033895909786, -0.051720377058, -0.320874392986, -0.190384179354, -0.054483450949, 0.042689371854, -0.055070653558, -0.136677622795, -0.294346898794, 0.319854378700, 0.095065750182, -0.019839413464, -0.178834259510, 0.463899642229, -0.159232035279, -0.087039574981, 0.361855328083, -0.167810365558, -0.011555340141, 0.228161692619, 0.105250626802, 0.010719365440, -0.287911981344, 0.030077992007, -0.111833229661, -0.148112669587, -0.074465475976, -0.243381217122, -0.131957814097, 0.090351805091, 0.084225177765, -0.123606652021, -0.122472777963, -0.097641326487, -0.074300087988, -0.333766996861, -0.169920593500, -0.483251005411, -0.040006421506, -0.290576130152, -0.005138848908, -0.205883786082, 0.022440308705, -0.609140992165, -0.098404519260, -0.043856631964, -0.072935469449, 0.082094170153, 0.194314613938, -0.085895799100, -0.473415583372, -0.771006405354, 0.031124569476, -0.379336565733, -0.073022805154, -0.009561148472, 0.005809339695, -0.108852289617, -0.026949701831, -0.098090074956, 0.047041319311, 0.057456601411, 0.058311741799, -0.007720379159, -0.065082378685, -0.002320014872, 0.045097738504, 0.039963819087, 0.056624148041, 0.085190497339, 0.093205280602, 0.107323773205, 0.082677334547, -0.138628870249, 0.028548985720, 0.023609798402, -0.119590640068, 0.115523919463, -0.066388271749, -0.090540640056, -0.039135288447, -0.105071730912, -0.077351175249, -0.034242074937, 0.085432305932, 0.101320475340, -0.058562658727, 0.100322671235, 0.023472029716, -0.031079508364, -0.119558565319, -0.061446648091, -0.143666058779, 0.031391840428, 0.086815878749, 0.123702406883, -0.054666399956, 0.044988777488, 0.064938619733, 0.072985500097, 0.084735333920, -0.122542947531, 0.102950401604, -0.182505220175, -0.123179212213, 0.029079841450, 0.072488978505, 0.072645552456, -0.054065134376, -0.071068055928, -0.027388555929, 0.124814994633, -0.046048253775, -0.060114879161, 0.086327865720, 0.030154947191, -0.105984292924, 0.101864472032, -0.103037372231, 0.052939571440, 0.088523857296, 0.067648090422, -0.040005657822, 0.010103394277, -0.113485187292, -0.118119619787, 0.057661358267, 0.065016984940, 0.123205892742, 0.133418127894, -0.083934322000, -0.122243940830, 0.006836822722, 0.097830638289, 0.110664971173, -0.011323451996, 0.090315558016, -0.070555329323, -0.014184335247, -0.407336443663, 0.067533843219, 0.004779425450, 0.062938228250, -0.018023865297, -0.102163001895, -0.027530565858, -0.034727819264, 0.021165706217, 0.049261782318, 0.016354519874, -0.053606867790, -0.061537262052, -0.082705542445, 0.044706076384, -0.026406710967, -0.128713265061, -0.073498912156, -0.081505522132, 0.004326403141, -0.095378845930, -0.049989264458, -0.099225625396, -0.093157202005, 0.055243205279, 0.034613806754, -0.104677863419, 0.005695571657, -0.108850672841, -0.020288057625, 0.121374033391, 0.015553700738, 0.199050799012, -0.017631523311, 0.019763475284, -0.093257613480, 0.062132276595, -0.034670505673, 0.102478146553, -0.013938092627, 0.073606498539, -0.047232832760, -0.008812397718, 0.059917643666, 0.118426583707, -0.110942304134, 0.085357084870, -0.061350189149, 0.106697730720, 0.024146437645, -0.116099342704, -0.154100239277, 0.033738460392, 0.009734825231, -0.026431186125, -0.040912806988, -0.085667207837, -0.033792667091, -0.116755098104, -0.035982701927, 0.010399549268, -0.013881175779, 0.006463035475, 0.024410538375, -0.268241673708, 0.055497575551, 0.090229615569, -0.154924228787, 0.102299779654, -0.035227611661, -0.006511476822, 0.148087292910, 0.084722653031, 0.137040227652, -0.156800866127, -0.012228759937, 0.059573020786, 0.070275418460, -0.093860194087, 0.060946196318, 0.049573309720, 0.090330325067, -0.009063513018, 0.074453704059, -0.092259190977, -0.111511215568, 0.085361063480, 0.033175118268, -0.122352913022, -0.072428241372, 0.088095963001, -0.385704636574, -0.047890458256, -0.060718744993, -0.042325370014, 0.081904448569, 0.055722206831, -0.097142398357, 0.190897837281, 0.094428129494, -0.024640282616, 0.105915322900, 0.017281729728, 0.093183495104, 0.008071869612, -0.040418706834, -0.024538261816, 0.030952971429, 0.057241801172, -0.062153931707, 0.092757053673, -0.051248963922, 0.016185292974, -0.051762595773, -0.069748461246, 0.039098005742, -0.014074610546, 0.088460646570, -0.012968249619, 0.154137611389, -0.022691991180, -0.067430973053, -0.037600237876, 0.190490782261, -0.046414244920, -0.027709675953, 0.357700467110, -0.023536864668, -0.019595565274, 0.037485394627, -0.011133617721, -0.035807311535, -0.094986662269, -0.243304222822, 0.035024553537, -0.030057005584, 0.062049418688, 0.019505003467, -0.098242469132, -0.086947642267, -0.024878716096, 0.037943135947, -0.033994097263, -0.053807724267, -0.038445111364, 0.019486378878, 0.058010015637, -0.076128594577, -0.005004009232, 0.142481967807, -0.013686740771, 0.093575209379, -0.058515626937, -0.077894024551, -0.034120608121, -0.098913036287, 0.113998293877, -0.002414301038, 0.205258011818, 0.016752080992, -0.033268652856, 0.093237996101, -0.003489821218, -0.038829807192, 0.039770197123, -0.054643012583, 0.030635913834, -0.203432649374, 0.049611851573, 0.001805722713, -0.004215389490, -0.009490191936, -0.099276028574, 0.138765171170, 0.053051270545, -0.112469770014, 0.070679031312, -0.112488448620, 0.098550021648, -0.148776262999, -0.079047620296, -0.049669630826, -0.006422543898, 0.062413815409, 0.071133270860, -0.113068141043, -0.039388917387, -0.208890259266, -0.057705972344, -0.019537249580, 0.043495293707, 0.010139912367, -0.133527308702, 0.047379400581, 0.127329304814, -0.083896435797, 0.054139111191, -0.063781805336, 0.031111836433, -0.100617952645, -0.073838815093, -0.024372898042, -0.119904346764, 0.091565191746, -0.114909075201, 0.096425026655, 0.139904484153, 0.107274152339, -0.060174435377, -0.231202989817, 0.057966273278, -0.016232619062, 0.115049883723, -0.239156350493, -0.142060533166, 0.157761678100, 0.099558658898, -0.002765511628, -0.087922662497, 0.012388247997, 0.013408366591, 0.244192540646, -0.032214198261, 0.013917065226, 0.015354366973, -0.017684401944, 0.007203157991, 0.012545865029, -0.108281262219, -0.025091387331, 0.299117565155, 0.109013624489, -0.008602353744, -0.007565298583, -0.052538074553, -0.070516854525, -0.091868594289, -0.033302508295, -0.062620379031, 0.063093215227, 0.072333171964, 0.104887768626, 0.061291232705, -0.036553621292, -0.082746900618, 0.183149322867, 0.014563148841, -0.050717096776, -0.129426255822, 0.184283435345, 0.006202765275, 0.093877598643, -0.064218543470, -0.142736509442, -0.052310019732, 0.104888550937, 0.059953816235, -0.022398689762, -0.047078229487, 0.092613518238, 0.078594028950, 0.084267407656, -0.082972191274, 0.104814127088, 0.135335341096, 0.074565082788, 0.067642368376, -0.136499226093, -0.075248353183, -0.042145919055, -0.145854294300, 0.029346615076, 0.072999142110, 0.087096713483, 0.139572083950, 0.084577143192, 0.056899469346, 0.173507049680, 0.109666503966, -0.003041261574, -0.106650620699, 0.148633673787, -0.038123451173, -0.142294839025, -0.114658378065, -0.124733611941, 0.033546730876, -0.030074119568, 0.015981674194, -0.066822752357, 0.004570610356, 0.070861279964, -0.173418372869, 0.191598773003, 0.022698491812, 0.075148425996, 0.008200475015, -0.043400403112, -0.039915148169, 0.019988659769, 0.041849445552, -0.196384489536, 0.022826591507, -0.052548028529, 0.101842641830, -0.072045795619, 0.086121179163, 0.102625273168, 0.055623263121, -0.018252758309, 0.154573410749, 0.234682083130, 0.093482397497, -0.062795035541, -0.083517611027, 0.117718361318, -0.167303889990, -0.203195050359, -0.046563524753, 0.040159873664, -0.035784382373, 0.104527533054, -0.106848426163, -0.250852793455, 0.042092829943, 0.124157696962, -0.032515298575, 0.039897434413, 0.036907173693, 0.076110176742, 0.087752893567, -0.033959917724, 0.054240450263, -0.032563652843, 0.063975922763, 0.030295580626, -0.018762907013, -0.044192403555, -0.125402733684, 0.065144576132, 0.047326833010, -0.059343121946, 0.007241392508, 0.082026176155, 0.047793429345, -0.079337865114, 0.088794484735, -0.161284819245, -0.079625561833, 0.077492699027, 0.156023114920, 0.242256850004, 0.053828362375, -0.094748966396, -0.039409883320, 0.079349152744, -0.108961537480, 0.138848617673, -0.102165862918, 0.022485870868, -0.100877478719, 0.123732030392, 0.083175949752, 0.090015791357, -0.068580418825, 0.009960151277, 0.112078376114, -0.126136809587, 0.108406633139, 0.062137238681, 0.179940089583, 0.064053192735, -0.004404316656, 0.040194064379, 0.156015828252, -0.055488321930, 0.041417900473, 0.007827931084, -0.006260164082, -0.037373032421, 0.070697292686, 0.025169214234, -0.038710542023, 0.030669605359, 0.160976126790, 0.044179301709, -0.171303853393, 0.005609869957, 0.089846558869, -0.183669790626, -0.034567624331, -0.089797310531, 0.026511872187, -0.073763035238, 0.090000785887, -0.093220368028, 0.097956806421, 0.015037477948, 0.014986746013, -0.089167684317, -0.095281548798, 0.070168793201, 0.064645737410, -0.109494604170, 0.075540333986, 0.099217690527, 0.040548522025, -0.335896790028, 0.179440438747, 0.137243792415, 0.058447640389, 0.124125279486, 0.076776213944, 0.071041151881, -0.003875311464, 0.074017792940, -0.102046646178, 0.028098613024, 0.033579599112, -0.072494022548, 0.040881045163, -0.138990134001, 0.022317970172, 0.171175494790, 0.074140787125, -0.138814583421, 0.134316757321, 0.092527657747, -0.092539198697, 0.135433375835, 0.103920541704, 0.085258699954, -0.107605203986, -0.015304929577, 0.110549010336, -0.031536474824, -0.063387453556, 0.100744269788, -0.019250841811, 0.035723954439, -0.041822593659, 0.092153094709, 0.086593925953, 0.026254922152, 0.052836358547, 0.030017610639, 0.041708443314, 0.052689194679, 0.069202534854, 0.032984349877, 0.061367254704, -0.106956012547, 0.002278896281, -0.008641212247, 0.035188257694, -0.014824727550, 0.113090455532, -0.040027551353, -0.134814649820, 0.031860053539, 0.090461015701, -0.180123597383, -0.098879508674, -0.106256365776, -0.367566317320, 0.147041469812, 0.112484298646, 0.188779249787, 0.069035798311, 0.032479260117, -0.086309596896, -0.046738449484, 0.056008856744, 0.063349284232, 0.041707348078, 0.044956762344, 0.056714683771, 0.080473065376, 0.084416881204, -0.013369581662, -0.070331014693, -0.086360007524, 0.106326960027, -0.165740385652, 0.112470343709, -0.108314096928, 0.127153620124, 0.055266179144, -0.024757640436, 0.089584261179, -0.073909625411, 0.089741572738, -0.035678237677, 0.022666389123, -0.108140021563, -0.037360481918, 0.190585538745, 0.027812987566, 0.052422445267, 0.020662656054, -0.032662540674, 0.127877399325, 0.087686255574, 0.010628353804, 0.066108673811, 0.023802118376, 0.061498738825, -0.004309264012, -0.013340383768, -0.030792057514, 0.009649306536, 0.092884704471, -0.365667283535, 0.006804632489, 0.039322350174, -0.031419608742, -0.037796691060, -0.109178371727, 0.034882619977, -0.244119673967, -0.129741936922, 0.063044987619, 0.004381213803, -0.124844253063, 0.074803538620, -0.080057665706, 0.110170006752, 0.076915204525, -0.092292524874, 0.068243026733, 0.111188381910, -0.063538730145, -0.107932433486, 0.058111339808, -0.055640131235, 0.019302677363, 0.135763362050, 0.025863463059, 0.069615297019, 0.017759788781, 0.140716031194, 0.026460062712, -0.055532723665, -0.092882983387, 0.045997526497, 0.095737941563, 0.034015443176, 0.013381112367, 0.021598059684, -0.013086996973, -0.097216553986, -0.137175351381, 0.024462895468, 0.022253094241, 0.060305029154, -0.032592292875, -0.015469417907, -0.019039480016, -0.069154746830, -0.074091434479, 0.037712819874, 0.121569246054, 0.037925571203, 0.041408032179, 0.041274454445, -0.070240624249, 0.147616118193, 0.142877563834, 0.022414337844, 0.004970696289, -0.003733472200, 0.139924809337, 0.132396042347, 0.147753566504, 0.004183481447, -0.033544212580, -0.222376853228, 0.079863674939, 0.127063810825, -0.116786517203, 0.059848792851, -0.091780744493, 0.054844666272, -0.022711127996, 0.091633476317, -0.076498642564, -0.088511958718, -0.042419407517, -0.086577937007, 0.010163679719, -0.235895052552, -0.000630706549, -0.108241051435, -0.048798121512, -0.001948109595, 0.187986776233, -0.115244440734, -0.084412090480, 0.078222781420, 0.076489403844, 0.073329940438, 0.039948444813, 0.027323145419, -0.440768450499, -0.104832053185, 0.082873977721, 0.104490295053, -0.046601988375, 0.239299938083, -0.006011062767, 0.098141752183, 0.080279827118, -0.005153100472, 0.176166951656, -0.077805615962, 0.120581381023, 0.099949210882, 0.127057641745, -0.064937807620, -0.136668637395, -0.140426367521, -0.013921036385, -0.002037166618, 0.022147078067, 0.065341502428, -0.113596104085, -0.039555318654, 0.006035627797, 0.135523080826, -0.010355095379, -0.050830706954, 0.106964834034, -0.073426440358, -0.071824371815, -0.008925699629, 0.253634512424, -0.080638423562, -0.023654980585, 0.151007562876, 0.057753160596, 0.120222754776, 0.116945460439, -0.059850685298, 0.078149430454, -0.106328248978, 0.207366734743, 0.112839661539, -0.122458592057, 0.105779469013, -0.041006382555, 0.095018044114, -0.034591622651, -0.057527843863, -0.029657455161, -0.024009382352, -0.091862000525, -0.183998256922, -0.047780562192, -0.017049763352, 0.086526207626, -0.116327531636, 0.098853632808, 0.004815348890, -0.017833895981, 0.085850112140, -0.148262619972, -0.034374635667, -0.045279465616, 0.050777524710, -0.127418816090, 0.070281602442, 0.074805632234, -0.012256602757, 0.089632689953, 0.067464746535, 0.052704498172, -0.091261409223, -0.056278947741, 0.095613941550, -0.089477755129, -0.001814573654, 0.031193971634, -0.097370862961, -0.062146961689, -0.074010558426, -0.076949834824, -0.032464638352, 0.087201021612, -0.011169408448, -0.049620956182, -0.096878007054, 0.011661536992, 0.104249343276, -0.024557961151, 0.058400463313, -0.002115994692, -0.025683600456, 0.029155708849, -0.010215342045, -0.117346018553, -0.032126791775, -0.030660683289, 0.044776696712, 0.005877107382, -0.018176676705, -0.088019296527, -0.077194817364, -0.085907846689, -0.039436273277, -0.007647668477, -0.086722433567, 0.034662254155, -0.092727877200, 0.056370988488, -0.011349218898, -0.094011321664, -0.098530799150, 0.002391878283, 0.058700975031, -0.070100270212, -0.049663241953, 0.089957356453, -0.079194590449, 0.077015317976, -0.096183180809, -0.149413779378, 0.104256182909, -0.011815093458, -0.053731352091, -0.090261869133, 0.019608369097, -0.097408719361, 0.053445603698, 0.074321627617, -0.063605502248, 0.008777497336, 0.080185532570, -0.106127634645, -0.004063534085, -0.059898365289, 0.052937164903, -0.011231839657, 0.129831075668, 0.063370518386, 0.122422404587, 0.077079884708, 0.002556562424, -0.070793151855, 0.086702406406, -0.036918394268, 0.110018491745, 0.011570348404, 0.065978534520, 0.103941023350, 0.031284369528, 0.093401633203, -0.013084259816, 0.108141809702, 0.078930236399, -0.088378496468, -0.062845684588, 0.049197059125, 0.049686964601, 0.075551480055, -0.010172724724, -0.012661844492, -0.044034779072, -0.094265669584, -0.180605560541, -0.047642730176, 0.071159012616, 0.125332891941, -0.124706156552, -0.102953813970, -0.065712966025, -0.139490276575, -0.000665539934, 0.004187098239, 0.049175187945, -0.063487291336, 0.095695175231, 0.043232444674, -0.093210309744, -0.084172308445, 0.088554501534, 0.062125656754, 0.022753296420, 0.060999840498, 0.070783816278, -0.096021883190, -0.100111201406, -0.083213925362, 0.095435120165, -0.037130534649, 0.105786822736, 0.086559757590, -0.061725702137, -0.093618564308, 0.061928678304, 0.143046781421, -0.024212537333, -0.039954185486, -0.127901613712, 0.049296781421, -0.080289304256, -0.138093575835, -0.086153477430, 0.025063009933, -0.170213907957, -0.104257538915, -0.118758589029, -0.102780357003, -0.075365193188, -0.043842162937, 0.080572232604, -0.017540693283, -0.060058392584, -0.025486916304, -0.073748670518, 0.169127076864, -0.022700134665, 0.110475569963, 0.036606445909, -0.080039128661, 0.053278904408, 0.146972730756, 0.103225193918, -0.076047755778, 0.069602318108, -0.065099716187, -0.079538874328, 0.050866909325, -0.092509068549, -0.041733875871, -0.129305750132, 0.024346828461, -0.012760609388, -0.072552919388, 0.058234766126, -0.114636875689, 0.008349804208, 0.034846261144, -0.045389294624, 0.033220268786, -0.013667788357, -0.099789090455, 0.144277483225, -0.078979551792, -0.069950312376, -0.006641528569, 0.116767987609, -0.118158921599, -0.068644501269, 0.022149004042, -0.077257461846, -0.028311058879, 0.068973794580, 0.022552987561, -0.115240670741, 0.024610290304, -0.103360787034, -0.091566175222, 0.091515280306, 0.122690312564, 0.036650389433, 0.042946934700, -0.223939329386, 0.097341530025, 0.058316655457, 0.043276537210, 0.036884948611, -0.064520053566, -0.000750962587, -0.000596651516, 0.084302932024, -0.088763587177, -0.125505968928, -0.096228778362, -0.006306427531, 0.071874685585, 0.012643371709, 0.027357671410, -0.060023520142, 0.110800094903, 0.047470711172, -0.075599312782, -0.074084289372, 0.130777776241, -0.045535016805, -0.120836138725, -0.076521247625, -0.091141603887, 0.010828998871, -0.075410850346, -0.193031653762, 0.056369949132, -0.040700234473, -0.001959811896, 0.029682742432, -0.020262420177, -0.058603700250, -0.169373735785, 0.096693560481, 0.076292410493, 0.052894029766, 0.004172003362, 0.061401817948, -0.017249433324, 0.066644728184, 0.030175969005, 0.054822646081, -0.032310754061, 0.044147513807, -0.133160263300, -0.049534548074, 0.108098328114, -0.078931301832, 0.039795789868, 0.048198822886, -0.118895232677, 0.047408048064, -0.096912361681, 0.017974138260, -0.080141507089, 0.012453079224, 0.039658632129, -0.031159553677, -0.070078231394, -0.081850081682, 0.106191784143, -0.119161807001, -0.004230990075, -0.038334015757, 0.030763382092, -0.071173027158, -0.061511956155, 0.000550835393, 0.091072261333, -0.056897699833, 0.030532598495, 0.078736923635, -0.099276758730, -0.091072469950, 0.101143166423, 0.168641403317, 0.101268075407, 0.065509282053, -0.112185068429, 0.065963350236, -0.081395566463, 0.027892159298, -0.152476981282, -0.063274070621, 0.073846921325, -0.124216966331, -0.020701967180, -0.181996911764, 0.007253274322, 0.248446106911, -0.011874968186, -0.080552555621, 0.002248479286, -0.026400040835, -0.042763307691, -0.041969537735, -0.011390752159, -0.098773315549, -0.130025714636, 0.019987378269, 0.065344646573, 0.011866209097, 0.041138187051, -0.036000151187, 0.110332801938, 0.088471621275, -0.101207040250, -0.108980327845, 0.052985757589, -0.062235157937, 0.091551914811, -0.084943339229, 0.001046718564, -0.097165256739, -0.077037557960, -0.012496060692, 0.014553321525, -0.065704353154, -0.037377834320, -0.393593132496, 0.100841514766, 0.210846632719, 0.128221035004, -0.028486886993, -0.211374402046, 0.000511213380, -0.029653482139, 0.000789831916, -0.075289733708, 0.027249708772, 0.072543144226, -0.083345375955, -0.137793317437, 0.064934819937, 0.034290682524, -0.023477137089, 0.112156219780, -0.016059292480, -0.079190790653, 0.055548619479, -0.075461402535, -0.207282885909, 0.021828031167, -0.040179055184, -0.068428002298, -0.025101169944, -0.054810661823, -0.006104594562, -0.034943822771, 0.100803516805, -0.000372609036, -0.149914830923, -0.012742892839, -0.047309964895, -0.024748595431, 0.008200288750, 0.059597097337, -0.096410356462, 0.016764031723, -0.011712257750, -0.001411967678, -0.011964330450, 0.077482648194, 0.056725829840, 0.094982869923, -0.016743762419, -0.048072732985, 0.001481537940, -0.010270426981, 0.081267543137, -0.105572648346, 0.076688341796, 0.135656520724, -0.002977688797, -0.133893534541, 0.041451282799, 0.116990342736, 0.026381868869, 0.044549971819, 0.085674107075, -0.306957095861, -0.031076537445, -0.026915818453, 0.057737614959, -0.190819680691, 0.078513495624, 0.033925041556, 0.122398823500, 0.014349089004, 0.038847088814, -0.111973352730, 0.153429508209, -0.033832896501, -0.134819090366, 0.010471106507, 0.023275537416, -0.175043806434, 0.006473891437, 0.001203958993, 0.016444338486, -0.146927222610, -0.016153015196, -0.016216374934, -0.038189508021, -0.071434892714, 0.013117128052, -0.365686476231, -0.039888706058, 0.004052775912, -0.177506804466, 0.060674700886, 0.052420422435, -0.080390647054, -0.154549419880, -0.305397510529, 0.056804925203, -0.130476430058, -0.026296405122, 0.136124864221, -0.082177512348, 0.010187064297, 0.010965787806, -0.473986268044, -0.031889416277, 0.078049696982, -0.176148578525, 0.140781477094, 0.052112624049, -0.005704648793, -0.060503661633, -0.003288864391, -0.012921084650, -0.091697499156, -0.177309632301, -0.045514672995, -0.004131506197, -0.074940912426, 0.034191224724, -0.117752365768, -0.025519901887, -0.001237676595, 0.082669988275, -0.041511967778, -0.029118290171, 0.056143306196, -0.099802218378, -0.046589404345, 0.099275007844, -0.086995087564, -0.072279013693, 0.042262658477, 0.531331956387, -0.035219155252, -0.240126207471, 0.140373662114, 0.031352415681, 0.023433974013, -0.025110183284, 0.095265857875, -0.011047091335, -0.072675935924, 0.115194380283, 0.048954818398, -0.056450761855, 0.090269945562, -0.026097837836, -0.050105448812, -0.163661912084, -0.039246417582, 0.149771302938, -0.105397976935, 0.130335494876, -0.095418795943, 0.103620126843, -0.084812022746, -0.051102705300, -0.095534853637, -0.049921102822, -0.245571255684, -0.223358660936, 0.100200526416, 0.053891424090, -0.063929662108, 0.066797114909, -0.092364393175, -0.275861948729, -0.093452468514, 0.103264883161, -0.148049280047, -0.163432002068, -0.094773337245, -0.149854183197, -0.210918799043, 0.062621645629, 0.168762892485, -0.007956263609, -0.063661299646, 0.062785387039, 0.055788025260, -0.009637715295, 0.160657182336, -0.067490532994, -0.018191996962, 0.033726893365, 0.117530755699, -0.099580302835, -0.047251999378, 0.006767582614, -0.027964323759, 0.012138372287, -0.044932682067, -0.001191860647, 0.027964714915, -0.012450736016, -0.123916804790, -0.121673114598, -0.155011177063, -0.104111455381, 0.045386213809, -0.023855620995, -0.077735163271, 0.050048433244, 0.260122478008, -0.115729376674, -0.104191340506, -0.318659782410, 0.107932180166, -0.121632888913, -0.063147902489, 0.048543978482, -0.693700313568, -0.045239146799, 0.003046333790, 0.163622051477, 0.064729906619, 0.017636833712, -0.121034875512, 0.072028316557, 0.066149652004, -0.099628910422, -0.038417104632, -0.109843909740, -0.160755977035, -0.324147343636, 0.014755920507, -0.489215970039, -0.101269036531, 0.002992478665, -0.015887102112, -0.202936798334, -0.085190378129, 0.512778937817, 0.081016063690, 0.015890523791, -0.082744836807, -0.060640558600, -0.072021618485, -0.176362633705, 0.151995867491, 0.017189631239, 0.001578508993, 0.001158038736, -0.003375042928, 0.076135560870, 0.251035302877, 0.261377394199, 0.030550692230, -0.059057544917, -0.150817871094, -0.026472628117, -0.073406703770, -0.085902333260, -0.065814658999, -0.096649259329, -0.100751437247, -0.138696029782, -0.415424853563, 0.086406394839, -0.184271782637, -0.024630654603, -0.786881864071, 0.040143009275, 0.117918938398, -1.075312495232, -0.021222798154, 0.086890883744, 0.257796674967, -0.138832062483, -0.081038422883, -0.106515817344, 0.066602207720, -0.052384700626, 0.142676785588, -0.039228949696, 0.031079605222, 0.000312709948, -0.045542746782, 0.073701582849, 0.109677255154, -0.473022520542, -0.522127747536, 0.022437451407, 0.013253890909, -0.076533466578, 0.010184240527, 0.121673539281, 0.177043393254, -0.072618551552, 0.104659877717, 0.120642691851, 0.059810448438, -0.117988482118, -0.123428210616, 0.136323466897, -0.027693886310, -0.031690601259, -0.231350973248, 0.068768203259, -0.816707789898, -0.047792527825, -0.909867763519, 0.087255626917, -0.011049509048, 0.178314581513, -0.175908610225, -0.039967447519, 0.022402554750, 0.014192402363, -0.072036631405, -0.930631101131, -0.002287477255, -0.059119850397, -1.966887116432, -0.093510031700, -0.051496256143, 0.086993969977, -0.554694473743, -0.044192180037, -0.135612905025, -0.015949798748, 0.217067912221, 0.165602341294, -0.227350264788, 0.279397189617, -0.201177746058, -0.088663406670, -0.795795023441, 0.254743516445, -0.018966773525, 0.078855901957, -0.212173655629, 0.243295863271, -0.122972466052, 0.060384124517, -0.379381328821, -1.204759836197, -0.005842785817, -0.039987746626, -0.060339082032, -0.136996790767, 0.086108922958, -0.111689396203, -0.711795151234, -0.159170955420, 0.087964423001, -0.850847184658, -0.543521225452, 0.311815530062, 0.114338964224, 0.017369236797, -0.288090169430, -1.420478940010, -0.118970282376, 0.147765368223, -0.017014786601, -0.581596076488, -0.183385595679, -0.395705610514, -0.689911246300, 0.116537816823, -0.144096940756, 0.081803768873, -0.128354340792, -0.103268399835, -0.345482707024, -0.040616486222, 0.098072357476, 0.123934000731, -0.284115672112, -0.319444090128, 0.105121523142, -0.098941363394, -0.040184006095, -0.009885754436, -0.096128895879, 0.047708064318, -0.080455057323, 0.028932452202, 0.006265108939, -0.302573382854, -0.200967133045, -0.120991729200, -0.228112399578, 0.029597768560, -0.176574513316, -1.550994396210, -0.845833361149, 0.139756873250, -0.019866446033, 0.672625899315, -0.149021312594, -0.035836268216, 0.043884713203, 0.205100223422, -0.194216281176, 0.025949265808, 0.038003567606, -0.116308487952, -0.177092775702, 0.195634588599, 0.030823769048, -0.580465972424, 0.156792223454, 0.009010351263, -0.118253603578, -0.364358365536, 0.030600357801, -1.099272370338, -0.049619168043, -0.031030723825, 0.011769409291, 0.034699592739, -0.020310332999, -0.487563431263, -0.001017135684, 0.008827279322, -0.126579627395, -0.058570627123, 0.083119079471, -0.117476560175, -0.015848837793, -0.048801328987, -0.611343860626, 0.051066964865, -0.585723817348, -0.005522809923, -0.006878214888, -0.382627040148, -0.661277890205, -0.171845614910, -0.821123301983, -0.330355733633, -0.116526372731, 0.038336947560, 0.098422974348, -0.023047180846, 0.437565684319, -0.101554334164, 0.015035021119, 0.080683268607, 0.002088095294, -0.105289600790, -0.210215806961, -0.219589471817, -0.082116149366, 0.101707786322, -0.055218596011, -0.504092574120, -0.001431049546, -0.624883234501, 0.016078341752, 0.511603295803, 0.099467240274, -0.128116950393, 0.009460607544, -0.197523772717, -0.043847799301, -0.027439177036, -0.515588164330, 0.010816391557, -0.086200535297, -0.010492062196, 0.028224885464, -0.390856981277, 0.402211397886, -0.072452455759, 0.069365374744, -0.064218997955, -0.123823314905, -0.011749019846, 0.069482199848, 0.024914273992, -0.123462393880, -0.069466024637, 0.089497685432, -0.081075094640, 0.056414812803, -0.018186595291, -0.192044615746, -0.075179584324, -0.103142738342, -0.205499783158, 0.070741355419, -0.081506118178, 0.120078511536, 0.061323329806, 0.005919127725, 0.140815511346, -0.121584333479, 0.035374477506, 0.068313062191, -0.035716220737, 0.061277795583, -0.123554162681, -0.063532866538, 0.059032581747, 0.029727319255, 0.019556019455, -0.010464414954, 0.020425075665, -0.168924629688, 0.034351211041, 0.128507629037, -0.061856079847, -0.082989707589, -0.103750579059, -0.052789416164, 0.026291640475, 0.001777407131, 0.092467278242, 0.010614573956, 0.006912827957, 0.210321784019, -0.049016196281, 0.020476873964, 0.099808596075, 0.053852841258, 0.065053753555, -0.002673355164, 0.230493485928, 0.094320699573, 0.019619857892, 0.052848689258, 0.059611137956, -0.131866306067, -0.126137554646, 0.082670457661, 0.013298301026, 0.006648783106, 0.043962862343, 0.155546396971, -0.179043829441, -0.026948541403, -0.194884911180, 0.048880275339, 0.025602310896, 0.147762387991, -0.090397126973, 0.004846874624, 0.008898466825, 0.051311876625, 0.019340235740, -0.149717196822, 0.019973983988, 0.058971606195, 0.059345394373, 0.073727823794, 0.095569461584, -0.163312241435, 0.013256749138, 0.011664913967, -0.104988239706, 0.137708842754, 0.071806147695, -0.016887022182, -0.064882703125, 0.006480199751, -0.256806641817, -0.010412046686, -0.006737560965, -0.016128046438, 0.027372257784, 0.015042557381, -0.101678222418, 0.045946802944, -0.001931019709, -0.005574375391, 0.003747416427, -0.058902125806, -0.035129237920, -0.016636228189, 0.060225218534, -0.026761349291, 0.041246246547, 0.090317688882, 0.006245588418, 0.060855165124, 0.019245227799, -0.127968564630, -0.117061316967, -0.005167306401, -0.283578991890, 0.072026804090, 0.016668591648, 0.114316806197, -0.062148243189, -0.086050108075, 0.047960821539, 0.093854874372, 0.019253810868, 0.072415761650, 0.006293160375, 0.113339252770, 0.061799366027, -0.013916397467, 0.073622368276, 0.050899613649, 0.135264784098, 0.024329537526, -0.053640183061, -0.028713921085, -0.192882552743, -0.140699759126, -0.123400636017, 0.010266121477, 0.071956962347, -0.030817901716, 0.117332197726, -0.041324838996, 0.076378032565, 0.107434526086, -0.030354207382, -0.224024087191, 0.032396920025, 0.088377326727, -0.122279107571, -0.177659094334, -0.016858894378, -0.020822063088, -0.064560331404, -0.019123209640, -0.063569582999, -0.006911235396, -0.057846911252, -0.045063521713, -0.170543029904, 0.035406947136, -0.053526729345, 0.064237132668, -0.102517448366, 0.035542167723, 0.034289062023, -0.049810677767, 0.121993541718, -0.159798875451, -0.003386412514, -0.063793629408, -0.037313252687, -0.013450088911, -0.001975310035, -0.053305134177, -0.008503548801, 0.090315006673, 0.094422012568, -0.095007099211, 0.035373400897, 0.053881853819, -0.002189951483, 0.102468565106, -0.142870858312, 0.119471676648, -0.136840745807, 0.012785990722, 0.060622498393, -0.135769605637, 0.086539998651, -0.102346584201, 0.220554053783, 0.086710169911, 0.003329397878, -0.072908908129, -0.178650081158, -0.002962491009, -0.162554696202, 0.070781886578, 0.000725371938, -0.046039488167, -0.117536790669, -0.096982091665, 0.024005677551, -0.029512826353, 0.054276924580, 0.100276246667, -0.014306769706, 0.069869853556, 0.064819894731, -0.029727689922, 0.190120860934, -0.122810743749, 0.078015223145, -0.021236456931, -0.122621610761, 0.025937903672, -0.076789811254, -0.015562896617, -0.068740144372, 0.046678151935, 0.048049651086, -0.063783697784, -0.128089874983, 0.008864462376, -0.014913306572, -0.059053782374, 0.007955042645, 0.020953318104, -0.010179905221, 0.024797223508, 0.051911942661, 0.120794080198, -0.009254498407, -0.127971664071, 0.058213569224, -0.006114454940, -0.159458562732, -0.096653237939, 0.009654432535, -0.016865449026, 0.017656816170, -0.120080143213, -0.103953920305, -0.019905660301, 0.028527673334, -0.001755504170, 0.090576037765, -0.098268344998, -0.049269668758, -0.122243404388, -0.003490161849, -0.024554848671, -0.068356402218, -0.030682271346, 0.086574338377, -0.701214671135, -0.400178283453, -0.098840288818, -0.134125113487, -0.062957592309, -0.033771272749, -0.129017710686, -0.070499219000, -0.125448718667, -0.136841952801, -0.022345861420, 0.039636515081, 0.399239271879, -0.194649606943, -0.011010451242, -0.272888362408, -0.026928000152, -0.091331623495, -0.088539242744, -0.043144326657, 0.001238925266, -5.543194770813, 0.042316529900, -0.037923969328, -0.199428141117, 0.094792395830, -0.036210734397, 0.229289919138, -0.047355026007, -0.050064325333, 0.243269801140, -0.046912051737, -0.143343001604, 0.015669250861, 0.087063603103, -0.081862248480, 0.039357855916, -0.006748464424, -0.234360218048, 0.025621712208, -0.944822847843, 0.038765795529, -0.000600153522, -0.062024749815, 0.019435424358, -0.091067560017, -1.301320433617, -0.212236642838, 0.504260361195, -0.981515049934, 0.073668174446, -0.082985684276, 0.019618926570, -0.022800605744, -0.132024303079, -0.104945011437, -0.274979531765, -0.033177059144, -0.011152715422, -0.008703405969, 0.002715709386, -0.015644101426, -0.460493654013, -0.237542971969, -0.070574663579, -0.520762801170, -0.077290356159, 0.020914990455, -0.083641432226, 0.201825410128, 0.248793452978, -0.019663320854, -0.002423004014, -0.077137559652, -0.633698880672, -0.048935320228, -0.218381822109, -0.019064994529, -0.507002651691, -0.124569498003, -0.626972258091, 0.425715208054, -0.024475097656, -0.478215485811, -0.183780059218, -0.020481154323, -0.087776131928, 0.021203953773, -0.194212824106, -1.357682466507, -0.182993546128, -0.119581840932, -0.147679820657, -0.088773608208, -0.118624269962, -0.090683817863, -0.081002704799, 0.051254048944, 0.068917654455, 0.201703026891, -0.033446561545, -0.154146611691, 0.171442136168, -0.146737962961, -0.216849207878, -0.051882769912, -0.037456139922, -0.072304949164, -0.140974238515, 0.094015210867, -0.203146457672, -0.262765675783, -0.078958772123, 0.095428258181, -0.699143946171, -2.001035690308, -0.308430790901, -0.387625217438, 0.194703280926, -0.019068198279, -0.333541929722, -0.800819218159, 0.274514168501, -0.079366534948, 0.147391408682, -0.245852530003, -0.092492885888, -0.180317774415, 0.031725559384, -0.037747185677, -0.118734903634, -0.622285246849, 0.643811166286, -0.234224960208, 0.024328406900, -0.781924068928, 0.120654866099, -0.107490219176, -0.109998479486, -0.238696947694, -0.012335667387, -0.092542611063, -0.088925056159, -0.045359887183, 0.004367110785, -0.010745361447, -0.122397400439, -0.117456287146, 0.257873535156, 0.034425925463, 0.066015534103, -0.340299844742, -0.012997647747, -0.046849109232, 0.223489701748, -0.044177036732, -0.110533520579, 0.007435877807, -0.054988693446, 0.290502220392, -0.105901092291, -0.146365508437, -0.003533351468, -0.093922443688, -0.633781313896, -0.028217313811, -0.006460073404, -0.052955985069, -1.486285805702, -0.031753338873, -0.156943440437, -0.117131844163, 0.361388653517, -0.038889493793, -0.299024224281, -0.099942803383, 0.159916639328, 0.348366141319, -0.107926130295, 0.206846177578, -0.595946133137, -0.168327525258, -0.079152449965, -0.108136430383, -0.144080698490, -0.056086767465, 0.024532610551, -0.051794301718, 0.010141847655, -1.176825046539, -0.110401786864, -0.527763366699, -0.446721673012, -0.106735363603, -0.014842042699, -0.108886152506, -0.168487578630, 0.268150418997, -0.031831987202, -0.219292342663, -0.188945949078, -0.198012068868, -0.059625755996, -0.061100561172, -0.152172863483, 0.199737206101, -0.425382643938, -0.169453933835, -0.146842971444, -0.014116507955, -0.078229933977, 0.059103075415, 0.237199246883, -0.039531644434, -0.810306191444, 0.014793598093, 0.027416458353, 0.115989416838, -1.078695654869, -0.051291424781, -0.083467058837, -0.474125206470, -0.056731406599, 0.064016915858, -0.044498234987, -0.553414702415, -0.260172367096, 0.044495385140, 0.285423338413, -0.402700185776, -0.065583102405, -0.003266793909, -0.393237203360, -0.197479143739, -0.000579218322, -0.448397368193, -0.107894599438, -0.415010035038, -0.004240455106, -0.145207822323, -0.125776529312, -0.028474137187, 0.042134154588, -1.131520271301, -0.049564622343, -0.042404927313, -0.929920673370, -0.048535559326, -0.129357248545, -0.086402133107, 0.019941544160, -0.032262638211, -0.165749356151, -0.054274514318, 0.129784956574, -0.135900139809, -0.055627837777, 0.053637765348, 0.060087442398, -0.084895096719, -0.042508691549, -0.072440505028, -0.070253387094, -0.041939623654, -0.104443073273, -0.120051823556, -0.080648131669, 0.006869405508, 0.006250590086, -0.107209667563, -0.100354522467, 0.115657538176, -0.112967848778, 0.008864372969, 0.026829868555, 0.053281582892, -0.110257305205, -0.020241418853, 0.015941696241, -0.091441780329, -0.113718017936, -0.062758103013, -0.027297748253, -0.066111862659, 0.057645600289, -0.061025232077, -0.072282016277, -0.110810920596, 0.033943265676, 0.085568979383, -0.058043658733, 0.053532332182, 0.093523316085, 0.097479730844, -0.003814463038, 0.085321068764, 0.045202285051, 0.088057518005, -0.037481632084, 0.080282509327, -0.103285044432, 0.065388709307, -0.070857211947, 0.056044124067, -0.073389358819, -0.078182905912, 0.062104459852, 0.114486277103, -0.071891598403, -0.023053854704, -0.054770171642, -0.068974241614, 0.018835062161, -0.017092037946, -0.009723246098, -0.123096257448, 0.038862716407, -0.009528649971, 0.015022052452, -0.079833254218, 0.117546364665, 0.040161583573, 0.102460026741, 0.070085115731, -0.097336441278, -0.098140209913, 0.095087632537, 0.033536210656, 0.033202648163, -0.089737385511, 0.079425558448, -0.119374804199, -0.077191419899, -0.029554426670, -0.122063666582, 0.115038424730, 0.013865920715, -0.100764155388, -0.120819643140, -0.127675950527, 0.063845880330, -0.057141844183, 0.117515593767, -0.027019891888, -0.034621179104, 0.097564391792, 0.018757594749, 0.088025733829, -0.051228195429, -0.075292237103, -0.127092376351, -0.050499469042, -0.070652395487, 0.018960803747, -0.018871318549, 0.031630486250, -0.026886463165, -0.007598079275, 0.094371020794, -0.001320042415, 0.025736417621, 0.030861204490, -0.077198609710, -0.072211630642, 0.103311613202, -0.013928177767, 0.106912113726, -0.116912201047, 0.086412645876, 0.096871592104, 0.032635204494, -0.060354501009, -0.021409761161, 0.089987941086, 0.081699788570, 0.096528023481, 0.076691664755, -0.102737791836, 0.019052326679, 0.045604705811, -0.083075575531, -0.036753594875, 0.037171345204, 0.071032315493, 0.040854029357, 0.011022934690, -0.046050697565, -0.076200217009, -0.100799083710, 0.031507849693, -0.000941477076, 0.098078101873, -0.077015370131, -0.033191204071, -0.079178780317, 0.003969266545, 0.117609083652, 0.127683535218, 0.113062381744, -0.048556309193, 0.031540259719, -0.022490978241, 0.105859041214, -0.090920552611, 0.124930202961, -0.112123221159, -0.072195202112, -0.001582928002, 0.045753508806, -0.057531900704, -0.029241673648, 0.067591711879, -0.105848774314, -0.105530291796, 0.105371244252, 0.076013863087, -0.105329722166, -0.058781951666, 0.052298247814, -0.078114025295, -0.093584775925, -0.040740698576, -0.113952778280, -0.037877529860, -0.051973450929, 0.013871114701, -0.069001674652, 0.034187532961, 0.017447888851, 0.049597620964, -0.000118994336, -0.042966943234, 0.032035261393, 0.008843828924, 0.100180655718, -0.068096421659, 0.113631725311, -0.094004511833, 0.058142282069, 0.034951336682, -0.028107393533, 0.112003266811, -0.059267140925, -0.056132782251, 0.077706187963, 0.037148721516, 0.076688379049, 0.115825310349, -0.089698791504, -0.003790438175, -0.100280359387, 0.008690741844, -0.045088041574, -0.061196517199, 0.100907057524, -0.114740431309, -0.105502098799, -0.056440472603, -0.109947532415, -0.072835527360, -0.043890118599, -0.047472715378, 0.053332738578, -0.057274490595, -0.087588489056, 0.020961590111, -0.121195770800, 0.073516845703, 0.083124659956, 0.114564180374, 0.001948744059, -0.026744753122, -0.041427403688, 0.088956952095, 0.058395907283, -0.086841307580, 0.091394156218, 0.109471738338, 0.021636605263, -0.072425171733, -0.047871649265, -0.088822782040, -0.004675400909, -0.070558533072, 0.099316775799, 0.062982566655, -0.080670110881, -0.038358606398, 0.094819828868, -0.063232183456, 0.044202189893, 0.004021289293, 0.029986781999, -0.119945526123, 0.003922628704, -0.107904314995, 0.014173092321, -0.017817694694, -0.003454327583, 0.118180818856, -0.050050556660, 0.005708769895, 0.005398613866, -0.004456669092, 0.086648821831, 0.063205868006, 0.060170084238, 0.011674970388, 0.004581034184, 0.052199505270, -0.023739522323, -0.042130168527, 0.081404380500, -0.022617502138, 0.013898049481, -0.085443653166, 0.164344280958, 0.021397816017, 0.060441751033, 0.055800169706, 0.013685932383, 0.082105644047, -0.049968004227, -0.049382008612, -0.120940357447, 0.102317281067, 0.026485931128, -0.033916581422, -0.088229149580, 0.129750102758, 0.067056417465, 0.025467775762, -0.040567994118, -0.047335084528, -0.056671377271, -0.027399390936, -0.121690727770, 0.129975542426, 0.043428063393, 0.028885416687, -0.067628532648, -0.010382774286, 0.127977639437, 0.043336879462, 0.007940737531, -0.161030128598, -0.066892802715, 0.113081723452, -0.036250546575, 0.015818327665, 0.087060272694, 0.035051044077, -0.065755374730, 0.116217955947, 0.017727797851, 0.080713145435, 0.001189076109, -0.181178256869, 0.048101458699, 0.122847467661, -0.116693094373, -0.027310092002, -0.069959789515, 0.021924464032, -0.071126669645, 0.171597495675, 0.062716215849, 0.110126905143, 0.057176355273, -0.039904192090, -0.075078271329, -0.056246496737, 0.022782197222, 0.071931645274, 0.038689490408, -0.020352162421, 0.089620471001, 0.037519928068, -0.063731074333, -0.006323823705, 0.001507131383, 0.084148764610, 0.034788731486, -0.077221348882, 0.061529427767, 0.032388400286, -0.176377132535, 0.084852479398, -0.107584007084, -0.000496208668, 0.100575804710, 0.101084619761, 0.087484024465, -0.037487991154, -0.026310345158, -0.060308180749, -0.166158527136, -0.051613334566, 0.135947287083, -0.084759607911, 0.063238032162, -0.125290036201, -0.109461754560, -0.063883401453, -0.063436686993, -0.034302283078, -0.006680651102, -0.096115529537, -0.136542797089, -0.083702042699, 0.106702223420, -0.020239913836, -0.006983429193, 0.012871957384, -0.064312525094, 0.021756568924, -0.026035092771, -0.006653802004, 0.074868164957, 0.006805104204, -0.120347015560, -0.073894783854, 0.001997136278, -0.098130211234, 0.067031227052, -0.004403021187, 0.062042530626, -0.045109309256, -0.076089009643, -0.099572785199, 0.068007230759, 0.071713820100, -0.055845700204, 0.011182669550, 0.094201005995, -0.096784770489, 0.029347738251, 0.005013785791, -0.122299894691, -0.098053395748, -0.053798142821, -0.041343566030, 0.081858903170, -0.012415869161, 0.198653787374, 0.010081156157, 0.139025539160, 0.417953580618, 0.040837239474, -0.090149268508, -0.148683786392, -0.031544081867, 0.056762665510, -0.131146445870, 0.176046460867, -0.026527887210, 0.140320181847, 0.005259374157, 0.017000570893, 0.005955862813, 0.164533957839, -0.018135221675, -0.107608310878, 0.059259157628, 0.103693515062, -0.072402849793, -0.106751024723, -0.169269204140, -0.074624344707, 0.114922314882, 0.047245342284, 0.066047452390, 0.106746703386, -0.008597999811, 0.043615374714, 0.057270925492, -0.111281678081, 0.062508024275, 0.099579058588, -0.105220086873, -0.060426104814, -0.049732062966, -0.102630503476, 0.126972347498, 0.070491164923, 0.002845790004, 0.098117217422, -0.014753557742, 0.032875850797, -0.081409901381, -0.114501886070, -0.149534881115, -0.148525074124, -0.042231313884, -0.087217926979, 0.061527814716, 0.105626583099, 0.009377717972, 0.031348396093, 0.007899112999, -0.114291422069, 0.073310814798, -0.044849142432, 0.055134531111, 0.097549170256, -0.009866298176, 0.164913609624, -0.048741824925, -0.102615036070, 0.020547972992, 0.050464373082, -0.071225464344, 0.081239581108, 0.181064441800, 0.032556720078, 0.086089603603, 0.124044194818, -0.204945534468, 0.112349934876, -0.111287154257, -0.014671388082, -0.025551376864, -0.123207524419, -0.083259388804, -0.104946978390, 0.109997086227, 0.105491168797, -0.113663248718, 0.035781018436, 0.233812451363, 0.015355360694, -0.030704587698, 0.047010924667, -0.112426161766, -0.105729609728, -0.108219720423, 0.085270874202, 0.104340784252, 0.028275912628, -0.078253887594, -0.018682617694, 0.032425373793, 0.091946177185, 0.018295792863, -0.089158505201, -0.071599505842, -0.064830213785, 0.047000601888, 0.018056187779, 0.023529237136, 0.070906452835, 0.199302554131, 0.013292477466, -0.027973780409, 0.044993162155, 0.070582367480, 0.090838849545, -0.042479500175, 0.121016912162, -0.119205854833, 0.254706710577, 0.023858198896, 0.062765799463, 0.000060801245, 0.042626649141, -0.056672699749, 0.059076532722, 0.028313409537, -0.092190109193, 0.076161682606, 0.071832388639, -0.099549166858, 0.024830399081, -0.036353234202, -0.012407755479, -0.000912229414, -0.008167196997, -0.043634578586, -0.025043051690, -0.065998695791, -0.217688187957, -0.134625032544, -0.124120362103, -0.017607331276, 0.038723323494, -0.045572474599, 0.061209596694, -0.003741347697, -0.013949134387, -0.094685353339, -0.108025498688, -0.024441868067, 0.011646620929, -0.052379664034, 0.051809001714, -0.182951420546, -0.100297592580, -0.054714038968, 0.014449832030, 0.012069729157, 0.011910932139, -0.162398114800, 0.132260382175, -0.106631256640, 0.068247571588, 0.081170521677, 0.001125968527, -0.061687443405, -0.121472410858, -0.079076692462, -0.012278585695, -0.002669282258, 0.055406335741, -0.094674989581, 0.014576178044, -0.087720118463, -0.044292565435, -0.120753869414, -0.012875278480, 0.006635673810, -0.101332247257, -0.334857910872, 0.108587652445, -0.007823149674, -0.077462412417, 0.073357351124, -0.024465005845, -0.035822398961, 0.107291936874, -0.068191960454, 0.082558721304, 0.086659207940, 0.016011385247, 0.036236990243, 0.069267660379, -0.050965376198, 0.029080906883, 0.003842447186, 0.109567880630, 0.090101234615, -0.027947548777, -0.062760651112, 0.045091394335, 0.106530055404, 0.076397143304, -0.115170061588, 0.093616768718, 0.027644872665, -0.052424706519, 0.086612872779, 0.026718955487, -0.095834337175, -0.126658380032, 0.057252611965, 0.135456860065, -0.002487217309, -0.285103052855, -0.019489878789, 0.048602059484, 0.056791897863, -0.068858772516, 0.045444939286, 0.099861070514, -0.008402960375, 0.129912376404, 0.044018507004, -0.114585779607, -0.004902334418, -0.001096546650, 0.124699294567, 0.047733511776, 0.026823639870, 0.012326958589, -0.035968262702, 0.063133090734, 0.036925707012, -0.022446360439, 0.083940342069, 0.056500174105, 0.096135154366, 0.027371805161, -0.008130186237, -0.075287580490, -0.137255370617, 0.046300835907, -0.126651719213, -0.144944235682, 0.023378610611, 0.034787725657, 0.355335235596, -0.295000582933, 0.090605661273, 0.026413623244, -0.061981577426, 0.063585571945, -0.000657481491, 0.031251080334, 0.021984718740, 0.010542184114, -0.076107531786, -0.057735718787, -0.033581789583, 0.030055664480, -0.022580193356, 0.074025131762, 0.035835597664, 0.022939400747, -0.011211014353, -0.096799038351, 0.000681718520, -0.074860833585, -0.065411649644, -0.027271868661, 0.028717741370, 0.120314560831, 0.155976086855, 0.229733750224, 0.055904563516, 0.116547457874, 0.054588455707, -0.058692406863, 0.076821722090, 0.079156346619, -0.289462238550, 0.086517959833, -0.075689248741, -0.051439221948, -0.130576387048, 0.040510594845, 0.095303535461, -0.074947848916, 0.033983267844, 0.221058502793, 0.005282879807, -0.015827154741, 0.037942320108, 0.022472230718, -0.077891558409, 0.070479072630, -0.017894323915, -0.190850690007, 0.107670500875, -0.052476171404, -0.082310326397, -0.059474736452, -0.111287049949, 0.027703240514, 0.072248332202, 0.075953446329, -0.022690398619, 0.087570577860, -0.086797982454, -0.015064401552, 0.072470277548, 0.019118363038, -0.150744199753, 0.041364800185, -0.094955615699, -0.105490587652, 0.095050953329, 0.006189519074, -0.013408025727, -0.086833588779, -0.096772849560, -0.095027342439, 0.092871181667, 0.116250574589, 0.081934481859, 0.023821933195, -0.103002436459, -0.068589270115, -0.033874452114, -0.035192433745, 0.026583351195, 0.050779312849, 0.074164018035, -0.066205665469, 0.084315992892, 0.074827730656, -0.033003266901, 0.190219581127, -0.084294848144, 0.081027850509, 0.004409808200, 0.032290585339, -0.089849531651, 0.022958531976, -0.042879711837, -0.125565767288, -0.051573812962, 0.068559847772, -0.079276993871, -0.067280210555, 0.113136649132, -0.122486889362, 0.078891761601, 0.011356242001, -0.107094362378, -0.034035891294, 0.113430447876, 0.035987406969, -0.056945014745, -0.091747045517, -0.012567806058, -0.025143966079, -0.102904967964, 0.010399524122, -0.179839238524, 0.016310093924, -0.058021247387, 0.065061211586, 0.004849040881, -0.074617691338, 0.027680905536, 0.029137726873, -0.033082474023, 0.149787425995, -0.033102348447, 0.038940645754, -0.080337464809, -0.116006851196, -0.114624746144, 0.027752198279, 0.073325507343, 0.077836632729, -0.086116820574, -0.042581617832, -0.070655748248, -0.022234439850, 0.110193863511, 0.063519217074, -0.121737316251, 0.033011972904, -0.066192038357, -0.014989433810, 0.111808538437, 0.083379715681, -0.072153247893, -0.088049322367, -0.039706319571, -0.107392668724, -0.108894705772, -0.043767601252, -0.014678071253, -0.049416754395, 0.016242343932, -0.027810966596, 0.089900553226, -0.065301470459, 0.121248833835, 0.068643450737, -0.070354431868, 0.020120142028, -0.103895246983, -0.077153131366, -0.046446699649, -0.035628765821, -0.065136663616, -0.037000119686, 0.036243397743, -0.051934916526, -0.122167564929, 0.071986436844, 0.117164433002, 0.011781185865, -0.005154132843, -0.082006841898, 0.068468093872, 0.031665652990, 0.107913434505, 0.080058626831, 0.113283947110, 0.029863681644, 0.120363026857, -0.129254564643, -0.068723246455, 0.114043779671, -0.066420495510, 0.009135395288, -0.046698771417, -0.013936728239, 0.098328404129, -0.069903343916, -0.027971059084, -0.099664621055, -0.044588685036, 0.062441617250, 0.029501438141, 0.048392891884, -0.021391242743, 0.105414271355, -0.043921083212, 0.102867603302, -0.122508682311, -0.081129975617, -0.095636725426, 0.075090408325, -0.051912277937, -0.121638059616, -0.111201688647, 0.071292281151, -0.047499954700, 0.087779015303, -0.023787260056, 0.095198012888, 0.106447517872, 0.111486665905, 0.078661747277, -0.079304695129, 0.081736586988, 0.134167820215, -0.057066667825, 0.077135860920, -0.099122390151, 0.010281282477, -0.065617352724, 0.030367046595, -0.132829263806, -0.049382343888, 0.057499736547, -0.081288546324, 0.054487138987, 0.098133146763, 0.021732211113, 0.086628705263, 0.094976350665, -0.010902404785, -0.004665123764, -0.117654204369, 0.096023403108, -0.039051502943, -0.003299607430, 0.003146751784, -0.049609873444, -0.020081460476, -0.093015469611, -0.084169328213, -0.093748539686, 0.045523256063, 0.053749680519, 0.115922108293, -0.073154710233, 0.114601224661, -0.061806142330, 0.095406815410, 0.131959691644, -0.006776899099, 0.103679776192, 0.128259733319, -0.005175650120, -0.117747128010, -0.024394666776, -0.044486485422, -0.043106846511, 0.090945422649, 0.006744652987, -0.119860619307, 0.087201297283, 0.008781627752, -0.057452946901, 0.015762705356, 0.075118012726, -0.000039980914, 0.095262035728, -0.111788570881, 0.074502050877, 0.099713265896, 0.003306126222, 0.033081352711, 0.047915756702, -0.024071199819, 0.041036002338, -0.031493812799, -0.092131972313, -0.057608753443, -0.067289352417, -0.124403119087, 0.024775385857, -0.023305065930, -0.017569720745, 0.108919739723, -0.068560384214, -0.007622989360, 0.067159816623, -0.114863365889, -0.083713769913, 0.020950704813, -0.067090086639, -0.005761107430, -0.086375683546, 0.027362817898, -0.088798671961, 0.045143701136, -0.095221810043, 0.107008680701, 0.088227607310, 0.011945426464, 0.119283974171, 0.010362587869, 0.023118129000, 0.039700001478, 0.042496919632, 0.109408527613, 0.052376061678, 0.008354532532, -0.093003064394, 0.083451539278, 0.108284480870, 0.103663228452, -0.011252820492, -0.108937375247, 0.104438863695, 0.013262361288, -0.018982546404, -0.014389323071, -0.014493519440, 0.060186315328, 0.103540360928, -0.052591942251, 0.069776237011, 0.081713207066, 0.018359398469, -0.010730415583, 0.047912329435, 0.030656099319, -0.108840554953, 0.089376389980, -0.033319845796, -0.017288492993, 0.095029085875, -0.103708758950, 0.101171791553, 0.029011875391, -0.103816129267, -0.070450365543, 0.053593613207, 0.058435693383, 0.117191851139, 0.029402971268, -0.061746329069, 0.105478793383, 0.061587691307, -0.013236612082, -0.121622234583, -0.066716015339, 0.002921104431, -0.110391855240, 0.062897562981, 0.059484928846, 0.063518643379, -0.033906146884, -0.116858385503, -0.118467733264, 0.059931315482, 0.020051710308, -0.010837942362, 0.033001095057, -0.095616161823, -0.052502792329, -0.034242331982, -0.083203643560, -0.062439799309, -0.016874572262, 0.077078700066, -0.117249310017, 0.089068830013, -0.006823748350, 0.010992825031, 0.108141914010, 0.040078874677, 0.008324643597, 0.059802103788, -0.065754920244, 0.103264331818, -0.090253859758, 0.005419433117, 0.095579564571, -0.063576571643, 0.062473393977, 0.124448463321, 0.045659799129, 0.216276675463, -0.163920044899, 0.076368354261, 0.081344775856, -0.069065175951, -0.112953722477, 0.057950105518, -0.102826148272, -0.039437852800, -0.035384263843, 0.012678972445, 0.031489595771, 0.133344426751, -0.070113666356, -0.046110942960, -0.030686706305, -0.101578861475, 0.016846956685, 0.018964331597, -0.057075068355, 0.046857289970, 0.013653866947, 0.015057355165, -0.068532221019, -0.011311199516, 0.085449680686, 0.154922440648, -0.071563206613, -0.126611620188, -0.118944473565, -0.155974403024, -0.088133394718, 0.012077946216, -0.086348980665, 0.162100091577, 0.035625420511, 0.027795949951, 0.007716023829, 0.056544713676, 0.187821254134, -0.167835280299, -0.051688265055, -0.096853628755, 0.029352251440, -0.079514451325, -0.257661223412, -0.186113283038, -0.060290589929, -0.151224970818, 0.178189709783, 0.043612062931, -0.047640163451, -0.128823459148, 0.019197521731, -0.128822088242, -0.136103913188, -0.119759254158, 0.041241724044, 0.011451489292, 0.022606242448, 0.055946528912, -0.135599434376, 0.008305831812, 0.062980778515, -0.389651119709, -0.020711302757, -0.100207686424, -0.082354702055, 0.085354909301, 0.008336767554, -0.043589979410, 0.106206178665, 0.121864348650, 0.030266560614, 0.007778776810, -0.075476884842, -0.026906879619, 0.030642759055, -0.173401147127, -0.031130539253, 0.012435859069, -0.039274808019, 0.081527493894, 0.046470914036, -0.054611790925, -0.011426570825, -0.063060328364, 0.146599665284, 0.040379419923, 0.003792962059, 0.065861158073, 0.028984129429, -0.122046768665, 0.057292789221, 0.015428414568, -0.018315784633, -0.059732876718, 0.062393404543, 0.018490681425, -0.075937598944, -0.003378900001, 0.253931492567, 0.008438888006, 0.103579096496, 0.003428893862, 0.084954224527, -0.153564408422, -0.039571635425, 0.048768986017, -0.095656268299, -0.045510619879, -0.044510360807, -0.097363933921, 0.112899579108, -0.077815279365, -0.050532773137, -0.119326435030, 0.038714814931, 0.075905285776, -0.004325554240, 0.005282802042, 0.003772334894, 0.110545694828, -0.031126150861, -0.112990118563, 0.164831280708, 0.033152483404, 0.055922657251, -0.061552990228, 0.056170314550, 0.100108608603, 0.528623878956, -0.002479792805, -0.063389435410, -0.129451781511, 0.005728104617, 0.071781381965, -0.022962834686, -0.077696681023, 0.049582481384, 0.272842109203, 0.083761990070, 0.071490012109, -0.177450880408, -0.073231793940, 0.031921342015, -0.149635657668, 0.138219863176, 0.007617622614, 0.048712011427, -0.228887036443, 0.016132088378, -0.008190961555, -0.118307061493, -0.014366340823, 0.044084709138, 0.051273025572, 0.021463064477, -0.034613423049, -0.098488450050, 0.072912566364, 0.012047507800, 0.118854656816, 0.024521848187, 0.118749700487, -0.044934913516, -0.081768944860, -0.053966324776, 0.078609995544, -0.063076660037, -0.139603227377, -0.018149470910, -0.108938731253, -0.023406472057, -0.111242264509, -0.067624300718, 0.502891182899, -0.087456822395, -0.061107780784, 0.046344820410, -0.053918149322, 0.067428104579, 0.050741989166, -0.083354525268, -0.097691386938, -0.034592911601, -0.026736810803, 0.102208048105, -0.048601128161, -0.050156030804, -0.054316852242, -0.045610409230, -0.281388759613, 0.120203159750, -0.064348950982, -0.018812902272, -0.146997243166, -0.182437464595, -0.022603942081, -0.018702955917, 0.040689200163, -0.048300050199, 0.033945515752, -0.079678691924, -0.051977112889, -0.032432697713, -0.061723172665, 0.094576753676, -0.003839032026, 0.084958218038, -0.227791339159, 0.065983884037, -0.066137254238, 0.088861919940, -0.224404096603, -0.132874742150, -0.209672227502, 0.037039596587, 0.056477539241, 0.033809997141, 0.119933828712, -0.064223594964, 0.166013956070, -0.068430244923, 0.076170906425, -0.008179271594, -0.086024537683, 0.021630868316, -0.022433284670, -0.027452897280, 0.090680815279, 0.220696866512, 0.000779750815, 0.033151429147, 0.027343988419, 0.052881341428, 0.007340302691, -0.054752290249, -0.038929034024, -0.058684635907, 0.011986013502, -0.036290135235, -0.085262335837, 0.017848270014, -0.050456829369, -0.087269045413, -0.064271442592, -0.022705979645, -0.221596390009, 0.060971230268, 0.062101893127, 0.007910433225, 0.050427757204, -0.022730164230, 0.055253528059, 0.072226747870, 0.038499511778, -0.080623850226, -0.040943872184, -0.085915282369, -0.013760064729, -0.128777176142, 0.023025861010, 0.063103333116, -0.049805909395, -0.016819259152, -0.108169175684, 0.088302828372, -0.012785137631, -0.118108816445, -0.086560405791, -0.190212830901, -0.083005271852, -0.074412524700, -0.163238868117, -0.030394537374, -0.062350157648, -0.104771144688, -0.076706372201, 0.053457561880, -0.058470167220, -0.082542292774, -0.250853031874, 0.029922183603, -0.130632683635, -0.009070604108, 0.053164634854, 0.025103840977, 0.034151248634, -0.074924416840, 0.073357127607, -0.111283756793, 0.040430236608, 0.018034173176, -0.034964069724, -0.164983332157, -0.009193941951, -0.046670828015, -0.060775145888, -0.147515073419, 0.067628189921, 0.048827182502, -0.097033590078, 0.119273230433, 0.187055975199, -0.017132798210, 0.087924264371, 0.037634778768, 0.036384541541, 0.119504332542, -0.345037549734, -0.106411702931, 0.021701071411, 0.050505802035, -0.065310068429, -0.053986474872, 0.007673513144, -0.051389440894, -0.011188664474, -0.047610361129, -0.080540806055, -0.096977770329, -0.220281228423, -0.130533456802, 0.137250095606, 0.015935298055, -0.175848692656, 0.027046630159, -0.107033997774, -0.059312961996, 0.085013307631, 0.044089749455, -0.080152675509, 0.121110558510, 0.034181460738, 0.028611129150, -0.444627046585, 0.146873354912, -0.191472783685, 0.005290444475, 0.010707353242, -0.052120145410, -0.106932081282, 0.029178159311, -0.036932379007, -0.246321067214, 0.059441309422, -0.121142581105, -0.045989204198, 0.085444182158, -0.172620654106, -0.149709731340, -0.061792239547, -0.261888056993, 0.212535917759, -0.004786998034, -0.073252670467, -0.708376348019, -0.102125436068, -0.117384456098, -0.090257056057, 0.292516857386, -0.088917858899, 0.039525728673, -0.106734067202, -0.063842386007, 0.210871055722, 0.032600335777, -0.235846906900, -0.162787497044, -0.147120982409, 0.147677674890, -0.276968359947, -0.008542903699, -0.025073964149, -0.025935292244, 0.001427310519, 0.145028233528, -0.060623172671, 0.089575588703, 0.152838960290, 0.043709080666, -0.029765028507, 0.007585560437, 0.002777471207, 0.037089794874, -0.090837612748, -0.222960516810, -0.101711235940, -0.210525438190, -0.654900670052, -0.025173602626, 0.081178590655, -0.087325483561, -0.094755321741, 0.321573436260, -0.472263395786, 0.019985109568, 0.054602097720, 0.065158970654, -0.001532084192, -0.188466176391, -0.202137067914, -0.136719748378, -0.012804567814, -0.039108235389, 0.115806259215, -0.009155677631, -0.030552102253, 0.034082800150, -0.092869222164, -0.028374124318, -0.077584236860, -0.059340797365, 0.184012919664, -0.064658313990, -0.171752870083, 0.127625927329, 0.031748514622, 0.059529628605, -0.059072803706, 0.008544028737, 0.056157819927, -0.307602643967, -0.015898309648, 0.001185165136, -0.084551066160, -0.101639226079, -0.095981426537, -0.074445240200, -0.182816356421, -0.044681780040, -0.433614552021, -0.013834263198, -0.015561873093, -0.007331032772, 0.200764700770, -0.053102474660, -0.114689499140, 0.003530586604, 0.031209701672, -0.078590773046, -0.019890366122, -0.046648748219, -0.056976713240, -0.019255310297, -0.024200409651, 0.120669014752, 0.011490895413, 0.082584396005, -0.236683726311, 0.035892799497, 0.000781644543, -0.166093230247, 0.075048550963, 0.039332956076, -0.136554643512, -0.149359568954, -0.010814955458, -0.036011770368, -0.070264175534, -0.269727349281, -0.030751885846, -0.147372275591, 0.080866329372, -0.055930834264, -0.106732964516, -0.055084023625, 0.002780556213, -0.098375529051, -0.107332810760, -0.243459746242, -0.126308992505, -0.351941287518, -0.199128866196, 0.145942687988, -0.141024842858, -0.044502552599, 0.141788572073, 0.019104117528, 0.086945928633, 0.126726657152, 0.014312042855, 0.055847465992, 0.013209727593, -0.029851196334, -0.079309746623, 0.021880013868, -0.166153773665, -0.007366057485, -0.136975750327, -0.123611256480, -0.020528234541, 0.029962545261, -0.060956846923, -0.071659758687, 0.055433083326, 0.083530522883, 0.009567559697, -0.069487571716, 0.074893049896, 0.051688086241, 0.004038354848, 0.391370117664, -0.147589311004, -0.081593573093, -0.335598617792, -0.052152775228, 0.039683710784, 0.039793554693, -0.072330109775, -0.303540021181, -1.001929879189, 0.056448809803, -0.022746006027, 0.077629491687, -0.034730400890, 0.149873450398, -0.002443650505, -0.022812362760, -5.555977344513, 0.022408658639, -0.175143927336, -0.821590363979, 0.161824718118, 0.046355701983, -1.533882737160, -0.180886656046, 0.024840777740, -0.092575296760, 0.097958363593, -0.072641514242, 0.144148647785, -0.092388711870, -0.030561784282, -0.054436393082, 0.035097654909, 0.027125917375, -0.544173657894, 0.063269436359, -0.058768361807, -0.520116090775, -0.042010378093, -0.118729680777, -0.037131447345, -1.095770239830, -0.022890899330, -0.123752288520, -0.053787380457, -0.047658726573, -0.059874176979, 0.449534565210, -0.137676775455, -0.044795144349, -0.029649300501, -0.185629785061, 0.104078665376, -0.316560626030, 0.197633832693, -0.419725060463, -0.589863240719, 0.189883843064, 0.019509017467, 0.020317343995, -0.818737864494, -0.147966653109, 0.010400025174, -0.322710901499, -0.122680664062, -0.104843072593, 0.081421151757, -0.005972196814, -0.007892738096, -0.044982410967, -0.164024427533, -0.341490328312, -0.405544459820, -0.018747668713, -0.165131643414, -0.005670740269, 0.153458058834, 0.010661765002, -0.012076529674, 0.094913654029, -0.073965497315, 0.006232655142, -0.131849974394, 0.004392211791, 0.111530140042, 0.286429941654, -0.072948411107, -1.341289997101, -0.536047279835, 0.328427255154, 0.194426983595, 0.046151760966, -0.080589331686, -0.128305301070, 0.028294302523, -0.032040417194, 0.644966006279, 0.733859956264, -0.104785270989, -0.077733077109, -0.071386680007, 0.172449216247, -0.105702340603, -0.120913214982, -0.021998355165, -0.454042077065, 0.646929502487, -0.083397731185, -0.041735604405, -1.553812980652, 0.459179073572, -0.103701218963, 0.027492383495, -0.019511258230, 0.057979825884, 0.077783986926, -0.051653400064, -0.678773283958, 0.112401694059, -0.025334250182, -0.309318691492, 0.378698885441, -0.208870038390, -1.151143670082, -0.061930801719, 0.354903668165, 0.022552577779, -0.667014658451, -0.231050074100, -0.165581449866, -0.121062964201, 0.305521428585, -0.178694352508, 0.030008146539, -0.168592825532, 0.011418187991, -0.508999347687, -0.090409107506, -0.030699858442, -0.105409570038, 0.224494755268, -0.059610620141, -0.402811527252, -0.448633611202, 0.053165525198, -0.002124300692, 0.414256006479, 0.025607036427, -0.504447162151, -0.142478480935, 0.041823904961, 0.015894165263, 0.324218720198, 0.014598665759, -0.972714781761, -0.233704447746, 0.062742426991, -1.987132072449, 0.077504068613, 0.000059342376, -0.035202637315, 0.263133734465, -0.061949890107, -0.181957557797, -0.078428551555, -0.013846985996, 0.688391208649, -0.043868094683, -0.123925209045, -0.234938234091, -0.053745295852, 0.025131121278, 0.107406191528, 0.010746853426, -0.070216208696, 0.413942396641, 0.007424463052, -0.074708692729, -0.167108654976, -0.494046181440, -0.018561774865, -1.003393292427, 0.076557919383, -0.386855632067, -0.202574551105, -0.030443027616, -0.096456587315, 0.443406522274, -0.140548527241, -0.075259484351, -0.038129609078, -0.282174199820, -0.066093109548, -0.013923167251, 0.092702932656, -0.018858170137, 0.263058871031, -0.015340234153, 0.344418048859, -0.314160734415, -0.373656928539, 0.008885549381, -0.369066357613, -0.093130119145, -0.016902863979, -0.222088515759, 0.025074461475, -0.057040605694, -0.201769977808, -0.129394918680, -0.465533643961, -0.170598134398, 0.002886710223, -0.549924433231, 0.323918163776, -0.569276034832, 0.060941778123, -0.075680628419, -0.285017132759, 0.089243523777, -1.069932460785, -0.285537362099, -0.172564640641, -0.047255706042, 0.547719538212, 0.557288408279, -0.131219893694, 0.404029458761, 0.140417039394, -0.110960386693, -0.761081635952, 0.036927264184, -0.470424026251, -0.098840609193, -0.068478241563, 0.108436144888, -0.347542554140, -0.011871238239, 0.000430552580, 0.625247001648, 0.161317393184, -0.046084638685, -0.200546994805, -0.086668327451, -3.205094337463, 0.003382513998, -0.679667353630, -0.069541029632, -0.215474262834, -0.057240318507, -0.039487637579, -0.015226899646, -0.207394897938, 0.345422029495, -0.083559848368, -0.134367048740, 0.320254623890, -0.092123895884, -1.326833367348, -0.059947863221, 0.089802041650, -0.080564804375, -0.094375781715, 0.084316462278, 0.057966485620, -0.017111122608, 0.077053964138, -0.067065864801, -0.059420280159, 0.129387572408, 0.069663412869, 0.031658053398, -0.056549280882, -0.094336152077, -0.060261487961, -0.044258266687, -0.015591025352, -0.014098107815, 0.036182768643, 0.088399976492, 0.035942256451, 0.036562949419, 0.003252404509, -0.074925288558, 0.092847034335, 0.017629951239, -0.105377793312, 0.069201454520, 0.009146352299, -0.123764455318, 0.118812650442, 0.125753760338, 0.037386983633, -0.113029718399, 0.121094599366, 0.071550905704, -0.079063668847, 0.036273539066, -0.062903501093, -0.005941361189, 0.004682600033, 0.109065622091, -0.081300914288, -0.103426724672, -0.030703544617, -0.084046766162, 0.097411453724, -0.018479049206, -0.039013415575, 0.105020865798, -0.093717694283, -0.018836352974, 0.048476308584, 0.079789072275, 0.046025652438, 0.043811529875, -0.087855041027, -0.062190651894, 0.125228613615, -0.019398754463, -0.073054693639, 0.079475581646, -0.080399066210, 0.007686987054, -0.042603190988, -0.085975736380, -0.114735051990, 0.085933767259, 0.117005765438, 0.109870612621, 0.064062908292, 0.034729957581, -0.070233568549, 0.016026586294, -0.036819886416, 0.003635227680, -0.104936689138, -0.033286541700, 0.118018135428, 0.041482169181, -0.056476801634, 0.039179176092, 0.070428609848, -0.084294125438, 0.115322932601, -0.050171524286, -0.019270125777, 0.067090511322, 0.052409797907, -0.026054322720, 0.098904326558, 0.082350283861, -0.021373063326, -0.018620351329, 0.000627203088, 0.087613046169, -0.018504345790, -0.099605634809, -0.030465424061, 0.047674834728, -0.089296221733, -0.011321246624, -0.118980944157, -0.082472980022, -0.072598248720, 0.018242025748, 0.032916929573, -0.044065404683, 0.023299954832, 0.011770874262, -0.042578954250, -0.097123488784, 0.096290692687, -0.064435437322, 0.091016635299, -0.042488217354, -0.014977860264, -0.099768802524, -0.023654997349, -0.050384026021, 0.092437595129, -0.124409049749, 0.010248512030, 0.123385548592, 0.017331600189, 0.042637407780, -0.006018638611, -0.114515334368, -0.063100859523, -0.111383348703, 0.106982573867, -0.106650777161, -0.078451409936, -0.087334692478, 0.043896496296, -0.035908609629, 0.020536363125, -0.104898974299, 0.054790437222, 0.095868855715, 0.085182413459, -0.042120020837, 0.081406265497, 0.123253822327, -0.067141026258, 0.040065586567, -0.005534689408, -0.067066788673, 0.016758685932, 0.047174919397, -0.069486215711, 0.090759873390, 0.016321033239, -0.012420296669, -0.097528845072, -0.123398602009, -0.079483330250, 0.064513385296, 0.032313287258, -0.054747045040, -0.080523654819, -0.091812118888, 0.033159017563, -0.074222356081, 0.124530225992, 0.055898427963, 0.030025089160, 0.071070432663, 0.089689970016, -0.059195663780, -0.023305028677, 0.112907022238, -0.115802988410, 0.027928613126, 0.032359093428, 0.096967071295, -0.062132883817, -0.054355282336, 0.074091576040, 0.032340258360, 0.008877784014, -0.103027343750, -0.074464559555, 0.122555986047, -0.102196052670, 0.002864599228, 0.086435467005, -0.049066107720, -0.115974247456, 0.014234675094, 0.075426861644, 0.059327773750, -0.114184632897, -0.110332891345, 0.071577996016, 0.044742930681, 0.006004482508, 0.059656947851, -0.020820269361, 0.093378916383, 0.048360049725, 0.119382470846, 0.023632075638, -0.057157963514, -0.020398169756, 0.026965469122, 0.075538590550, -0.105755493045, 0.028372669592, -0.016763271764, -0.088045299053, 0.047116547823, 0.034715373069, -0.042930752039, 0.107434958220, -0.008682757616, 0.082305267453, -0.059857059270, 0.088281154633, -0.049231618643, 0.100172400475, 0.091633483768, -0.123209640384, 0.014795124531, 0.117323368788, -0.051652871072, -0.019884521142, 0.025691896677, -0.071227863431, -0.120240822434, 0.030224733055, -0.117567464709, -0.010328967124, 0.017120700330, -0.103030651808, 0.061135441065, -0.053281493485, -0.090991765261, 0.007758378983, 0.070087388158, -0.116280585527, -0.118021383882, -0.093437314034, 0.105655841529, -0.035685330629, -0.113280922174, -0.014853894711, -0.072736009955, 0.011809451506, -0.070295616984, -0.021349076182, 0.041283518076, 0.058720368892, 0.097742944956, 0.110634922981, -0.004406929016, 0.007675719913, -0.079953148961, -0.073704555631, 0.023674841970, -0.047383118421, -0.033921990544, -0.145206764340, -0.060889136046, 0.035776313394, -0.145314767957, 0.021932849661, 0.058531492949, -0.026028383523, -0.070413962007, 0.039407204837, 0.050211481750, -0.277704596519, 0.012538794428, 0.017159735784, 0.010708451271, -0.017035989091, 0.023113384843, 0.108726799488, -0.058848511428, 0.036166984588, -0.008872554637, 0.111593484879, -0.039021428674, -0.103731490672, -0.035627171397, -0.026567721739, 0.087499901652, -0.010470125824, 0.067399375141, 0.030290516093, 0.114758491516, -0.026556530967, -0.102517448366, -0.089792266488, 0.032110951841, 0.009797811508, -0.099064417183, 0.037432093173, -0.016551505774, -0.007438531611, -0.085569538176, -0.074829965830, 0.089078642428, 0.236911416054, -0.002333020559, 0.059271648526, 0.084340773523, 0.088481232524, 0.152236372232, -0.105967588723, -0.127380788326, 0.153795063496, 0.087017863989, -0.020952761173, -0.032438561320, 0.022399635985, 0.072621800005, 0.028882095590, -0.159179165959, -0.078039094806, -0.094501018524, 0.035992305726, -0.062683485448, -0.212796315551, -0.042536478490, 0.088759712875, 0.004116788972, 0.206318452954, 0.071274422109, -0.006658850703, 0.013181692921, -0.094916284084, -0.132374122739, -0.048633959144, -0.037634950131, 0.047696333379, -0.127720445395, -0.051076829433, 0.098936282098, -0.051136236638, -0.126216426492, -0.049950584769, 0.037266109139, -0.034938547760, -0.048995621502, -0.051774259657, -0.124481596053, -0.031891170889, -0.020354704931, -0.043495114893, 0.078134596348, 0.011413467117, -0.070060841739, 0.055392116308, 0.032090350986, 0.073814719915, -0.103288054466, 0.012048842385, 0.031458526850, -0.110974982381, -0.088495135307, 0.070331767201, 0.014873493463, 0.101321175694, 0.025301648304, -0.196488231421, -0.099006116390, 0.048326533288, -0.015910098329, -0.004978300072, 0.136874690652, -0.029548216611, -0.038420673460, 0.182907029986, 0.031568389386, -0.103117346764, -0.035509925336, -0.049264132977, 0.083484582603, -0.058516051620, 0.085931904614, -0.027665050700, -0.098192766309, -0.060636285692, -0.152256131172, 0.066751025617, -0.096861109138, 0.098943971097, -0.084299534559, -0.252160787582, -0.040233206004, -0.021892525256, 0.077394135296, -0.006959420629, 0.192884281278, 0.040035352111, -0.006032626610, 0.125552162528, 0.071679361165, -0.101157501340, 0.051197715104, 0.099726192653, -0.010898559354, 0.006601736415, 0.009600015357, 0.015767972916, -0.060887239873, 0.054025880992, 0.104068465531, -0.017069222406, -0.095417529345, -0.028051309288, -0.038879122585, 0.050786916167, 0.108798526227, -0.066012375057, 0.090785034001, -0.042977910489, -0.075219720602, -0.042410485446, -0.077197365463, 0.014129421674, -0.009041132405, -0.045663088560, -0.030668664724, -0.148963943124, -0.131060406566, -0.138402178884, 0.017754692584, -0.038979403675, -0.364868789911, 0.054169066250, -0.102464295924, -0.004820777569, 0.068990878761, -0.143161877990, 0.079521134496, -0.032256860286, 0.036937415600, -0.116900704801, 0.105946861207, 0.091265730560, 0.020100384951, -0.015863904729, -0.006252124440, -0.113359265029, -0.046278629452, 0.066453173757, -0.051575109363, -0.066062480211, 0.009147195145, 0.082256361842, 0.047282364219, 0.298051238060, 0.134222209454, 0.022675268352, 0.012192828581, 0.097221828997, -0.157347679138, -0.010656340979, 0.009968737140, 0.051924336702, 0.118696272373, 0.034858040512, 0.034208986908, 0.018825775012, -0.241640850902, 0.040366560221, -0.109323486686, -0.001153811347, -0.176858350635, -0.055182423443, 0.104847997427, 0.017707729712, 0.066708542407, 0.129848331213, -0.059997580945, -0.124267928302, 0.020565178245, 0.058271590620, -0.089206673205, -0.022643577307, 0.071443729103, -0.265771120787, -0.030666438863, 0.016834096983, -0.109631247818, -0.062066387385, 0.036127787083, 0.039331827313, -0.025745563209, 0.037504207343, -0.073886558414, 0.004447661340, -0.050253838301, 0.010317430831, 0.065486542881, 0.033430084586, -0.110225781798, 0.155746757984, 0.052302628756, -0.040990486741, -0.073840349913, 0.035365838557, 0.068652726710, -0.133411437273, 0.173744350672, 0.031496450305, -0.123074799776, 0.015340867452, -0.107948839664, 0.040371753275, -0.004272747785, 0.020895242691, -0.067163623869, 0.078792057931, -0.058637786657, -0.091017447412, 0.004530494567, -0.014898326248, 0.059033539146, -0.055235572159, -0.046356454492, 0.009940938093, -0.053826369345, 0.055399924517, -0.005113706924, 0.027967235073, 0.096504330635, -0.183247417212, -0.013912466355, 0.092137485743, 0.088566608727, -0.091683238745, -0.106894299388, -0.011884937994, -0.001646794262, 0.061344932765, -0.058700218797, 0.008348906413, -0.081929109991, 0.102857664227, -0.053586941212, 0.098922751844, 0.062469184399, 0.075083792210, -0.084514714777, -0.143870219588, 0.025250460953, 0.097795687616, 0.120353601873, 0.039755053818, -0.104332022369, 0.017179615796, -0.035163074732, -0.166355624795, 0.041430827230, 0.006327693351, 0.035662680864, -0.030744412914, -0.037827409804, 0.119511812925, -0.022148247808, 0.102937929332, -0.070548325777, 0.087381057441, -0.051562350243, -0.138720080256, 0.015832958743, 0.059726960957, 0.075440905988, -0.090782910585, -0.064334787428, 0.037303734571, 0.037980586290, -0.085861779749, 0.090046614408, -0.039372056723, 0.014089200646, 0.159371107817, 0.108534768224, -0.066533900797, -0.089606091380, -0.125888302922, -0.051934462041, 0.073001973331, -0.138530462980, -0.006006151903, -0.103975057602, 0.042602565140, 0.008146422915, -0.109983853996, -0.183605581522, 0.087341129780, 0.126720905304, 0.061148934066, 0.057840965688, 0.098022177815, -0.061382398009, 0.045033860952, -0.079448573291, -0.125373780727, -0.135621830821, 0.003246863838, 0.040431849658, 0.158139705658, -0.050614379346, 0.038015782833, -0.101625740528, -0.005124674179, -0.137905001640, -0.077510938048, -0.209106162190, 0.014790899120, 0.009357628413, -0.118519768119, -0.043850000948, -0.018957536668, -0.121141560376, -0.117983996868, -0.057573962957, 0.064351640642, 0.034109547734, 0.089520350099, 0.124435923994, 0.084687031806, 0.025335503742, 0.092114135623, 0.086703218520, -0.045741390437, 0.020801974460, 0.060002520680, -0.075323171914, 0.056657947600, 0.094408437610, -0.057014077902, 0.051334895194, -0.052495200187, 0.147502839565, -0.063059985638, -0.002961008344, 0.060610949993, 0.000677576871, 0.079844407737, -0.094735711813, -0.139146775007, -0.048376623541, 0.021177364513, 0.041127339005, 0.025751799345, -0.091923229396, 0.007209115196, -0.074657447636, -0.113200522959, -0.054070882499, 0.073120661080, -0.019170528278, 0.055339571089, -0.006346795708, 0.036584403366, 0.059307593852, -0.064650788903, -0.083952665329, -0.059107843786, -0.093549273908, 0.042247466743, -0.176797658205, -0.084566585720, 0.041309393942, -0.204582154751, -0.115175992250, -0.087923213840, -0.037530634552, -0.062276069075, 0.002954304218, -0.073235109448, 0.015910286456, -0.000111092617, 0.056114025414, -0.138156831264, 0.056243758649, 0.005714858416, 0.050272803754, 0.041575834155, -0.042350154370, 0.005621433724, 0.061743326485, -0.008260863833, 0.013028806075, -0.043683454394, -0.045154597610, 0.064129635692, -0.068878673017, -0.073580779135, -0.090072385967, 0.042720369995, 0.011887371540, -0.099084347486, 0.024641774595, -0.144643634558, 0.014694922604, -0.126610979438, -0.056922789663, 0.087422467768, -0.025938630104, 0.055063888431, 0.009927137755, -0.083979502320, 0.048465084285, -0.165810137987, 0.014380668290, -0.049192700535, -0.119424149394, 0.037433769554, 0.079291835427, 0.000443533267, 0.050372734666, -0.084200166166, 0.047464020550, -0.096125476062, 0.016465838999, 0.125311657786, -0.136482283473, -0.107266239822, 0.002869555959, 0.018863845617, 0.071820035577, -0.066949494183, 0.065026544034, -0.068305402994, 0.166505947709, -0.066576421261, 0.160868078470, 0.024994881824, -0.064079895616, -0.042912688106, -0.117677360773, 0.042827341706, 0.047551192343, -0.132475957274, -0.065654270351, 0.021698450670, -0.070019282401, 0.140712723136, 0.078269213438, 0.040982332081, 0.079999752343, 0.095019415021, 0.028010666370, -0.016538150609, -0.177715241909, -0.088061340153, -0.118543975055, 0.043591618538, -0.141963943839, 0.034426186234, -0.000809081772, -0.029520992190, -0.020450122654, 0.095326326787, 0.031662277877, 0.048294540495, 0.097178459167, -0.034829881042, -0.096309453249, -0.240805000067, -0.061401367188, -0.143731847405, -0.100199662149, 0.109198056161, -0.067191541195, 0.023006856441, -0.043503191322, 0.099055141211, -0.053644727916, 0.069728091359, 0.025137333199, -0.056750729680, -0.076827265322, 0.117798492312, 0.006767266896, -0.088324733078, -0.132900819182, -0.024662241340, -0.020916020498, 0.019670234993, -0.151411667466, -0.101426556706, -0.158617913723, -0.069628737867, 0.062980599701, -0.049474891275, -0.035511519760, -0.006427258253, -0.115268409252, -0.016259972006, 0.035131972283, 0.046553131193, -0.133606359363, 0.070890977979, -0.132941082120, 0.087349861860, -0.098672293127, -0.060061190277, 0.230686306953, 0.062319200486, -0.029801793396, -0.057104315609, -0.056166730821, -0.068117968738, 0.141282722354, -0.059434607625, -0.025176178664, -0.186083674431, -0.031298734248, -0.264548748732, -0.158151566982, 0.105444803834, 0.043157961220, 0.010688330978, 0.025498434901, -0.018267404288, 0.042896654457, -0.014349063858, -0.056340318173, 0.188140437007, 0.116103738546, 0.091788269579, -0.118284627795, -0.056211985648, -0.006260510534, 0.017363727093, 0.110695369542, -0.026837823913, -0.140394732356, 0.161522045732, -0.077739045024, -0.036336403340, -0.126182392240, -0.356712013483, 0.025353340432, -0.052448894829, 0.067089825869, -0.114062398672, 0.040573604405, -0.106297224760, -0.122240498662, 0.064345739782, 0.143409281969, 0.049899160862, 0.104455009103, 0.105482049286, -0.002743787365, 0.026177601889, 0.036274760962, 0.037865519524, -0.005765219219, -0.073842652142, -0.071097388864, 0.051954351366, 0.026577332988, 0.072115227580, -0.019224321470, -0.021506140009, -0.084535211325, -0.083750069141, 0.036128181964, -0.109527513385, 0.052715241909, -0.034023407847, 0.113379001617, -0.081896841526, 0.148996710777, 0.031082930043, -0.052595913410, 0.041722327471, -0.158637493849, -0.040144685656, 0.028251169249, 0.019349893555, 0.001250184258, -0.044489767402, -0.082843370736, 0.077534571290, 0.215346783400, 0.084320761263, -0.015933571383, -0.150268435478, -0.001314008026, -0.020024083555, 0.100919909775, -0.028620935977, -0.058454059064, 0.041796345264, -0.000007233225, 0.156526610255, -0.049707435071, 0.000141883167, -0.088099613786, -0.098941504955, 0.020578199998, 0.162379100919, 0.112655632198, 0.040415693074, 0.017775984481, -0.020375480875, 0.147948458791, 0.071479581296, 0.017504537478, 0.068732887506, -0.178846701980, 0.033398419619, -0.025262195617, -0.048199314624, -0.118114680052, -0.087850607932, -0.153263092041, -0.120478279889, -0.149842292070, -0.048432514071, 0.100202955306, -0.024805707857, 0.053870227188, -0.067546546459, 0.021618478000, 0.040919452906, -0.085289299488, 0.000255421881, 0.094391159713, 0.015858428553, 0.063558936119, -0.150559842587, 0.109025307000, 0.002537583001, 0.125043556094, 0.030157823116, -0.009865623899, -0.131086677313, 0.063468493521, 0.029583783820, 0.009937468916, -0.010406494141, 0.123579517007, -0.044570833445, -0.102174729109, -0.101029433310, -0.115144781768, 0.554718315601, -0.052097603679, 0.080330893397, 0.047512561083, -0.000802140217, 0.028933607042, -0.038051594049, -0.035739585757, -0.148283258080, -0.085872717202, -0.096999146044, 0.018490472808, 0.032431952655, -0.060120545328, -0.153653547168, -0.087043017149, 0.224411919713, 0.057047113776, 0.092512317002, -0.045735642314, -0.033145941794, 0.023182235658, -0.010983075947, 0.050626784563, 0.189398184419, -0.088772945106, 0.047787867486, 0.069863319397, -0.034556910396, -0.009167330340, 0.052494358271, 0.012982459739, 0.020877739415, 0.049131680280, -0.171050459146, 0.035391237587, 0.000787516299, 0.178907752037, 0.102413021028, -0.121832519770, -0.100407347083, 0.212409019470, 0.001902742195, 0.133527606726, 0.196668356657, 0.066412754357, 0.035649545491, -0.073988378048, -0.262044608593, 0.150767579675, -0.085044823587, -0.088459998369, 0.049328703433, 0.089548960328, 0.043374691159, 0.091037385166, -0.079249173403, -0.186801329255, 0.209667161107, -0.051382608712, -0.302828133106, 0.076943106949, -0.200404539704, 0.063906475902, 0.199861526489, 0.029266547412, 0.041748378426, 0.029498815536, 0.063302159309, -0.022617351264, 0.037576418370, 0.135244265199, 0.128882706165, -0.033288720995, -0.120988018811, -0.058741927147, -0.009074552916, -0.097936265171, 0.052414018661, -0.050063580275, -0.004633367062, 0.060031265020, -0.042874433100, -0.028702050447, 0.046572722495, -0.104083776474, 0.020584657788, -0.113403916359, -0.039891183376, -0.111482791603, -0.095954239368, -0.103240221739, -0.006807713304, -0.018432945013, -0.058555752039, 0.063340961933, 0.044637471437, -0.028341501951, -0.040222503245, -0.017317427322, -0.059190467000, 0.005798402242, 0.012718945742, -0.075008668005, 0.057750947773, 0.047963678837, 0.047490596771, 0.027768546715, -0.055677711964, 0.114852316678, 0.042317457497, 0.076708704233, 0.077663920820, -0.116474419832, -0.075488507748, -0.074406407773, 0.071015499532, 0.001527648419, 0.120314568281, 0.015128046274, 0.060906976461, 0.115169808269, 0.000366538763, 0.048501461744, -0.076011814177, 0.008935371414, 0.080340653658, 0.047624327242, 0.050369918346, -0.122256070375, -0.117203265429, 0.018262738362, -0.067590773106, 0.017138987780, -0.036719441414, 0.007746212650, 0.043685093522, -0.118497759104, 0.053126096725, 0.016166055575, 0.027110531926, 0.109565362334, 0.104308895767, -0.055253732949, -0.029703354463, -0.060024887323, -0.124659657478, 0.114125899971, -0.002302060369, 0.104900456965, 0.008345945738, 0.001407951117, -0.059531480074, -0.064435273409, -0.007286816370, 0.076658487320, -0.036434412003, -0.063582122326, -0.103234291077, -0.111843138933, -0.130204722285, -0.081065237522, -0.104841023684, 0.032740000635, 0.011136788875, -0.124872222543, 0.065346419811, 0.124998681247, -0.079557359219, -0.039572708309, 0.112541452050, 0.009487897158, -0.089655838907, -0.019106598571, 0.047529459000, 0.068250268698, -0.017770856619, 0.112433984876, 0.055948369205, 0.022224098444, -0.061190366745, -0.108946949244, -0.099429972470, 0.013258299790, 0.089782029390, 0.106506228447, 0.035158813000, -0.077553823590, -0.121063835919, 0.066536784172, 0.056674037129, 0.018604649231, 0.097162574530, -0.099484920502, -0.107972770929, 0.007982756943, 0.015225410461, 0.090876698494, -0.088557004929, -0.082413472235, 0.087945751846, -0.100463971496, -0.077728211880, -0.037806235254, -0.027780650184, -0.057501733303, 0.019192257896, -0.031480193138, 0.118731923401, -0.035287976265, 0.100985020399, -0.008963704109, -0.106240794063, 0.086421869695, 0.062858372927, 0.074353083968, -0.033704541624, -0.007901446894, -0.030125094578, -0.032997854054, 0.043305777013, -0.053528662771, -0.017886856571, 0.124852001667, -0.065532110631, 0.105524182320, 0.000371515751, -0.019785195589, 0.117840856314, 0.107846908271, 0.083608634770, -0.073128700256, -0.078050144017, 0.057862296700, -0.032984081656, 0.064985692501, 0.091616429389, -0.108615010977, 0.059745606035, -0.069236755371, -0.088961333036, 0.084109336138, 0.015076772310, -0.032099466771, 0.078275024891, 0.043643310666, -0.063920259476, 0.075525060296, -0.021886043251, 0.014428209513, 0.060729157180, 0.102887183428, -0.011803388596, -0.068580880761, -0.037446346134, -0.119583614171, 0.079621076584, 0.037815630436, 0.119449444115, -0.073822326958, -0.061478827149, 0.079416416585, 0.045788161457, 0.124293871224, 0.001398891211, 0.020322099328, 0.115309156477, 0.036590985954, 0.112250410020, 0.110997632146, 0.116826742887, -0.069650165737, -0.092406362295, 0.095513723791, 0.029025934637, -0.059944212437, -0.120627999306, 0.020219415426, -0.014354949817, -0.111533991992, 0.108513414860, -0.047866556793, -0.113974265754, 0.097558349371, -0.040587425232, 0.026383023709, -0.099434092641, 0.033160377294, -0.021643264219, -0.079868227243, -0.110590308905, -0.122630059719, -0.034041613340, 0.052949186414, -0.116518080235, 0.077151864767, -0.103307202458, -0.086213141680, -0.121803745627, -0.102005638182, -0.115063548088, -0.053450465202, 0.124870568514, 0.094982683659, 0.038875062019, -0.040560748428, 0.109005153179, -0.018083808944, 0.054927885532, -0.101049892604, -0.113503240049, 0.072845995426, -0.112199634314, -0.103522032499, -0.030280500650, -0.121741257608, 0.024131000042, 0.090504266322, 0.017338037491, 0.057627350092, -0.114877283573, -0.030904769897, 0.057021342218, 0.029584057629, 0.065183848143, 0.104445219040, -0.055347830057, 0.012886226177, -0.086804166436, -0.000311970711, 0.064721733332, -0.008686780930, 0.053307149559, -0.055132556707, 0.104514129460, 0.080913662910, 0.027261644602, 0.108626455069, 0.066325604916, -0.094450324774, 0.082943022251, 0.019106447697, -0.103702336550, -0.075131416321, -0.090526133776, 0.030185997486, -0.002049863338, 0.103669345379, -0.026901453733, -0.124628186226, -0.089626431465, -0.055476516485, 0.043795973063, 0.040876030922, -0.057344704866, -0.087470293045, -0.118423610926, -0.071775138378, 0.101833492517, 0.113132596016, -0.100472122431, 0.091574341059, 0.043014377356, -0.063248217106, -0.079837411642, 0.000984817743, 0.080252617598, 0.104850918055, -0.087467491627, 0.069593578577, -0.067848443985, 0.025592356920, 0.008389353752, -0.054703503847, -0.112343341112, 0.107526987791, 0.006123572588, 0.030485093594, -0.067768424749, 0.063035100698, 0.014359652996, -0.067452907562, 0.040544956923, -0.036924749613, 0.086314499378, 0.114310979843, -0.031574577093, -0.043669730425, 0.020825952291, 0.106479793787, 0.060299724340, 0.096140503883, 0.050580918789, -0.084081500769, 0.108159780502, -0.092771530151, 0.013788640499, -0.100181549788, 0.058034777641, -0.002065598965, -0.005018055439, 0.090190589428, -0.016407996416, 0.017150193453, -0.073441416025, 0.110127627850, -0.014412045479, 0.037437677383, -0.086405396461, -0.042045146227, -0.116460740566, 0.002619773149, -0.099009752274, 0.115254014730, 0.070706337690, -0.064216971397, -0.092366576195, 0.072217047215, -0.090813577175, -0.088695585728, -0.013274013996, 0.122824072838, 0.084120124578, -0.052300870419, 0.106387168169, 0.004618883133, 0.086291521788, -0.089867919683, -0.017442226410, -0.053819358349, -0.115430325270, -0.115592777729, 0.080959737301, -0.106135845184, 0.066150546074, 0.072277158499, -0.124318212271, 0.012971043587, -0.110818594694, 0.100510537624, -0.079598426819, 0.010939538479, 0.043334454298, -0.059095323086, -0.099285691977, -0.116776317358, 0.109631627798, 0.022767961025, -0.061896741390, -0.091679632664, 0.091719150543, 0.076127231121, 0.025360912085, -0.000882655382, -0.058411777020, -0.103021502495, -0.096850007772, 0.044233441353, -0.004085063934, 0.063363522291, 0.008651554585, -0.074156910181, -0.094156056643, 0.022589147091, 0.002210438251, 0.080279409885, 0.102340877056, -0.021044075489, -0.102757483721, 0.012021124363, -0.060337930918, 0.084575295448, -0.032224923372, -0.091460019350, 0.056467652321, -0.038924694061, 0.090286195278, -0.084446102381, 0.062282711267, 0.123796463013, -0.074926972389, 0.120727986097, 0.067522555590, -0.073089480400, 0.046571642160, 0.006626814604, -0.104051411152, 0.037019491196, -0.031709969044, -0.008733004332, 0.007730126381, 0.082980692387, -0.022505193949, -0.022814214230, 0.084002763033, -0.087648093700, 0.112980008125, -0.116178274155, -0.061799079180, -0.005574762821, 0.014490336180, 0.079416900873, -0.030887663364, -0.081529259682, -0.009625822306, -0.074120044708, 0.111179292202, 0.032376140356, -0.008881688118, -0.025168061256, 0.061959028244, 0.035173147917, 0.108807414770, -0.018966794014, 0.061797648668, -0.109805345535, 0.046354591846, 0.104465335608, 0.046216964722, -0.045945644379, -0.042571842670, -0.018097698689, -0.123920768499, -0.118819475174, -0.074450492859, 0.073868989944, 0.118134319782, -0.011013895273, 0.100090891123, 0.090585947037, 0.090575754642, 0.031999707222, 0.093510627747, -0.078308910131, 0.082389533520, -0.087176710367, -0.082737356424, -0.052885562181, 0.124159634113, -0.094278991222, 0.023664206266, -0.037517994642, -0.026467829943, -0.059925764799, 0.062841355801, 0.113704651594, 0.000179499388, -0.064878314734, 0.110928028822, 0.000774353743, -0.072063237429, 0.115546971560, -0.055785238743, 0.089574635029, -0.009691029787, 0.071671545506, -0.121712654829, -0.007751107216, -0.094719290733, 0.114235758781, 0.121578902006, 0.099336028099, -0.010877311230, 0.027418732643, -0.023382991552, 0.049403369427, -0.036927551031, 0.054469764233, -0.081082820892, 0.077540636063, -0.097773462534, -0.099692672491, 0.007692784071, 0.090190947056, -0.122490167618, -0.037569969893, -0.123188942671, 0.023330956697, -0.054172188044, 0.052389055490, 0.030321300030, 0.087075114250, 0.032238483429, -0.093634694815, -0.003564029932, 0.027215063572, 0.114252179861, 0.007198274136, -0.101082324982, -0.118353694677, -0.035683065653, -0.006562360562, 0.067821554840, 0.111811138690, 0.051661703736, 0.003493246622, 0.012436912395, -0.018174976110, -0.008346147835, 0.069105178118, 0.040742486715, -0.005798655096, 0.062629051507, -0.028273580596, 0.056775711477, -0.065300464630, -0.044664967805, -0.003938168287, 0.070998243988, 0.103202939034, -0.050188861787, -0.072228863835, -0.105774514377, 0.035724692047, -0.038505733013, 0.091959267855, -0.015477962792, -0.128089040518, -0.119791567326, -0.062238708138, 0.086617276073, -0.011233230121, 0.119662746787, -0.038646310568, 0.051412455738, 0.158156037331, -0.094354674220, 0.028984403238, 0.117198795080, -0.050972115248, 0.097643315792, -0.109435662627, 0.013110716827, -0.079585641623, 0.027997851372, -0.133062854409, 0.141212746501, 0.032085198909, -0.073547899723, -0.052158094943, -0.099127635360, -0.075732208788, 0.111930362880, 0.028543036431, -0.113621123135, 0.048192322254, -0.052140481770, -0.052814841270, 0.015695458278, -0.088781408966, 0.021759182215, 0.113800399005, 0.024923264980, 0.009912647307, 0.033919923007, -0.019655454904, -0.100260689855, 0.070517241955, 0.125826239586, 0.021720102057, -0.032046116889, 0.022162288427, 0.060695864260, -0.054375618696, -0.076246827841, -0.135196596384, -0.112119652331, -0.006194172893, 0.014111597091, -0.036613401026, -0.038471270353, 0.011494469829, -0.045846324414, 0.071264885366, -0.100540958345, -0.012173909694, 0.027761820704, -0.050477761775, -0.072612605989, -0.060912627727, -0.138974517584, -0.026493899524, -0.079398848116, -0.079659491777, -0.028888396919, 0.101840570569, -0.001260519028, -0.012525439262, -0.061537846923, -0.068299271166, -0.055215846747, -0.094823293388, -0.030221363530, 0.067836605012, -0.005972785410, 0.003176271450, -0.138304978609, -0.023135067895, -0.098401844501, 0.023854406551, 0.002474939218, 0.143825635314, 0.068584606051, -0.057388693094, -0.067003995180, -0.011958689429, -0.176020026207, 0.142459779978, -0.012179614045, -0.113058932126, 0.124783277512, 0.063132151961, 0.028984479606, -0.006123499945, 0.100036770105, -0.066994480789, 0.186715215445, 0.039499424398, -0.009614818729, 0.063242651522, 0.122764796019, -0.000055253506, 0.009474880993, -0.036382611841, -0.010076971725, 0.070232659578, -0.185533791780, -0.017018517479, 0.077170222998, 0.061334665865, 0.048932526261, -0.194122701883, 0.032726306468, 