//Numpy array shape [256]
//Min -25.642807006836
//Max 26.323404312134
//Number of zeros 1

#ifndef B4_H_
#define B4_H_

#ifndef __SYNTHESIS__
dense_1_bias_t b4[256];
#else
dense_1_bias_t b4[256] = {-0.8186522126197815, 6.4448971748352051, -0.0075709111988544, -10.0373802185058594, -0.0571623556315899, -9.4625988006591797, 16.6387538909912109, -6.6100192070007324, -0.0366962328553200, -1.5921759605407715, -0.4380729198455811, -0.0944306179881096, 0.6983085274696350, -0.9342165589332581, -0.0694261416792870, 6.6258287429809570, -0.0836293324828148, 0.0039487462490797, -0.1133225932717323, -5.4914245605468750, 8.0726242065429688, 14.3964710235595703, 4.8898744583129883, -0.0906486362218857, 1.6734302043914795, 2.3822970390319824, -0.0568579584360123, 7.3285112380981445, 6.1866035461425781, -0.0171164553612471, -1.7891478538513184, -11.8466491699218750, -0.1371374279260635, -7.0291838645935059, -0.4464895129203796, -1.4127472639083862, 7.2047038078308105, -8.3756408691406250, 7.0202722549438477, -0.0600973777472973, 2.1905457973480225, -0.1137805581092834, -9.6436300277709961, -0.0631410852074623, -0.0888550430536270, -0.1862916052341461, 1.2533308267593384, -1.9687203168869019, 1.4552266597747803, 0.0649463906884193, -1.7032141685485840, 10.0502138137817383, -25.6428070068359375, -1.6863595247268677, -0.0305144898593426, 0.6673355698585510, -0.8553035259246826, 10.3082990646362305, -0.0994924232363701, -0.0634436905384064, 26.2772579193115234, 25.6473350524902344, 6.1774220466613770, -6.9688634872436523, -0.6552285552024841, -4.3238620758056641, -0.0440108776092529, 1.4480967521667480, -6.7530975341796875, 1.5770210027694702, 0.6766885519027710, 2.1440920829772949, -0.0733455568552017, -0.0397208109498024, 3.4074413776397705, -0.1388427317142487, 0.4684018492698669, -0.0236326307058334, 1.1456518173217773, -0.0887293219566345, -3.0283758640289307, 0.1466284096240997, 8.2343053817749023, 3.7006702423095703, -21.1684188842773438, 3.6757793426513672, -5.4703388214111328, 0.1446988284587860, 0.3339645266532898, -6.2207446098327637, 3.0519876480102539, -3.3676486015319824, -0.0752842128276825, 0.8327115178108215, 1.9935330152511597, -0.0614145435392857, -0.0378944948315620, -0.0648483633995056, 1.8021732568740845, 13.5730476379394531, -0.0599960312247276, -0.0737664774060249, -0.2139029204845428, 2.7457039356231689, 6.0410933494567871, 0.0717498734593391, 2.6186046600341797, 17.1675701141357422, 23.8800849914550781, 5.7704782485961914, 6.8238430023193359, 2.9263498783111572, -8.8744668960571289, 3.8799037933349609, 2.7533755302429199, -0.3960689604282379, 0.8261877298355103, -1.1105101108551025, -2.2359957695007324, -0.0596021860837936, 8.7338762283325195, -0.2650485634803772, -1.4762728214263916, -0.0922718122601509, 2.3288657665252686, 0.0524675808846951, 0.3925411999225616, 8.5014648437500000, -4.8638801574707031, -16.9013462066650391, -0.0691914632916451, -0.1914458274841309, -0.4348013997077942, 8.7935857772827148, 0.7941612005233765, 0.4305289089679718, -1.2057946920394897, 8.1735029220581055, -13.9158668518066406, -0.6457586288452148, -0.2342231422662735, 2.4318630695343018, 0.1289426982402802, -6.9585108757019043, 0.0721956044435501, -3.9486391544342041, -2.0183529853820801, 9.2041635513305664, 0.9094742536544800, -0.1157069504261017, -6.1791110038757324, 0.9249571561813354, 0.0116874035447836, 6.9592742919921875, -0.7951398491859436, -10.5914106369018555, -0.1114483326673508, 11.3181934356689453, -13.1256914138793945, 6.2853069305419922, 0.0000000000000000, -0.0912552848458290, 0.0421810336410999, 2.6765177249908447, 7.8338661193847656, -0.0615475922822952, -25.4368724822998047, -0.0518001355230808, 4.3678221702575684, 21.7414054870605469, -2.8915114402770996, 4.8686809539794922, -4.2418785095214844, -0.0766841918230057, 7.2125048637390137, -0.1800725311040878, -3.3415117263793945, 0.8650251030921936, -0.0440526343882084, 1.3756275177001953, 5.1269350051879883, 8.5731925964355469, -7.0722198486328125, -0.7290095090866089, -2.1117517948150635, -0.0435896702110767, 25.9403018951416016, 5.9746789932250977, -15.4258213043212891, 3.2963294982910156, -4.7763195037841797, 0.3407501876354218, 1.2966010570526123, -0.3547219038009644, -0.0467590056359768, -0.8694523572921753, -1.7382880449295044, -3.7858347892761230, -0.0695890784263611, 0.8331173062324524, 9.2323780059814453, 6.4400048255920410, -0.0884584635496140, -13.4766588211059570, -1.4425601959228516, 8.8980350494384766, 1.6363949775695801, -2.2682099342346191, 0.9838173389434814, -1.0949912071228027, 2.0366640090942383, -0.8985852599143982, 0.4767718315124512, -0.0372404679656029, 4.9155406951904297, -0.4199176132678986, -0.1845320612192154, 0.1427018791437149, 0.9429066181182861, 5.5771956443786621, 2.9948639869689941, 0.0473167747259140, -0.0611639805138111, -4.0343990325927734, -0.0135640352964401, 0.1372227519750595, -0.6322194933891296, 1.1942533254623413, 3.9865958690643311, 5.2770323753356934, -8.5602512359619141, -20.4970455169677734, 2.4939675331115723, 7.1266632080078125, -1.4449750185012817, 6.1708474159240723, -1.0905103683471680, 0.1304891407489777, 26.3234043121337891, 6.9808521270751953, -0.0902052596211433, -3.0226242542266846, -0.0745338276028633, 23.2931518554687500, 26.2597312927246094, 11.1903867721557617, 10.7864437103271484, -0.6695094704627991, 3.9445996284484863, 5.2807083129882812, -0.0381610244512558, 1.7913979291915894, -0.0600721314549446, -3.9335882663726807, -2.5134983062744141, 10.5715618133544922};

#endif

#endif
